1591 128
hha -0.13107546 -0.14311984 0.5844691 0.6192282 -0.3251823 -0.17191646 0.6568902 -0.45962453 0.10072019 0.030500246 -0.38249603 -0.09934313 0.26902378 0.1783087 0.5505051 -0.019082932 -0.09041173 0.04351527 -0.092903286 -0.29324296 -0.08275276 -0.120539606 0.0772739 -0.14819127 0.17775087 -0.25696695 -0.24455121 -0.10201137 0.110178135 -0.29453373 -0.089330085 -0.28109983 0.14516154 -0.030390097 -0.20514457 -0.06282044 -0.059821784 0.16037576 -0.08492045 0.11277161 -0.0027151853 0.61421794 -0.07110081 0.035001237 -0.28804165 0.07803461 -0.17149615 -0.023211908 -0.33631182 -0.49663332 -0.13638759 0.08570375 -0.33308634 -0.6269557 -0.00592932 0.10359652 0.21080217 -0.5201936 0.020117167 -0.28096306 0.05450231 -0.12140358 0.051499177 0.103315644 0.3917757 -0.1391872 -0.3860327 -0.29487628 -0.061365172 -0.09020417 -0.14602043 0.08827093 -0.27585146 0.044394262 0.058478516 -0.3018839 -0.30164814 -0.3810617 0.019808998 -0.37178466 0.34674883 -0.3682649 -0.13543235 -0.069608815 -0.10538009 0.34328312 0.13463119 0.014018499 -0.08179502 0.15359361 -0.20751631 -0.0951597 0.5187915 0.30962703 -0.095149405 -0.4462078 0.321897 0.13895786 -0.2903415 -0.35960424 -0.17689416 0.36234486 -0.042464383 0.13777736 -0.2754913 0.07230391 -0.5933059 0.26729366 -0.13479269 0.12788269 0.16297153 -0.048166506 0.15172155 0.26239905 0.21064402 -0.14809537 0.19691788 -0.34218112 0.7519878 -0.14300619 -0.33491257 -0.17320515 0.32697603 -0.17876537 -0.40636265 0.079938084 0.19777665 -0.0034062532
crl 0.09049401 0.15870582 0.054481268 0.082884215 -0.19012941 0.25091404 0.6160946 -0.10390832 0.34381673 -0.29452175 -0.33795708 -0.6580417 0.23860843 0.23635235 -0.39400932 -0.51532865 -0.1472971 -0.18429792 0.1249424 -0.00089029525 -0.36398178 -0.7061225 -0.102206126 0.17202896 -0.12853327 0.0021654821 -0.41728982 0.12625095 -0.04482631 -0.40118352 0.29448846 0.1805226 0.17495674 -0.0033242344 -0.56229466 -0.249985 -0.27778682 -0.38902932 -0.25657338 -0.14838824 0.44433555 -0.52386934 -0.39967602 -0.31872955 -0.45935497 0.96601754 -0.40443963 -0.44271827 0.5369081 0.05765922 -0.037467815 -0.14653 0.3469418 -0.82606643 0.58134115 -0.0444565 -0.12138784 -0.16563968 -0.30834496 -0.045232438 0.5602585 -0.16461916 0.38322017 0.065007426 0.10925847 0.1812588 0.42659006 0.11634704 0.6029392 -0.49115363 0.11811438 0.35710046 -0.21109396 0.17158149 0.0755509 0.23316634 0.14070591 -0.43195194 -0.053643618 0.010757771 -0.0012222674 -0.10927389 0.39070195 -0.26914868 0.25011912 -0.48209202 -0.28004116 0.082693964 0.30034435 0.11834893 -0.30627868 0.44728214 0.07544171 0.2850622 -0.09119624 0.012143516 -0.1556308 -0.13954073 -0.26919633 0.059046112 -0.00029425757 0.006446559 0.10818375 0.055225257 0.07232078 0.39940566 -0.07861902 -0.101084076 0.045801193 0.29895946 0.18110125 0.59703094 -0.50890297 0.20203777 -0.04991652 -0.3035338 -0.054391697 -0.03553327 0.3084398 -0.5799627 -0.29125744 0.26979372 0.40272886 -0.025459725 -0.15604119 -0.08126755 0.15108569 -0.041981533
dsdC 0.4103733 0.3847938 0.16551541 0.260629 -0.1125774 0.150888 -0.009848255 -0.056846328 0.2697133 -0.30401433 -0.09665222 -0.19544809 0.45656267 -0.51836 -0.1659097 -0.155443 0.14547952 -0.66463614 0.08366879 0.04723099 -0.4054746 -0.46814874 -0.78383887 0.18347678 -0.21444418 -0.03901019 0.16367228 0.1737714 0.41925514 -0.5736522 -0.24210697 -0.21608935 0.09960338 -0.04225347 -0.4059138 0.20401415 -0.086613216 -0.2683741 -0.1966773 0.16340274 0.3373621 -0.53119296 -0.4473101 -0.12575209 -0.25072622 0.8511569 -0.018136641 -0.37065387 0.051805116 0.112453625 -0.13613236 -0.37267408 0.22953707 -0.14420277 0.1558145 0.10352194 0.3795752 0.3789502 -0.27809113 -0.17447121 0.27936152 0.025060924 0.3951395 -0.036434557 0.40532294 0.10815085 0.19553465 -0.37679058 0.5473135 0.018450966 0.5553324 0.04099346 0.2421792 0.19461368 0.13641348 -0.04880771 -0.10772408 -0.67773306 0.32255593 0.027703024 0.35923657 -0.17846993 0.07464687 0.019968417 0.009530184 -0.37320185 -0.46637827 -0.029212322 0.05729424 0.27272606 0.2682254 0.50606275 0.21974006 -0.27695644 -0.4616791 0.07988576 -0.041098762 0.38308448 -0.21079181 -0.12770256 -0.28415176 0.30796534 -0.18211254 0.17038506 0.09468367 0.341014 -0.00042584262 -0.24189276 0.12635939 0.2784061 -0.11283437 -0.049907643 -0.07352406 -0.17549844 -0.034918856 -0.03361417 -0.40238526 -0.09574263 0.6389041 0.14494783 -0.48091465 -0.23873284 0.02670775 -0.20544033 -0.407985 -0.15035148 0.17034222 -0.20369314
oxyS -0.009821021 0.057633962 0.64456797 0.27288646 -0.20829098 0.08216899 0.42303076 -0.50855964 0.0071187657 0.19785896 -0.9393125 0.21941473 0.16870978 0.28310633 0.61261547 0.20723417 0.15241675 -0.05315052 0.03450375 -0.29845142 0.07527194 -0.22816151 -0.2320183 0.1510958 0.1893881 -0.29999697 -0.2545409 -0.036542565 0.38785106 -0.53332186 -0.008113288 -0.46393928 -0.22387213 0.36149698 -0.19368203 0.31819096 0.030018285 -0.19142358 0.2515474 0.059388727 0.03168404 0.32685527 -0.14405023 -0.22637758 0.0027013333 -0.110458076 0.1660313 0.047101244 -0.054685283 -0.29026145 0.19966981 0.21617234 -0.27345693 -0.7609369 0.16401044 -0.17369436 -0.03384338 -0.2693783 -0.0038636976 -0.51554185 0.33307156 -0.30214232 0.18522118 -0.110881366 0.07497811 0.09356259 -0.3009438 0.005749609 -5.8078775e-05 -0.30296054 -0.021161575 0.2009133 0.07675257 0.25021738 0.4546442 -0.2422546 -0.10891809 -0.20618887 -0.122414045 -0.03732928 0.19117816 -0.359819 -0.21981862 -0.06315563 -0.33990315 0.14619856 -0.23064148 0.014867806 -0.05346859 -0.045718174 -0.29565307 -0.06925378 0.46744108 0.27959985 0.07349335 -0.2954087 0.02166712 -0.042814653 -0.28920296 -0.41319633 -0.13591665 -0.12237565 0.21693258 0.26662377 -0.20038103 -0.16936024 -0.961937 -0.03823925 0.14982387 -0.0055376613 0.03580394 0.1399303 -0.3383068 0.36836207 -0.1021851 0.031858016 -0.26227978 -0.41974404 0.4238475 -0.3071431 -0.061681665 0.09350887 0.04431925 -0.28631106 0.18292286 -0.0448661 -0.31794694 -0.04022866
cpxR -0.347251 -0.13172565 0.38630328 0.23158583 -0.38549963 0.469734 0.34889776 -0.82768345 0.3079946 0.078292035 -0.7310326 -0.00090949825 0.48306897 -0.0018290594 0.35502386 0.12422297 -0.1266039 -0.12939 -0.1453404 -0.24494837 -0.064794116 -0.33919856 -0.28098935 -0.03378624 -0.21768624 0.28654686 -0.33548486 -0.4659738 0.44854525 -0.6279746 -0.1646317 -0.25929624 0.13007641 0.3261822 0.03871778 0.27555406 0.08492413 0.16758004 0.072644085 0.14452605 0.3940102 0.46771902 -0.13048837 -0.39601004 0.29411688 -0.069612816 0.23505531 0.24277027 0.3016484 -0.5771817 0.2086408 0.1747541 -0.1652591 -0.4162759 -0.013391611 0.0065909666 -0.037174314 -0.35896674 -0.09029007 -0.19821663 0.49020293 -0.31049937 -0.074094936 -0.24792668 0.31508115 0.06412663 -0.2976698 -0.040068317 -0.10675465 0.11859062 -0.15286139 -0.04247018 -0.088148244 -0.1479044 0.275258 -0.10575496 -0.28059667 -0.505167 -0.051709253 -0.08578345 0.41316962 -0.3131161 -0.26205087 -0.118957184 -0.3657782 -0.41297093 -0.24960165 0.20060886 -0.11282369 0.18116401 -0.3301715 -0.08999191 0.39710107 0.091958955 0.049229927 0.10621096 -0.27012548 0.062546365 -0.17496648 -0.19011392 -0.61804193 0.07395028 0.04623126 0.2116478 -0.23231821 -0.18912269 -0.93145275 -0.09233184 0.12122163 0.07731999 -0.20155303 0.013794497 -0.09247237 0.44721606 0.009960089 -0.09242302 -0.08152824 0.10526831 0.3771279 -0.27554825 0.09319766 0.06371856 0.25434935 -0.2246896 0.097049884 0.0643743 -0.20471963 -0.089055255
csiR -0.056774948 0.25257725 0.58955336 0.19014004 -0.0823935 -0.18407057 0.3348874 -0.047970247 0.047049966 -0.24292293 -0.113018654 -0.04093569 0.39163125 0.04664678 0.51358926 0.41562548 -0.23430577 -0.4020085 0.21947646 -0.30137464 -0.37558728 -0.4288954 0.014018327 -0.20853078 0.03216759 -0.35541207 -0.28972834 -0.40774706 -0.057067826 -0.56131417 0.07936079 -0.17492774 0.0051246798 -0.025596268 0.04058171 0.24652061 0.2144287 -0.19271272 0.0064576855 0.47539735 -0.035394263 0.12305672 -0.32525477 0.19598223 0.24837153 0.5377124 -0.50255793 0.18759096 -0.17105372 -0.21997648 -0.24245435 -0.040504005 -0.19746843 -0.28818765 -0.5455694 0.09250466 0.22256558 -0.19618647 0.303253 0.034368046 0.017164297 -0.13560331 0.008690304 0.38806215 0.27659413 0.1250992 -0.085996374 -0.41037053 0.12414614 -0.038462527 0.30993485 0.2818127 -0.059619997 0.15079515 -0.026411848 0.11038373 0.0074392557 -0.76529795 -0.046061 -0.69696057 -0.11855272 -0.7622824 -0.33769915 -0.30271676 0.07901539 0.104849346 -0.06266942 -0.36333877 -0.022178337 0.009407883 -0.2896658 -0.52139163 0.10565314 0.4379662 0.10242077 -0.4026293 0.16555026 0.049050428 0.066156164 -0.20428166 -0.35021055 0.02207563 0.23835498 0.40965703 -0.01950319 -0.0066140783 -0.28515792 0.047576744 -0.3440156 0.11983574 -0.31752193 0.23845053 -0.10162566 0.14570957 0.0021927299 -0.11073371 0.20459144 0.014550039 0.6458293 -0.35855398 0.20897286 0.03832399 0.15096772 0.43753096 0.08690725 0.084929116 0.26655188 -0.122653246
ybcM 0.371302 0.016777528 0.059622366 -0.039420977 -0.32344258 -0.04093603 0.20352438 0.16792513 -0.16966316 -0.286733 -0.24178603 -0.6426981 -0.031071326 0.0887614 -0.008981987 -0.5855012 -0.2501055 -0.23370813 0.031308204 -0.07757135 -0.4131612 -0.7595622 -0.50633264 0.38910007 -0.0936233 0.18708919 -0.37411824 0.044640824 -0.13939898 -0.14506449 0.47368804 0.16702648 -0.31544107 -0.044576805 -0.3043159 0.029975073 -0.12606004 0.012899413 -0.08439045 0.046996813 0.5440081 -0.24160957 -0.75315654 0.10470638 -0.11213531 0.3316112 -0.07117941 -0.2924278 0.25433946 -0.009060919 -0.24704467 0.2722498 -0.1399366 -0.736047 0.40791512 0.36294302 0.019022582 0.034921624 -0.5364781 -0.16278808 0.5005882 -0.49495542 0.15395933 0.4776277 0.082153596 0.280585 0.30168256 0.16371861 0.72941726 -0.1534833 -0.08651357 0.083937705 -0.3311043 0.07187193 0.44619855 0.1608896 0.2658921 0.18993178 -0.47618973 -0.050560582 0.12452305 -0.47277632 0.018016472 -0.10817012 0.10123884 -0.60317445 -0.13884324 0.2616243 -0.024796665 0.13143966 0.103718795 -0.15094483 0.0971472 0.08465534 -0.035492513 0.038910452 0.060982604 0.41210112 0.035608646 -0.10228573 -0.36044773 0.45008293 -0.47976154 0.03848137 -0.39902383 0.6194937 -0.46045765 -0.20410356 -0.31356168 0.43341583 -0.027812218 0.32819694 -0.6744781 0.06810324 0.103605226 -0.6465502 0.18170822 -0.08849897 0.65272427 -0.59921694 -0.28645685 -0.093602374 0.07232095 -0.006548206 -0.18275023 -0.16803956 0.6046963 -0.45227078
yeaM -0.14448118 0.34523144 -0.19428872 0.14476591 0.14364037 0.25693727 0.5109697 -0.046560567 0.55786276 -0.16070555 -0.5615147 -0.5503284 0.45378977 -0.018980652 -0.1602584 0.0038497678 -0.53809685 -0.34169292 0.18033218 0.005809804 -0.14716375 -0.96750045 -0.10266511 0.038661435 -0.2431556 -0.27976412 -0.14641905 0.03839739 0.09846824 -0.35431197 -0.13415793 0.12482632 0.29113743 -0.23973629 -0.5435425 0.3181948 -0.100575864 -0.24122614 -0.4321504 0.2696515 0.42814246 -0.10494043 -0.3061463 -0.14162564 -0.62711763 0.6796943 -0.2701219 -0.28959525 0.43589228 0.6322662 -0.21815974 -0.40885162 0.18019427 -0.7507877 0.035955742 0.42914885 0.110403344 -0.35014468 0.012715676 0.06330944 0.39801908 -0.03423466 0.4942648 0.03781316 0.1073143 0.34111935 0.34823173 -0.40217713 0.33696115 -0.11677067 0.017732557 0.18649888 0.09722309 0.39770496 0.24648562 -0.03017957 0.43876895 -0.59711695 0.15286851 -0.08218846 0.13203822 -0.08250542 0.5485958 -0.111319914 0.022324365 -0.4194366 -0.45676595 0.25863835 0.1814449 -0.22895774 -0.2445634 0.42303437 0.19074467 -0.077475406 -0.22893046 -0.099614576 0.4002219 0.07670704 -0.24642062 -0.12152198 0.061988134 0.069253124 -0.38780552 -0.039881583 0.043206446 0.39127797 -0.10265801 -0.19559246 0.5206422 0.10276343 -0.13415906 0.25763807 -0.43016663 -0.32521036 0.38157126 0.11294334 -0.40002695 -0.3160592 0.2751446 -0.6123374 -0.2227766 0.046517976 0.5314135 0.09229378 -0.5130063 -0.3173554 0.03732873 -0.015002958
rbsR -0.40907148 -0.08309898 0.39642087 0.18549521 -0.44056728 0.13782759 0.1557205 -0.418615 0.324866 0.2325213 -0.66570455 0.15350066 0.6582274 0.16063114 0.38041136 0.16345759 -0.26521808 -0.13282157 -0.0076299827 0.02116966 -0.09075033 -0.30704373 -0.30186322 -0.09674944 -0.038876504 0.08626564 -0.3994909 -0.28739104 0.013861751 -0.3951378 0.05766565 -0.4552189 0.113025725 0.4676233 -0.31066197 0.31997964 -0.068502314 0.14178056 0.1812758 0.5380017 0.2251134 -0.23582761 0.0651148 -0.31396258 -0.31558153 -0.15347561 -0.08951092 0.04588181 -0.13034445 -0.19699183 0.24651718 0.0771055 -0.4034171 -0.4891151 0.076834865 -0.42786142 0.41553637 -0.4697916 -0.26418376 -0.1334457 0.6393144 -0.2550063 0.13546857 -0.07045676 0.015580105 0.10061714 -0.18769798 0.111562155 0.06649082 0.16043814 0.0102021275 -0.11135838 -0.20573959 -0.072814435 0.16847771 -0.37577137 -0.062107053 -0.2726683 0.23343778 -0.29065245 0.29187256 -0.598274 -0.18412761 0.004104625 -0.65157175 0.064399034 -0.22620296 0.01563286 -0.31618708 0.301055 -0.0957117 0.21710134 0.5202237 0.2436257 0.4181448 -0.38240987 0.2470977 0.45370683 -0.08436495 -0.21094523 -0.506279 0.04173733 -0.24805304 0.11973864 0.00028554248 -0.21516252 -0.79448354 -0.04065199 -0.2108732 0.023458453 -0.18637778 0.31613022 -0.11187696 0.47977057 -0.06533728 0.036556307 0.059185077 0.08486176 0.2441883 -0.38894597 0.14492515 0.29352984 -0.10772874 0.08397761 0.22323585 0.18244635 -0.19462821 -0.016100323
yihL -0.23913674 -0.3383556 0.30057988 0.12659799 -0.42233494 -0.057511725 0.2871182 -0.5202006 0.46473792 -0.14445142 -0.5357299 0.07883 0.5509661 0.39055473 0.67652386 -0.002567842 -0.17433566 -0.04848094 -0.014852157 -0.3155885 -0.2159746 -0.35874814 -0.22763567 -0.22911218 0.1304573 0.14395924 -0.4635562 -0.2670009 0.31980497 -0.12136378 0.06079665 -0.26756418 -0.14479163 0.3056053 -0.2362573 0.158835 -0.055769477 0.10212051 0.22759071 0.242507 0.3435494 -0.0031144093 -0.08748134 -0.13237771 0.00065675745 0.061544653 0.15738732 -0.16905011 -0.15502448 -0.10742196 -0.0028335338 0.15967755 -0.3560601 0.15376441 -0.110222064 0.019725945 0.25740907 -0.29748917 -0.028069135 -0.12756014 0.30191985 -0.20959538 0.065696545 0.08895928 0.48974544 0.18096744 -0.4052905 -0.32919094 -0.16834852 -0.14286913 -0.05157253 0.16008542 -0.30678445 0.13679555 0.28786808 0.02487602 -0.016853867 -0.46321452 -0.112423584 -0.43638852 0.2564167 -0.96658707 -0.043631367 0.09138645 -0.48686746 0.18862444 0.15171316 -0.2545616 -0.036548838 0.22615995 -0.3500002 -0.049982592 0.52345496 -0.027879125 0.13674054 -0.28269935 -0.19183913 -0.024313098 0.27805328 -0.20409054 -0.11489649 0.1380249 -0.12630524 0.3664309 -0.052109044 -0.13604565 -0.61925113 -0.21497375 -0.06603323 0.47762728 0.0490753 -0.13324586 0.13922085 0.5561404 0.21581538 -0.13375045 0.05574769 0.23204462 0.41185114 -0.5909138 0.34642097 0.1687885 0.33113202 -0.1813461 0.09966646 -0.1398717 -0.42643288 0.014372331
yafN 0.30862078 -0.080903664 0.35389462 0.12679349 0.14519472 0.48523715 0.46766374 -0.40954807 0.31711504 -0.5170824 -0.7958313 -0.9005899 0.19887125 0.1082619 0.3989631 -0.32639283 -0.49630338 -0.31951985 -0.18637007 0.24485879 -0.35389724 -0.9547067 0.03092675 0.42529443 0.5530089 -0.47739002 -0.33443388 -0.28157693 0.4744396 -0.62002873 0.39096624 -0.58031386 0.36715657 -0.22494137 -0.5081651 0.11763466 -0.120578796 -0.24217731 0.32609132 0.45874074 0.46526805 -0.061545283 -0.35410023 -0.031239053 0.41427124 0.8082955 -0.3079551 -0.12916715 0.29463255 -0.001194292 -0.34797168 0.09011582 0.30375186 -0.19344896 0.8111912 0.74428654 0.12392041 -0.2594861 0.17925175 0.03503518 1.1332659 -0.52710414 0.1131451 -0.14736211 0.6319059 0.4000991 -0.2516494 -0.16631095 0.088778146 0.15589577 0.7720182 0.12659177 0.33750802 0.061654475 -0.13037549 -0.30337986 -0.71053165 -0.3249584 0.9955717 0.4199109 0.86085975 -0.060959484 0.7595788 -0.27228594 0.115304716 -0.057075575 -0.5487188 0.19586094 0.3397083 -0.097458296 -0.51757246 0.11273331 -0.11722251 -0.14823069 -0.5500884 -0.33214816 0.5204048 0.13498868 0.30204645 -0.50266474 -1.0043279 0.65740424 -0.3398062 0.32883787 0.6266513 0.4157212 -0.9776822 -0.015771775 -0.46566853 0.27656183 0.48314384 0.26971316 -0.39231715 0.5745717 -0.55749404 -0.59055364 -0.10362361 -0.30722198 0.5345806 -0.0144490395 0.26882428 -0.33594912 0.031071031 0.40225357 -0.068364605 0.6652384 0.6584687 0.05699347
ogrK 0.2656861 0.010604717 0.08060943 -0.055821817 0.10611351 0.15286972 0.13066885 0.648193 0.35305443 -0.23422527 -0.09637962 0.06336164 0.513717 -0.2991717 0.16192153 -0.6142495 0.038898036 -0.16768998 0.108112894 0.30187574 0.023228243 -0.35691777 -0.38428313 0.36836773 0.40937325 0.116890214 -0.28263593 0.029908564 0.19905397 -0.5917275 -0.3835809 -0.13556781 -0.38117102 -0.069762275 -0.20818922 0.38300732 0.09983942 -0.26880684 -0.08158264 -0.009162791 0.067713626 -0.48450154 -0.23197107 -0.25415778 -0.3566657 0.68094206 -0.02455214 -0.25013807 0.27913126 -0.2348809 -0.017504795 -0.13428281 -0.3629808 -0.2931557 -0.1693947 0.17492083 0.3112194 0.71855116 0.11280951 -0.5968796 -0.113920584 -0.09142556 0.2457167 0.056438904 0.64303285 0.10730025 0.19983493 -0.13092461 0.3752693 -0.2496356 0.43753663 0.13724811 -0.096864305 0.19811136 -0.026301313 0.26412454 -0.20620471 -0.42052865 -0.24663585 0.06570326 -0.017949937 -0.21805839 0.33627465 -0.52129024 -0.13901988 -0.16102038 -0.37235573 0.42943567 -0.1050743 -0.1111771 -0.49533066 0.1470767 -0.29559252 -0.19876778 0.043450102 -0.030101845 0.044291947 0.5724742 -0.4739393 -0.1797798 -0.5052851 0.32658464 -0.2672055 0.24072541 0.16418315 -0.027637232 -0.06074536 -0.14662585 -0.037972417 0.087346 0.059245456 0.41802785 -0.13097909 -0.17273459 0.11374898 -0.24832407 0.3001138 -0.26721248 0.68604743 -0.29952952 -0.15526298 -0.0009128855 0.016818652 0.3258115 -0.20720042 0.30815703 0.045240775 -0.052127607
sdiA 0.04443458 0.047108132 -0.097856574 0.011813598 -0.031419035 0.077119574 0.557222 -0.46274674 0.22258598 -0.12135248 -0.48753783 -0.4820215 0.44219282 -0.15070044 -0.3404679 0.054345515 -0.14605862 -0.45357326 -0.058162063 0.15761046 -0.37709033 -0.56614596 -0.37614822 -0.12612846 -0.18021318 -0.28739133 0.08349305 0.2593045 -0.082358785 -0.51349896 -0.25524512 0.14409216 0.0092210965 -0.20681679 -0.6221624 0.36842102 -0.22792722 -0.14455484 -0.35377127 0.13665725 0.48909855 -0.31969061 -0.44678238 -0.17616117 -0.5705334 0.80716294 -0.048541937 -0.6182663 0.02511335 0.3087617 0.0060609016 -0.5815546 0.37930703 -0.2599684 0.20209216 0.44769895 0.025891459 -0.14287055 -0.36936587 -0.2955751 0.5953358 0.10537873 0.5009577 0.047569893 -0.074945815 0.24923408 -0.04829016 -0.30390653 0.6265432 -0.25094756 0.2426055 0.31587663 0.1820792 0.22643141 0.21179713 0.029653678 0.08550212 -0.5960299 0.23897882 -0.19925523 0.13251647 -0.027036829 0.66639644 0.10614292 0.016095683 -0.45818228 -0.29572797 0.06879747 0.1116987 0.22857821 0.241435 0.41176915 0.08544728 -0.14557962 -0.49828956 -0.10819015 -0.1849618 0.28010675 -0.29817182 -0.009977217 -0.07678672 0.11516827 -0.11322493 0.02154184 -0.11381007 0.24406505 -0.21976863 -0.5188637 0.24078074 0.17458962 -0.018573098 -0.015141284 -0.36348987 -0.13715532 0.45306244 0.10424004 -0.37653416 -0.25959575 0.3150499 -0.37104174 -0.40124175 0.31112844 0.15548018 0.039613847 -0.43402627 -0.18519557 0.035029076 0.008709349
nac 0.28578353 0.120000415 -0.043644506 -0.28971976 -0.026097108 0.1836084 0.22252427 0.40786487 0.10181727 -0.38798735 -0.15129928 0.21413748 0.6308971 -0.24406238 0.093869425 -0.27256107 -0.16426033 -0.31804115 -0.07196935 0.15286112 -0.30683255 -0.17138518 -0.380998 0.48497957 0.32984355 0.16662711 -0.31016883 0.048687443 0.29960674 -0.66875434 -0.3693917 -0.025511615 -0.29483727 -0.14339702 -0.08027798 0.26926425 0.14391337 -0.37657893 -0.11418092 -0.19005613 0.23712215 -0.54753613 -0.27254754 -0.021985529 -0.123960756 0.40015912 -0.20895356 -0.1940068 0.36716536 -0.33067426 0.06241346 -0.12563129 -0.37085047 -0.21400195 -0.25942314 -0.05789946 0.2585259 0.6062232 0.05016894 -0.5094388 -0.029567821 -0.19159287 -0.044385757 0.16812506 0.6685831 0.3527334 0.19333504 -0.32643712 0.57959414 -0.1628956 0.6131306 0.21796946 -0.2583484 0.22927794 0.051064935 0.11438723 -0.13573503 -0.58214664 -0.22534756 -0.068744995 -0.23014936 -0.21386985 0.31953028 -0.59531784 -0.013657294 -0.30149484 -0.11914607 0.30534866 -0.008395646 -0.023615789 -0.29168323 -0.0005908662 -0.28449655 0.018229742 0.024585154 0.04632746 0.07716303 0.7183966 -0.4179094 -0.1849989 -0.28575322 0.19859219 -0.17210034 0.27222735 0.062447596 0.09607788 -0.14062832 -0.0870389 -0.051814787 -0.056914695 0.11703059 0.54074997 -0.14877267 -0.13792585 0.009709044 -0.3196924 0.19815391 -0.07317841 0.594875 -0.28291243 -0.17974727 0.05941355 -0.16115576 0.29067397 -0.24389271 0.307154 0.08088794 -0.00629807
rstA 0.49947038 0.277786 0.25923353 0.5654217 -0.16338411 0.066281185 0.037546933 -0.09022587 0.34640682 -0.33446413 -0.27484834 -0.5497477 0.2238209 -0.31982622 -0.121866204 0.00747922 0.17091973 -0.68637687 0.09530003 -0.06587045 -0.28016022 -0.5857612 -0.70757425 0.1469114 -0.15338612 -0.17282426 0.1603286 0.22366194 0.1702692 -0.3804551 -0.29561815 -0.3018658 0.09741265 -0.18887566 -0.34510437 0.36435616 -0.27886534 -0.09433888 -0.15980269 0.6255675 0.59385693 -0.1354665 -0.45333427 0.16276029 -0.54810786 0.90285134 0.13018952 -0.3629551 0.17375095 0.06094313 -0.41394103 -0.4230972 0.34109747 0.092011005 0.027485017 0.26604414 0.3575285 0.42921156 -0.35077044 -0.4360924 0.4874461 0.16817017 0.28823158 -0.034107536 0.15849678 0.23442976 0.16752136 -0.011782744 0.6437152 -0.18256685 0.6204492 0.29398847 -0.0028901743 0.19673033 0.19229406 -0.2261405 0.20102409 -0.3490683 0.13526827 -0.42539656 0.24159642 0.053645823 -0.17591758 -0.054855805 -0.03224869 -0.45203522 -0.29612672 0.048729274 0.31455195 0.11540364 0.3285046 0.44432363 0.4301658 -0.3603693 -0.35673094 -0.019923544 0.068539426 0.1930707 -0.15230244 -0.114928156 -0.42954507 0.48156074 0.050070636 -0.04095711 0.09979679 0.23056619 -0.20470943 -0.63320786 0.35714284 0.13264498 0.22109108 0.0059177573 -0.29826945 -0.090129346 0.276552 0.19168337 -0.38873342 0.13098347 0.21263689 0.100821726 -0.12952149 0.09377344 -0.05118345 -0.012082544 -0.30242532 -0.48766887 0.39940587 -0.2636538
nagC 0.5264013 0.42026234 0.18860282 0.21166624 -0.12117885 -0.105670996 -0.106613845 -0.8335287 0.42291212 -0.5366264 -0.51198834 0.035622817 0.072224654 -0.2909659 0.1990791 0.049065188 -0.031954188 -0.13729765 -0.11031723 -0.022802098 -0.25637034 -0.62699586 -0.6694075 0.38002762 -0.4761765 -0.13289765 0.23109923 -0.02902996 0.0635794 -0.48335734 -0.41571334 -0.10333378 -0.04195993 0.27158305 -0.33446234 0.20084246 -0.06383907 -0.0690646 -0.0916898 0.605127 0.5332698 0.2858123 0.048919234 -0.066776 -0.083494656 0.58982784 -0.25287646 -0.43657887 0.3227462 -0.051171016 -0.7500353 -0.50794667 -0.023435509 0.34942976 0.3048765 0.22579025 0.35846943 0.6708787 -0.42748952 -0.3285764 0.37871513 -0.29703137 -0.03972694 -0.08361947 0.21664134 0.46122915 0.19943078 -0.14417946 0.32772982 -0.47061303 0.27815658 0.1503961 0.42687285 -0.19869673 -0.050112106 -0.51838005 -0.04879055 -0.6210343 0.6841125 -0.31470758 0.20981619 -0.009080658 0.26153418 -0.16706818 0.022132149 -0.17773035 0.0037685414 -0.19380449 -0.07426103 0.042016167 -0.36492947 0.22014703 0.51482147 -0.4771522 0.08706232 -0.13166822 -0.1128569 -0.023769338 -0.15420043 0.24528703 -0.4351993 0.32471296 -0.19367915 -0.25469947 0.023892624 0.2709823 -0.45011523 -0.30993834 0.13519539 0.7873415 0.17478508 0.044295985 -0.5397356 -0.2881355 -0.2057576 0.2821256 -0.25337675 -0.46697766 0.6446275 0.109673865 -0.39378053 0.22762698 0.13579735 -0.044171892 -0.44235486 -0.3527425 0.43100414 -0.41405752
qseB -0.4095643 -0.15408093 0.31763598 0.3935882 -0.44969127 -0.1783019 0.6099259 -0.39361933 0.23789151 -0.12463823 -0.17620477 0.27561724 0.45001417 -0.038996633 0.44017476 0.08411789 -0.10897391 -0.013565084 -0.42620832 -0.1958312 -0.22469848 -0.25506657 -0.1386816 0.22606364 0.016654732 -0.23034513 -0.19883537 -0.14968291 0.23504597 -0.46813118 -0.13073383 -0.09609734 0.1669975 0.6416704 -0.29428017 0.05418748 0.07337624 0.06233629 -0.22231598 0.22170131 -0.12984939 0.635976 0.099442296 0.15679985 -0.49945718 -0.1591367 -0.09046564 0.0083748605 0.12641314 -0.8042797 0.10832032 -0.043187343 -0.35342565 -0.46444505 -0.19421622 0.25332594 0.006724649 -0.4142929 -0.0073647704 -0.28072813 0.42891786 -0.021352576 -0.024608716 -0.24038944 0.28042912 0.11058922 -0.19465639 -0.3350982 0.19043715 -0.073551394 0.18115655 0.10714349 -0.609265 -0.20311926 0.42676073 0.2731745 -0.32291374 -0.009901704 -0.068490185 -0.34706542 0.23133147 -0.3665948 -0.15092096 -0.3748856 -0.15929647 0.09560252 -0.33803007 0.0728993 -0.13300587 0.38591504 -0.16676758 0.35245147 0.4523005 0.028133389 0.11181404 -0.1924719 0.28053057 -0.05339486 -0.2845417 -0.56189585 -0.064790815 0.36645642 0.08436874 0.38386658 0.105489224 0.026841713 -0.78925025 0.046661794 -0.15945533 0.076647475 0.019021295 0.14840227 0.08893298 0.2853264 0.0011353223 -0.21304229 -0.0039106887 -0.27624956 0.32457137 -0.13356075 0.0049836244 0.26470548 0.20011602 -0.048469298 0.15707451 0.27499235 -0.20706353 -0.025410876
yeiI -0.12301354 0.076600656 0.10141026 0.35576996 -0.090957515 0.010095493 0.22475842 -0.6408924 0.29768133 0.20286272 -0.516507 -0.018505722 0.016885031 -0.29287025 0.4782013 0.16498856 -0.1257013 0.12987457 -0.04033603 -0.50427383 -0.33449745 -0.3209131 -0.021139609 0.2310192 -0.02194384 -0.02661843 -0.11810587 -0.44438767 0.3703462 -0.36642045 -0.09552337 -0.36432967 0.051324982 0.33167708 -0.04568189 0.2574726 0.061486673 0.17830698 -0.11748037 -0.065929875 -0.26082185 0.7428198 0.014245306 -0.0043397774 -0.10045947 0.0058672526 0.16689202 0.18162017 0.15103438 -0.31438997 0.1762233 -0.025402296 -0.12180641 -0.7038002 -0.08143924 -0.014780083 0.019849243 -0.40292144 -0.19862495 -0.30537525 0.17800482 -0.0041454383 0.051300738 0.1889388 0.66339445 0.23352118 -0.36092004 -0.5273577 0.27166367 -0.104709685 0.093101144 0.19825609 -0.41051626 -0.21010946 0.17704254 0.07456363 -0.22111638 -0.23319629 0.09909554 -0.26877612 -0.09542906 -0.45403394 -0.3626871 0.06907053 -0.16842285 0.044270616 -0.32204357 0.12701726 -0.14091435 0.18619637 -0.15499344 0.28623757 0.76087326 0.10732627 -0.14073808 -0.25668055 0.021412661 0.008110168 -0.0047969907 -0.53586257 0.049814876 0.25773475 0.32011768 0.4529734 -0.11492876 0.021906957 -0.896234 -0.03790974 -0.04228039 0.3858339 0.057381444 0.00403162 -0.21425521 0.30326712 0.30270833 -0.13099395 -0.093027 0.07061327 0.38581836 -0.28170514 0.43252185 0.16892716 0.4417636 -0.045917504 0.023494143 -0.061526924 -0.12026773 0.030670578
ompR -0.42458868 -0.10764775 0.45981982 0.45514536 -0.38681164 -0.13416609 0.077649325 -0.4250751 0.22071713 -0.16900295 -0.21995759 0.10845388 0.7036423 0.35892624 0.27363256 -0.0009160903 -0.022369811 -0.23230489 -0.19257434 0.05883883 0.19900559 -0.47705913 -0.053329263 0.037257854 0.24507552 -0.094447106 -0.38703534 -0.26072484 0.2834208 -0.49849808 0.030506765 -0.019903878 0.30186042 0.6463929 -0.34388345 0.0070196893 -0.09467103 0.017897869 0.27604482 0.3174246 -0.08159334 0.43565303 0.17514373 -0.11251126 -0.00010326774 -0.23066217 -0.14817671 0.01400978 -0.02653377 -0.25069872 0.032989204 -0.42509997 -0.24092443 -0.6443374 0.11473509 0.13556933 0.09442084 -0.4198814 -0.12525028 -0.5021446 0.74303085 -0.11844976 -0.18497962 -0.26863265 0.36022758 -0.1569026 -0.239626 -0.18134515 0.08402899 -0.094382025 0.066997394 0.26503164 -0.36727002 -0.14933449 0.24212842 -0.19258183 -0.46116084 -0.11449965 -0.04560748 -0.47794288 0.5847924 -0.4031274 -0.14351027 -0.08440706 0.045668323 0.22386433 -0.011344135 0.0042664153 -0.38495675 -0.11869521 -0.35650975 0.25642708 0.29999104 -0.056247354 0.077701434 -0.15847471 0.4975576 0.31263173 0.06342339 -0.5439425 -0.38683888 0.23064974 -0.12770791 0.38085634 0.16890149 -0.005965645 -0.79069906 -0.08423546 0.08387281 0.0273039 0.007382707 -0.111802354 -0.1631327 0.24203275 0.13841718 -0.2691738 -0.22180638 -0.2574517 0.2499485 -0.56470096 -0.45411006 0.12412381 0.17901717 -0.017345183 0.29996532 0.0074473675 0.046168506 -0.17546304
yehT 0.31992278 0.2926455 0.2098079 0.27532074 -0.2679454 -0.043955784 0.27535832 -0.47304514 0.4830679 -0.29559693 -0.32157418 -0.36853582 0.059889585 -0.10462973 -0.051002648 0.057825077 0.05210862 -0.48414797 -0.2391608 0.09648404 -0.11132027 -0.42835987 -0.59934556 0.2858426 -0.4262251 -0.06616448 0.4567086 -0.11749984 0.07355367 -0.5524049 -0.096246354 0.026351476 -0.2011206 -0.32045743 -0.6337068 0.41056147 -0.031251427 -0.19614209 0.03975942 0.5936321 0.4592517 -0.2536265 -0.15449631 -0.37518048 -0.38493344 0.7262965 -0.13207342 -0.17161585 0.059055854 0.28226948 -0.4154873 -0.4634194 0.32191202 0.059408322 0.11479066 0.28651097 0.47654063 0.2175841 -0.38885158 -0.24039227 0.53417885 0.03505559 0.45611778 0.059368644 0.1935594 0.3032217 0.008546085 -0.24822824 0.7796413 -0.3056856 0.34945104 0.26045397 0.2639613 0.15260075 0.27956733 -0.31936175 0.013141926 -0.5803327 0.41564408 -0.20188524 0.19267075 0.10185687 0.22555725 -0.009638159 0.0039035091 -0.4370711 -0.31234288 -0.10326564 0.0073408694 0.23264408 0.15482913 0.21159294 0.19322279 -0.48016658 -0.1937977 -0.060035426 -0.13497579 -0.03794876 -0.2918928 -0.17279932 -0.109476954 0.4147016 -0.03561781 0.19269381 -0.06366962 0.45256367 -0.19304396 -0.54443735 0.3625431 -0.007213508 0.1525824 -0.0878643 -0.47284162 -0.15778096 0.1397987 0.13005972 -0.56024617 -0.5930547 0.6375022 0.20132469 -0.023592059 -0.06875164 0.08144711 8.310312e-05 -0.28530636 0.006093918 0.2274001 0.022870703
yddM -0.11157567 -0.080432616 0.46782213 0.5948995 0.3659465 -0.29785582 0.59007996 -0.5119225 0.105082296 -0.05091391 -0.20538652 -0.13111734 0.46714166 0.32780796 0.4843721 0.16799329 -0.25562963 0.17782581 0.088483326 -0.06959577 -0.45438206 -0.46808338 -0.17266653 0.1960951 0.08026855 -0.36246964 0.019629274 -0.56428283 -0.09731584 -0.6339544 -0.05137777 -0.31071633 -0.22209255 0.003723024 -0.19374874 0.40331233 -0.29813743 -0.03954535 0.17526464 -0.07728154 -0.33231407 0.354326 0.13410223 -0.022908444 0.32033283 0.40183255 -0.23415507 0.27351674 -0.17004296 -0.23832369 -0.43608007 0.18005568 -0.21311659 -0.35528108 -0.07706416 -0.056768216 -0.11287605 -0.13814083 0.21792102 -0.13606131 0.26966634 -0.13691616 -0.32903898 0.018555727 0.40929896 0.16936646 -0.16955821 -0.40485078 0.1954545 -0.20119362 0.20220625 0.41348314 -0.24516651 0.004646764 0.13932344 0.17091498 -0.24386466 -0.43733165 -0.032494403 -0.5173059 -0.1078848 -0.47496936 -0.10849603 -0.020206288 0.05510607 0.11249074 -0.048166294 -0.019320067 0.2138175 0.28396583 -0.18434297 -0.12936509 0.09492571 0.011733471 -0.011610538 -0.28291756 0.096297845 -0.1130713 -0.3981303 -0.17638363 0.19206613 0.097013295 0.21951665 0.6025347 -0.1663612 -0.2928464 -0.6649246 0.09881347 -0.09859495 0.124380246 -0.2983345 0.075786486 0.16011053 0.11347398 0.46571827 -0.08755818 0.16959468 0.22412537 0.6176228 0.042753052 0.11616617 0.089810535 0.11403924 0.37536225 0.17526011 0.033173688 0.100209706 -0.23416372
ilvY -0.27174187 -0.25154948 0.35820565 0.30349857 -0.18731195 0.12497098 0.500132 -0.48655578 0.19763127 -0.011680068 -0.61546576 0.14559041 0.61410105 0.5355078 0.7476449 0.3048007 0.16740054 0.10400276 -0.47397044 0.08842012 -0.14502446 -0.34426665 -0.11586505 0.10878416 0.16621263 0.11330597 -0.30873644 -0.029551907 0.014951228 -0.5383759 0.023773853 -0.17314336 0.29956695 0.23831703 -0.31023607 0.051454727 -0.13430929 -0.0120795965 -0.13198018 0.3419553 0.22949876 0.35342702 0.18381383 0.31936032 -0.16586052 -0.064862646 -0.07370604 0.2569141 0.27069572 -0.5691075 -0.44815877 0.17407171 -0.4470781 -0.40454462 0.19913548 0.25045222 0.24731313 -0.22242877 0.07886953 -0.44617736 0.54623556 -0.19664174 -0.17418033 0.023981797 0.17457636 -0.09944433 -0.2921972 -0.5063419 -0.15345149 -0.21599723 0.013066749 0.018798685 -0.06671552 0.07838601 0.4166747 -0.29919198 -0.12301565 -0.2821356 -0.16798773 -0.33828378 0.40158415 -0.33760995 0.023412818 0.007689691 -0.016623091 0.16037893 -0.37817633 -0.03317693 -0.4094492 0.15716553 -0.10920119 0.0776149 0.28535137 0.28438202 0.28382123 -0.10513503 0.29395935 -0.06037809 -0.19558224 -0.2842396 -0.2637925 -0.08531677 -0.15720013 0.26058656 0.09183242 0.2720475 -0.9520956 0.058033653 -0.06455951 -0.22130182 -0.13784079 0.058683272 0.29564115 0.3646268 0.31340343 -0.044742685 -0.019133905 -0.27659568 0.37383983 -0.08873577 -0.27341005 0.20077662 0.053302247 0.16542034 -0.1588279 0.06586927 -0.20042378 -0.033783503
allR -0.11902724 -0.061424937 0.28395995 0.43484294 -0.2887542 -0.4892644 0.6032364 -0.4467975 0.14737199 0.045937274 -0.3963491 -0.17904416 0.4690136 0.012713658 0.544777 -0.18175583 0.061983664 0.23150654 0.19455186 -0.12661889 -0.27051088 -0.2434108 0.19365583 0.019837229 0.4456986 -0.14442568 -0.1323759 -0.5153903 -0.1978496 -0.524984 0.23716205 -0.17513195 0.07027639 0.17074272 -0.37901467 0.1727924 -0.25518999 0.092167415 -0.15842634 0.25347412 -0.15375192 0.072867185 0.017788893 0.29172462 -0.120822564 -0.0075924476 -0.16442946 0.08983804 -0.23567884 -0.75892067 -0.24965611 0.18473916 -0.384701 -0.04215805 0.18111221 0.41888967 0.30230254 -0.31604296 -0.0014479599 -0.019129176 0.35258552 -0.26090762 -0.28611127 -0.03906227 0.17005764 0.18792158 -0.093098424 -0.19346596 0.344767 0.13334237 -0.14704627 0.5102168 -0.089743875 0.09892158 -0.44397855 0.28025648 -0.031239146 -0.18927936 -0.110966556 -0.66028625 -0.014256389 -0.7119089 -0.13557778 -0.38824454 -0.3813034 -0.03897648 -0.090086415 0.022283886 -0.03709607 0.08487006 -0.039773732 0.07324533 0.4099137 0.025183305 0.078752294 -0.317472 -0.09603166 0.11883421 -0.1435168 -0.16398561 -0.19247073 0.10832569 0.11787941 0.23235266 -0.14298622 -0.41004097 -0.6199509 -0.10579614 -0.4327922 0.022648614 -0.092117496 0.26450542 0.15917358 0.1477032 0.45357376 0.01768047 0.0019179387 -0.092459686 0.52176744 -0.2981739 0.30392817 0.31310248 0.2509817 0.17388463 0.040780287 0.1140997 0.0015943053 -0.042480968
isrC -0.28076735 -0.183194 0.25051624 0.30767897 -0.4807369 -0.05506938 0.4490736 -0.507038 0.2359278 -0.12228105 -0.51986647 0.020602249 0.5423673 0.27774328 0.5799031 0.21068524 -0.03356432 0.020535633 -0.23036303 -0.5128463 -0.15286738 -0.31198126 -0.29728922 -0.08185039 0.031940043 -0.24847913 -0.40803173 -0.119427815 0.4801505 -0.720691 -0.42468035 -0.51956403 0.49913958 0.42395222 -0.31809023 0.22022374 0.13884518 0.27245793 0.07634108 0.2456597 -0.35934165 0.24768166 -0.023673348 -0.02355224 0.09481977 -0.11160817 0.08573969 0.2356219 0.05042518 -0.61776876 0.17242958 0.010398043 -0.13490304 -0.35027823 -0.06918274 0.024114108 0.07844886 -0.35030442 -0.087909035 0.016527945 0.53494155 0.09703339 -0.35652664 -0.07826269 0.25686115 0.4963845 -0.24537186 -0.06682562 0.19641085 0.1373321 0.13409518 0.1979602 -0.572113 -0.20905249 -0.08999912 -0.12953597 -0.14890806 -0.55086344 -0.11657583 0.2509106 0.26082256 -0.5414786 -0.00464057 0.08593758 -0.5333226 -0.13845928 -0.23321065 -0.09407446 -0.2106378 0.0927165 -0.22138263 0.16982305 0.42651606 0.2610195 -0.18984807 -0.09883881 -0.32741532 0.16683736 -0.31478 -0.18556972 0.06032002 0.3222772 -0.21825421 0.13341004 0.1871245 -0.102325946 -0.60667396 0.047521852 -0.018615372 0.1479932 0.023254275 0.11167553 0.1646751 0.28961766 -0.32327452 -0.3011989 0.079043664 0.06187272 0.27510265 -0.14625779 0.3695318 -0.024328623 -0.05482067 -0.070752636 0.11958436 0.27666262 -0.17944214 -0.13494435
feaR 0.25202316 -0.1865742 -0.04369851 0.25808683 0.25894898 0.039601788 0.36221015 0.18451132 0.30565292 -0.23171684 -0.23125146 -0.5226146 0.40583286 -0.39987668 -0.4509942 -0.4336227 0.14287847 -0.40151465 0.012654934 0.22542661 -0.30546224 -0.5431345 -0.33767757 0.25502738 -0.24188909 -0.07263693 -0.10043896 0.21811101 0.18199006 -0.109149374 0.06342893 0.21761502 -0.16809614 -0.075491294 -0.41674912 0.1767078 -0.35136205 -0.3646478 -0.19780153 -0.20710196 0.59047306 -0.61292756 -0.5632048 -0.32536426 -0.6681553 0.7427634 0.169845 -0.48608762 0.3687224 0.09212908 0.17097583 -0.2905004 -0.1240432 -0.69910926 0.13208564 0.070828706 0.13387302 0.30798566 -0.31835636 -0.32719254 0.41243008 -0.35108638 0.1119209 0.07659433 0.13014746 0.2072812 0.29888818 -0.1388809 0.7832996 -0.24317847 0.19938233 -0.087914504 -0.08183756 0.30863768 0.21898554 -0.007457316 0.23490682 -0.39154753 -0.21745637 -0.06363132 -0.34943014 -0.10218517 0.24939696 -0.36602065 0.042399496 -0.37877777 -0.30363885 0.2594995 0.31716582 -0.017796004 -0.13134322 0.4146268 0.21863918 0.11379066 -0.12163529 0.16489837 0.16507085 0.2820911 -0.24249393 0.049751155 0.10263615 0.11610897 -0.26210502 0.22105037 -0.016533645 0.30824667 -0.17581509 -0.0041395333 0.33203435 0.16934665 -0.12687376 0.21567358 -0.31416824 -0.09653814 0.103308864 -0.44383177 -0.20540363 0.05096463 0.4513123 -0.6023959 -0.25075847 0.06656163 0.2334481 -0.15648964 -0.39170992 -0.004094302 0.081303954 -0.0042446763
lsrR 0.21572411 -0.12951337 0.10507757 0.36789393 -0.032232195 -0.15170598 0.27067742 -0.12788647 0.22240546 -0.40231395 -0.23093961 -0.31001928 0.27400178 0.32208413 0.14211008 -0.053994168 -0.342856 0.11557712 0.28520823 -0.2601147 -0.22507724 -0.3177254 -0.46741188 -0.11448735 0.2896969 -0.14010523 -0.14882392 -0.11016156 -0.046864353 -0.3779481 0.19753157 -0.24641912 -0.15416948 -0.18960209 -0.16000377 0.26104295 0.094064206 -0.032012396 0.22848976 0.26958436 -0.26719984 0.08919543 -0.16990133 0.24052846 -0.130794 0.58188576 -0.13245416 -0.07070064 -0.072284706 -0.3256782 -0.4654345 0.23628624 -0.50412786 0.03186927 -0.23925588 0.35596475 0.13775955 -0.17473471 0.16327694 -0.31668195 -0.0479901 -0.34591237 -0.19827794 0.5014653 0.6739859 0.017475978 -0.36052677 -0.23514186 0.2811426 -0.1894826 0.10807529 0.2750139 -0.16929987 0.12777846 0.050615717 0.19281162 0.12122304 -0.5619493 -0.38086277 -0.44416192 -0.21305318 -0.27736458 -0.18460983 -0.2257009 0.022103362 -0.13255896 0.06379049 -0.16616192 -0.03338485 0.122294664 -0.40313557 -0.48004627 0.3198897 0.06197651 0.08929925 -0.17960839 -0.06315961 0.18248054 -0.033039875 -0.26186216 -0.46431196 0.3906736 0.013226321 0.18623859 -0.15912688 0.018953312 -0.4269516 -0.035606872 -0.34489295 0.0326592 -0.23357247 0.23247842 -0.082503565 0.09705402 0.4220344 -0.2583624 0.6516892 -0.232791 0.5989923 -0.59394974 0.33147055 -0.16776556 -0.008357325 0.55561244 -0.1457602 0.23955894 0.21326663 -0.02153692
dicA 0.08811931 0.10193733 0.2612167 0.16499473 0.3504356 -0.07838289 0.16352822 0.2400712 0.025476707 -0.30654967 -0.10429554 0.05838434 0.505499 -0.3394082 0.24575482 -0.50555223 -0.43131664 -0.36715895 0.21327922 -0.007016135 -0.32693437 -0.7093739 -0.20464705 0.11906992 0.5025974 0.14707865 -0.30981407 -0.040005483 0.04974422 -0.6107237 -0.4660816 -0.19553797 -0.26443452 -0.2568537 0.10179249 0.6002414 -0.11962864 -0.14268424 -0.014745191 -0.033441033 0.11840672 -0.24577658 0.060356595 -0.0031955831 0.26728836 0.44727376 -0.38393736 -0.08139291 0.02874002 -0.18623045 -0.23172212 0.0076354477 -0.14709666 -0.18242145 -0.33425793 0.24325353 0.16761626 0.45903915 0.06810478 -0.38267186 -0.2186402 -0.07736074 0.19556941 0.25235477 0.540856 0.2420784 0.015672786 -0.41290423 0.43490797 -0.37581426 0.38721335 0.39104074 -0.018548472 0.24642383 -0.035868783 0.3894661 -0.30936602 -0.6459184 -0.33946994 0.034048546 -0.22356468 -0.44870868 0.20850256 -0.7343755 -0.0030340792 -0.053579904 -0.18676579 0.30470526 0.1262613 -0.2591048 -0.45300803 -0.08612118 -0.21922058 -0.01568356 0.048059694 0.016163507 -0.10384769 0.4514613 -0.013964791 -0.2988221 -0.55255806 0.28923783 -0.04371834 0.06649221 0.18584767 0.07930762 -0.3170809 0.105806224 -0.3202808 0.21871041 0.30892095 0.24691926 0.34137416 0.08367448 0.29673216 -0.32768995 0.42116442 -0.115321174 0.7173367 -0.18274225 0.025125246 0.082881145 0.029563818 0.4471489 -0.1707021 0.08117978 0.23902695 0.024792105
eutR 0.09629923 0.17088489 0.15467633 0.43510917 0.07677989 -0.25447673 0.23579343 0.076236315 0.21561614 -0.28659588 0.012746704 0.16635515 0.45585006 -0.16220008 0.4010159 0.03952279 -0.112284005 -0.2804471 -0.19411717 -0.37092194 0.032604154 -0.4239001 -0.3280306 -0.17017974 0.34402767 -0.21613576 -0.27700055 -0.15272677 -0.20592912 -0.64146006 0.12941308 -0.17358434 -0.34194466 0.09879661 -0.14561029 0.3103429 0.06390768 -0.16290252 0.0042409017 0.18308118 -0.044494506 -0.10319558 -0.36371437 0.16644698 0.12891108 0.48093945 -0.37832013 0.046938363 0.1252674 -0.4134772 -0.44035965 0.15815005 -0.27876854 -0.06374596 -0.45363745 0.2063418 0.09146091 0.028409027 0.1861765 -0.35857287 0.14534852 -0.25399497 -0.019292835 0.41584516 0.42110553 0.07125321 -0.07012683 -0.37056398 0.3771463 -0.20901793 0.1489149 0.30529502 -0.35551926 0.044597518 -0.12304331 0.24957412 -0.050187208 -0.6552409 -0.05463064 -0.49801907 -0.21973205 -0.48553142 -0.1814518 -0.37379834 0.4375538 0.06388151 -0.028437201 -0.26302245 0.07496887 0.094249584 -0.37979054 -0.38926953 0.09488305 0.2162476 0.0018049914 -0.124810375 0.3540155 0.08364964 0.15123118 -0.11020623 -0.31515414 0.0980577 0.22423513 0.18652403 0.06945394 0.12529637 -0.5153872 0.0105205 -0.41033846 0.21746694 -0.14776291 0.11727793 0.07347991 0.3012844 0.26473358 -0.28473493 0.29905218 0.08998013 0.71617466 -0.55551344 0.35027477 0.03176589 -0.27696073 0.56011736 -0.2416759 0.16494124 0.3085351 0.07379345
ssrS -0.21661274 0.110165365 0.6213195 0.36577955 0.06203307 -0.3080561 0.34911513 -0.4025721 -0.024653291 0.2484488 -0.3537089 0.17460555 0.33756402 0.45310423 0.50745165 0.29020828 -0.1429233 -0.0037016042 -0.29402786 -0.0056746937 -0.42968085 -0.23989578 0.13091448 0.093739025 0.047561057 -0.22113164 -0.0705804 -0.10929456 0.07233313 -0.6629091 0.08992795 -0.16627961 -0.008641493 0.13466367 -0.3536997 0.20851159 -0.05529166 0.10444648 -0.115200914 0.069938734 -0.076112464 0.3516991 0.049453776 -0.04054191 0.118199006 0.06904564 -0.05458722 0.22714709 -0.1886843 -0.20980568 -0.11565174 0.12770878 -0.45203444 -0.50169647 -0.040098164 0.22818056 0.010824766 -0.29608 0.0034691868 -0.64045346 0.4641363 -0.35996965 -0.31500888 -0.09309163 0.3251133 -0.17363724 -0.13988478 -0.42005506 0.15331371 -0.051645715 -0.07031422 0.50450975 -0.24337052 -0.24615757 0.1935241 -0.3150416 -0.1048776 -0.47905314 0.1387037 -0.24415421 0.02441089 -0.31052154 -0.3369407 -0.1068146 -0.1973752 0.15038936 -0.16959344 -0.24942794 -0.12659927 0.032265283 -0.395527 0.10104375 0.28297362 0.46595383 0.020171773 0.041308116 0.24062113 -0.040465724 0.024281261 -0.27533478 0.11438701 0.39497024 0.19427359 0.10309133 -0.08497706 -0.046337757 -0.85518783 -0.050004967 -0.16929914 -0.08646758 0.019534167 -0.05859315 -0.002998662 0.23983073 0.2822004 -0.17344292 0.32214496 -0.50869006 0.5834245 -0.37465757 -0.22770865 0.13355705 -0.11946654 -0.0046725944 0.123349614 -0.08969996 0.033506278 -0.18627125
sfsB -0.11441538 0.022344878 0.7998828 0.5129343 -0.08170944 0.09045142 0.6245216 -0.28157812 0.14777088 -0.0806563 -0.24477154 0.080610335 0.41257674 -0.15368822 0.4731968 -0.2146014 0.07459108 0.098133795 0.16786873 -0.0059258845 -0.11203529 -0.4241362 0.10719606 -0.39304465 0.28008538 -0.09317093 -0.23181908 -0.56959635 -0.028846461 -0.48114106 0.079116575 -0.12911399 0.6525385 -0.035756074 -0.16292098 0.36166456 -0.0279916 0.093882315 -0.14112046 0.2134156 -0.24973786 0.09226416 0.1669438 0.12676579 0.018111156 -0.22655278 -0.31653285 -0.17764415 0.11220607 -0.62268883 -0.13437024 0.022450035 0.04326313 -0.22458975 0.0383337 0.14041507 0.43350425 -0.47587636 0.06744301 -0.15669876 0.11369082 0.041249696 -0.24088065 0.32602075 0.31015158 -0.012908798 -0.16270843 -0.1259739 -0.19617505 0.052340213 0.11295052 0.11982344 -0.08260045 -0.074600734 0.21750803 -0.2920109 -0.27895886 -0.7262042 -0.14166354 -0.6035909 0.09329145 -0.32238302 -0.14719059 -0.28034225 -0.47309938 -0.08894022 -0.11508131 -0.018644838 -0.5019714 -0.0066929744 -0.23519397 -0.05207746 0.2694453 0.067793265 0.26607028 -0.45258296 0.13271268 -0.0034436902 -0.26008865 -0.3840792 -0.18072864 -0.10090952 0.27161068 0.1014533 -0.16040581 0.0621249 -0.8425395 0.15879232 -0.27289444 0.16816935 -0.16143689 0.16166656 -0.10615684 0.12374784 -0.01982262 -0.2277489 0.12441377 -0.2903431 0.70135003 -0.36506566 -0.010223165 0.04580598 0.47094035 -0.009830204 0.08844844 -0.1619377 -0.09664086 -0.23758578
spf -0.5090804 0.3898021 0.46135756 0.3363928 0.019804109 0.31826925 -0.084947884 -0.45847604 0.5807999 -0.4510309 -0.5031372 -0.19668688 0.026804509 -0.13884656 -0.22451161 -0.17318143 -0.2716587 0.07574765 0.21766222 -0.61878157 0.21772198 -0.76265174 -0.1731976 0.81676793 -0.056058645 0.6436911 -0.40965682 -0.5239329 0.35414726 -0.7096046 -0.037183665 -0.8667825 -0.22804147 0.2632082 -0.26658896 -0.14479178 -0.55516636 -0.42113572 0.1421614 0.8097214 0.46338844 -0.15807848 -0.25416195 -0.21416458 0.57127416 0.28993964 0.6276493 -0.5008028 0.1728187 -0.31070742 -0.23848368 -0.27986866 -0.050878875 0.0005865408 0.06972181 -0.1153569 -0.017300114 -0.2588172 -0.1969145 -0.2551827 0.6518903 -0.16900645 -0.22324964 -0.26786053 -0.14641693 0.08250243 -0.02579164 0.1272359 0.27421623 -0.20460738 0.27975458 0.39655587 -0.26492688 0.25703755 0.43634325 0.10277539 0.04514677 -0.43014622 0.3913499 -0.10414 0.39212337 -0.4671064 0.23372366 -0.57181203 0.13646507 0.040850118 -0.21524988 0.21234804 -0.39300153 -0.038093757 -0.5040447 0.30802295 0.21309574 0.08251189 -0.12424057 -0.25674444 0.12763077 0.010400262 -0.29941756 -0.117412746 0.099948496 0.5287716 0.0017563754 0.20406747 0.113427766 0.25388354 0.18331686 -0.19510624 -0.5918282 0.5198612 0.32023716 0.71586525 -0.14168593 -0.94476545 -0.108188085 0.12844531 0.9280614 -0.053039744 0.60786283 -0.103513174 -0.36424 0.4665042 0.031439677 -0.29197213 -0.4473086 -0.2247315 0.88222986 -0.2147542
aidB 0.60475343 0.044891022 0.17709652 0.40719593 -0.38363677 -0.3279999 0.11480353 -0.7750087 0.44719118 -0.4726954 -0.65415454 -0.09052596 -0.070432 -0.24023381 0.26506084 0.11233736 0.28552303 -0.24702308 -0.61583686 0.086438045 -0.14609292 -0.47401202 -0.39567345 0.64287245 -0.5363174 0.016987726 0.42188656 -0.3067004 0.020749005 -0.706388 -0.26371956 0.10291321 -0.24259114 -0.016724838 -0.19846857 0.2717008 -0.2293062 0.0038659386 0.1445231 0.7501743 0.7528749 -0.19336835 -0.31983775 -0.3274567 -0.5230803 0.5003893 -0.15308619 -0.3378529 -0.33203354 0.17027217 -0.4329641 -0.5759287 -0.10870373 0.17257056 0.116786465 0.1458618 0.3595992 0.32607216 -0.37557465 -0.31415504 0.5894187 -0.1589602 0.28880632 -0.15449177 0.33211374 0.51820606 0.015682045 -0.08694946 0.49628752 -0.334454 0.24744286 0.085476026 0.023238825 0.22186334 0.049778 -0.44235587 0.054793272 -0.68913174 0.6597907 -0.27292094 0.073525116 -0.055559065 0.61622024 -0.14261098 0.04950186 -0.10531749 -0.2650337 -0.049297877 -0.38032374 0.25504127 -0.24113458 0.2622005 0.25878316 -0.59180564 -0.05865133 -0.06036744 -0.2726448 0.019541537 -0.18141162 0.0019915397 -0.3699216 0.31279355 -0.010964772 -0.07426704 -0.12498782 0.66318905 -0.41803765 -0.034217972 -0.042893626 0.35400942 0.25012073 -0.28238666 -0.4381628 -0.46183982 -0.29711872 0.23583007 -0.5104442 -0.41741052 0.6268473 0.09297037 -0.049800094 -0.14432868 0.11636424 -0.104502946 -0.14515024 0.05208761 0.51973903 0.07818021
nikR -0.22150704 -0.07921352 0.38192594 0.26312217 -0.14998485 -0.40999433 0.6271126 -0.34874505 0.111797415 -0.113947384 -0.4949052 -0.34123233 0.2390109 -0.025350189 0.4703509 0.09146476 0.06740733 0.34661108 -0.03306073 -0.17426623 -0.31345838 -0.42229873 0.06377058 0.25655043 -0.0467267 -0.63824433 -0.22659148 -0.5419104 0.28374237 -0.4584772 -0.20179996 -0.545545 -0.07243168 0.17730162 -0.2576883 0.40325 0.0391898 -0.36924565 -0.49849465 0.3709999 -0.07836061 -0.037069738 0.20774247 0.31928375 0.4058932 0.18840206 -0.28753567 0.1793413 -0.08048923 -0.4662672 -0.41848388 0.291096 -0.38993195 -0.18344644 0.12123167 0.11186234 -0.16453308 -0.24703911 0.113545254 0.17457739 0.5350567 0.23487525 -0.46743178 0.13458562 -0.014556754 0.055703778 -0.23063903 -0.14361127 0.39402923 -0.17301956 -0.21055208 0.40011382 -0.58787525 -0.10787859 0.1008345 -0.31491348 -0.21893318 -0.32401055 -0.18553984 -0.31085926 0.072317086 -0.5637166 -0.11656793 -0.14761168 -0.25019896 -0.23850942 -0.05022997 0.18961725 0.048497144 0.24432777 -0.46586156 0.09908453 0.38336486 -0.35173106 -0.27399114 -0.55080265 0.01810154 -0.16098522 -0.19189931 0.029593494 -0.2607218 0.10417427 0.1339326 0.2249387 -0.21901394 -0.32267842 -0.4069268 0.0511785 0.11043956 0.460652 0.009359187 0.12695569 0.38411838 0.2531523 -0.10957059 -0.45641348 0.012964141 -0.1252467 0.47756982 -0.29165342 0.20601699 0.0038467767 0.23163646 -0.09399026 -0.00061512156 0.14962842 -0.032589007 0.06286147
fis -0.46756554 -0.12420871 0.26155066 0.27672663 -0.23494253 0.23429002 -0.019889718 -0.7653583 0.09281753 0.16338323 -0.2656888 0.22455111 0.2802922 0.2923476 0.32946706 0.42078146 -0.17639938 -0.028902426 0.26992887 0.2881932 -0.21939756 -0.15619583 -0.21822517 0.17543402 0.036221735 -0.089486286 -0.065531515 -0.2601977 0.37003556 -0.6066549 -0.065478645 -0.15198451 0.10866311 0.30369022 -0.21042325 0.34851274 -0.06634479 0.27428862 0.417986 0.057818376 -0.033258002 0.401403 -0.2983448 -0.57128173 -0.14056364 -0.1154637 0.09786831 0.13137852 -0.1678698 -0.19463687 0.47134137 -0.1687965 0.11775111 -0.55359983 0.16502763 0.11762174 0.20293619 -0.3244756 -0.0024396917 -0.43089643 0.6018108 -0.08754419 -0.08893479 0.16004246 0.48324454 0.42621127 -0.056120254 -0.32650325 0.020307159 -0.26053447 -0.25117093 0.31724152 -0.3508139 0.044992793 0.2817519 -0.49336737 -0.24350281 -0.020017674 -0.18616027 -0.49285105 0.13192904 -0.44942418 -0.43777308 -0.19041699 -0.24132952 0.15278271 -0.19951233 0.045480058 -0.33405828 -0.3515646 -0.29315454 0.38466963 0.6705891 -0.012321695 0.021674424 -0.25526053 0.2871408 0.38353932 0.09696889 -0.29601067 -0.5100288 0.47093663 -0.14397484 0.33042708 0.033046518 -0.21473415 -0.9223251 -0.19898583 0.21155477 0.21884543 -0.08597469 0.06741269 0.11496412 0.28934896 0.23688549 -0.2578288 -0.105903305 -0.21428294 0.3685743 -0.65569323 0.008169914 -0.02739408 0.1331551 -0.10674139 0.0528066 -0.07729014 0.36997226 -0.13081808
nrdR -0.11414543 -0.1487444 0.21871015 0.63896346 -0.4609354 0.08162697 0.68167174 -0.57252586 0.21302523 -0.008101737 -0.37348053 -0.27754188 0.28243285 0.12775001 0.47887847 0.12220804 -0.35758835 0.040936347 -0.17853297 -0.2569681 -0.22239867 -0.10016782 -0.0708527 0.2863055 -0.33109158 -0.3237846 -0.094496205 -0.2703878 0.27747628 -0.2526434 -0.06389842 -0.078751616 -0.23585993 0.5814728 -0.19456619 0.14537568 0.021062165 -0.4321669 -0.23095044 0.1447196 -0.12958546 0.7004242 -0.03208304 0.45275757 -0.06914487 0.15773119 -0.08078995 0.01838818 0.07809854 -0.36877608 -0.037825987 0.09113792 -0.21771018 -0.3948801 -0.04665247 -0.14559463 0.12505929 -0.58836913 -0.17310505 -0.29682112 0.4424295 -0.03765116 -0.36234927 -0.24137585 0.6910368 -0.051368605 -0.20807269 -0.34510943 -0.26549238 0.00648791 -0.081350856 -0.007375721 -0.3613947 -0.06910813 0.6557082 -0.12142297 -0.23763238 -0.26325345 -0.081389934 -0.34579825 0.20041682 -0.20088375 -0.19128305 -0.10680129 -0.14294146 -0.0020107352 -0.102087684 -0.19749846 -0.23364198 0.40396082 -0.18652177 0.35053697 0.5892116 0.061592583 -0.34399894 -0.4517006 0.23763067 -0.11338688 -0.302863 -0.049708337 -0.23112531 0.18051846 0.00071672647 0.58152103 -0.24440216 -0.043536086 -0.6524458 -0.27241534 -0.011234543 0.15348442 -0.13015154 -0.01740407 -0.13174175 0.27796206 -0.078193486 -0.011043898 0.2051225 -0.4634128 0.6729158 -0.081526175 0.047514375 0.1957388 0.19059518 -0.034064908 0.090054706 0.17736278 -0.32432476 -0.07016311
ybhD 0.06574724 0.21023667 -0.046142258 -0.2917343 0.010049319 0.34512568 0.09952397 0.47917563 0.023847967 -0.3489234 0.012513477 -0.083113804 0.40481204 -0.46728477 -0.1692063 -0.46822667 -0.3847623 -0.19952658 0.052281372 -0.06670867 -0.43760133 -0.52818733 -0.21409252 0.7768098 0.13469079 0.32122955 -0.3706981 -0.037744243 0.41775313 -0.8810376 -0.6024725 0.002122531 -0.5104374 -0.34494293 -0.33166507 0.47827968 -0.112069085 -0.2593905 0.13290946 -0.15364134 0.17801431 -0.2726675 0.08962781 0.42507058 -0.08342419 0.44410023 -0.064222105 -0.2588543 0.010744616 -0.17680863 -0.04597862 0.04764438 -0.36570176 -0.20383245 -0.21123087 -0.21275891 0.02618854 0.40606442 0.12290489 -0.33661225 0.07438022 -0.29858965 -0.06940188 0.1325241 0.72344583 0.23997065 0.14912921 -0.22009933 0.56158805 -0.14599946 0.7096188 0.33124107 -0.29559845 0.1523817 -0.019308975 0.3922186 0.118613176 -0.6402083 0.06420283 0.14194454 0.112537205 -0.066443324 0.011005801 -0.66208297 -0.009561838 0.004805786 -0.31245986 0.42491204 0.0041739913 -0.111092575 -0.31028834 -0.064519614 0.10868413 -0.07905039 0.18813841 -0.27845684 0.10835387 0.61734986 -0.21775644 -0.459261 -0.41810906 0.12776814 -0.3658797 0.47107595 -0.15518455 -0.15078025 -0.4335639 0.02508367 -0.0064065945 0.13432348 -0.03534144 0.33402324 -0.09940869 -0.25648206 -0.35660252 -0.59420276 0.18580347 -0.06647873 0.5229525 -0.39151552 -0.07531113 -0.10338789 -0.0056871367 0.46559826 0.14456126 0.28142917 0.2512947 -0.39853352
matA 0.20947774 0.38116384 0.080421 0.22773044 -0.24176514 -0.0646429 0.06311546 -0.6744814 0.39791 -0.24694759 -0.4563071 -0.27425653 -0.22439022 -0.21665056 -0.064874195 -0.24269693 0.15660152 -0.15654717 -0.106954336 0.004287649 -0.10865502 -0.48860225 -0.8310612 0.47922403 -0.6298132 -0.025389452 0.43892646 -0.027240716 0.1884096 -0.5807408 -0.15429342 -0.10390427 -0.405058 -0.16780883 -0.60740405 0.6366978 -0.22460072 -0.29754397 0.002334956 0.6743404 0.36581427 -0.24349077 -0.032052323 -0.297965 -0.30618063 0.39853075 -0.19245046 -0.37811708 -0.1222121 0.15734346 -0.43326867 -0.47384328 0.04250673 0.010602525 0.01782315 0.25681433 0.3599899 0.24998978 -0.5500523 -0.3760542 0.45784807 -0.30261922 0.20646092 0.012132789 0.10339356 0.40574688 0.06738927 -0.3988014 0.5923042 -0.32012323 0.29161274 0.45600745 0.36916137 0.23449536 0.02537844 -0.29658103 0.1855324 -0.92018914 0.31382608 -0.03193785 0.4419361 0.06435368 0.2528772 -0.16627522 -0.15739071 -0.2815019 -0.21300375 0.0015310466 -0.27724496 0.10978553 0.003014275 0.24811505 0.274867 -0.5230788 -0.035095673 0.15329076 -0.17729218 -0.1706859 -0.33171278 -0.12778278 -0.3488523 0.31562233 -0.030175727 0.33241242 -0.26930052 0.36847177 -0.14256781 -0.116365544 0.15278405 0.110204645 0.099070095 -0.057498414 -0.47304535 -0.2220603 -0.18363388 0.08979631 -0.506481 -0.47559986 0.6926544 0.5448156 -0.21731015 -0.14281698 0.11306663 -0.022885475 -0.23978953 0.038785763 0.25917518 -0.017785214
cspF -0.2374854 0.025291285 0.24471529 0.0131137315 -0.29940403 -0.081952505 0.5661452 -0.31140187 0.056060474 -0.066020764 -0.6415555 0.02080407 0.5379917 0.26351 0.70279217 -0.0673783 0.24598438 0.31980407 0.21915974 -0.3494216 0.010153266 -0.39926568 -0.1993137 0.0012230627 0.26967615 -0.3986914 -0.43401855 -0.6804002 0.068569764 -0.42254418 0.15585761 -0.23614535 0.26583475 0.011213805 -0.34805042 -0.023975626 0.09744565 0.0128384335 0.017054718 0.48259264 -0.076539084 0.24541944 0.33617234 0.16190109 -0.02189112 0.11099642 -0.3166445 -0.19911407 0.01086645 -0.6813086 -0.31316236 0.034529727 -0.2608921 0.005850642 0.0051906365 0.2535019 0.29856798 -0.21273261 0.2661104 -0.010041499 0.2149862 -0.32706952 -0.37787843 0.051918082 0.5649402 -0.07408087 -0.35078833 -0.33743936 0.3459422 -0.07433231 -0.06734152 0.29336077 -0.3000982 0.009787346 0.06616764 0.08647292 -0.037276193 -0.28140038 -0.17414407 -0.3716911 -0.13294677 -0.4057907 -0.3520496 -0.21616037 -0.08293795 -0.056303952 -0.0074305874 0.119461745 -0.14412773 -0.032456756 -0.39201766 -0.24864264 0.2984944 -0.12588847 0.13779409 -0.451555 -0.24568787 0.10046607 -0.045961507 -0.22910318 0.0065443697 0.30867898 0.19936 0.17372853 -0.021792663 -0.22442958 -0.24064393 0.068417266 -0.11064982 0.098061115 0.12628078 0.17904216 -0.08330914 0.2649775 0.45486772 -0.14682847 0.09010587 -0.29355416 0.77308106 -0.41506824 0.12381647 -0.10125033 0.17216843 0.13217604 0.045772545 -0.08366876 -0.15136471 -0.09508288
allS -0.12773025 0.12979433 0.39761338 0.33659685 0.023109619 -0.14843959 0.54689115 -0.5698342 0.10302226 0.19620313 -0.6575568 -0.13032275 0.2312782 0.25009713 0.5951834 0.15391758 0.37019163 0.3419623 0.14721029 -0.20317969 -0.1944569 -0.034670915 0.07689305 0.053755604 0.17836788 -0.33385283 -0.29469144 -0.53799784 0.117639065 -0.4211283 0.08485266 -0.36248025 0.059936464 0.05540412 -0.505403 0.08214588 0.14409436 0.20778033 0.1489033 0.11110378 -0.33378348 0.49327463 0.20243919 -0.016572712 -0.079179205 0.33176517 -0.1346479 0.17551868 0.093736 -0.33788562 -0.121502414 0.13528106 -0.09106069 -0.48839796 -0.120946154 0.26338097 0.3501866 -0.10740815 0.13109533 -0.3493716 0.37876347 -0.39771643 -0.46313345 0.005707041 0.5149303 0.116411954 -0.19257192 -0.5456451 0.27784476 0.054128 -0.11651471 0.44522294 -0.20190753 -0.1036723 -0.15380175 0.03002341 0.12517402 -0.3332608 -0.15034105 -0.21240965 -0.034499016 -0.24450256 -0.14763166 0.10519459 -0.10258055 0.028943438 -0.20109579 -0.14654326 -0.12617405 -0.09735735 -0.071100295 0.19607328 0.2543601 0.24372378 0.083400294 -0.3510269 0.019799894 0.046722054 -0.24555005 -0.36568624 0.19592594 0.21035667 0.08463833 0.3767865 -0.15244193 7.089408e-05 -0.6313034 -0.050881006 -0.21112727 -0.010833532 -0.002675473 -0.041713636 0.01866361 0.13468237 0.2854111 0.058718696 -0.042407215 -0.29258588 0.7935449 -0.22759765 0.27938825 0.20890789 0.12949373 0.11007543 0.015354309 0.0048199934 -0.020793535 -0.55959505
yegW 0.18567002 0.07603657 0.27682072 -0.009523899 -0.26072794 0.18237397 0.01767762 0.45308697 0.23120621 -0.27510992 -0.23997782 0.18715324 0.5443435 -0.67754203 -0.06323131 -0.43479604 -0.2537304 -0.33335525 0.28014985 0.087099254 -0.33954373 -0.22443146 -0.5051262 0.22340484 0.5427645 -0.055556554 -0.0898382 0.0324644 0.41287988 -0.6847233 -0.40594676 0.06554703 -0.17039518 -0.15428005 -0.23973362 0.44180542 -0.41733468 -0.17861508 0.076686 -0.16043943 0.19862849 -0.47406742 -0.33745605 0.17190109 -0.17807163 0.41416296 -0.17753117 -0.23426259 0.093293846 -0.009986215 -0.07225697 -0.06541156 0.04468577 -0.07380205 -0.31276602 -0.103453174 0.39407477 0.67234135 -0.07738941 -0.28221545 -0.13449687 -0.087085634 0.12516469 0.4334516 0.77160007 0.5793178 0.11758217 -0.43717372 0.56586915 -0.072866604 0.7719915 0.29570618 -0.15176253 0.27471507 0.19539559 0.29123077 -0.25977993 -0.4501697 -0.23125371 -0.030339183 0.050057672 -0.69712675 0.18404588 -0.5162512 -0.1317598 -0.051104955 -0.1565661 0.42181912 0.12420839 -0.09283237 -0.28822032 0.22451189 0.0519777 0.0984538 0.13954218 -0.1632748 -0.55303323 0.6648181 0.04699229 -0.35460374 -0.59051347 0.2522466 -0.02788131 -0.17076501 -0.028297981 -0.2712786 -0.125307 -0.081943095 -0.15828936 0.13132194 0.3539303 0.38383797 0.2262171 -0.16504432 0.10741081 -0.05926214 0.2630196 -0.035526857 0.7214613 0.07506956 -0.18987888 0.17764102 0.05946799 0.27953202 -0.36349455 -0.0313575 0.1312772 -0.023047403
deoR 0.3822338 0.20387468 -0.032329317 -0.16276062 -0.20062836 0.23790841 -0.18667983 0.42402208 0.061911523 -0.474312 -0.0052819885 -0.009853047 0.3122571 -0.52286625 -0.08938046 -0.4931117 -0.4804618 -0.40134653 0.019081475 -0.14601848 -0.31820157 -0.46286303 -0.3593542 0.44120538 0.16404796 0.12935896 -0.0009939887 0.27897298 0.37410328 -0.65807223 -0.34128395 -0.2555658 -0.12314055 -0.2934784 -0.11163196 0.29397777 -0.08068324 -0.4015875 0.27668813 -0.30577385 0.33176193 -0.33241135 -0.106374174 0.46767494 -0.04769832 0.23728324 -0.13766709 -0.40570074 0.028380502 -0.48304957 -0.060505264 -2.0123958e-05 0.066795774 -0.28227514 -0.08050629 -0.24999589 0.29827902 0.32174343 0.11441991 -0.40127546 0.22234578 -0.2963428 0.1298886 0.08977808 0.7466888 0.418114 0.14000984 -0.3464669 0.6905222 0.114194974 0.6935918 0.4193428 -0.104305886 0.11297048 0.13079576 0.15233232 -0.059628107 -0.48556507 0.021545224 -0.026996724 0.35856125 -0.12560697 0.22759834 -0.5410625 -0.17663895 -0.1304131 -0.13762692 0.5981413 -0.15147595 -0.23081067 -0.02517229 0.09817478 -0.07593058 0.0963958 -0.21907137 -0.08693886 0.049228158 0.74250865 -0.37506607 -0.38363823 -0.4767025 0.3769336 -0.48916584 0.38568395 -0.21729705 0.04801372 -0.32832205 -0.10036128 -0.050722167 -0.13754165 0.050240185 0.47045815 -0.17282951 -0.13109557 -0.36016127 -0.40241042 -0.08225011 -0.20842378 0.6238828 -0.18720393 -0.27603045 -0.36054775 -0.12599048 0.14027426 -0.23626538 0.28460938 0.09733776 -0.48711044
dctR -0.007975034 -0.13302608 0.50137794 0.46273193 -0.38334095 -0.4567057 0.7740446 -0.26211143 0.19006176 -0.058427386 -0.30025166 -0.04346726 0.4965148 0.31661132 0.99951005 0.028735459 0.088944815 0.08815089 -0.009904186 0.10695859 -0.64032376 -0.25028813 0.0588525 0.058750425 -0.107397184 -0.286274 -0.06677848 -0.33384228 0.0237563 -0.31188932 -0.0031828235 -0.2643756 0.20244122 0.15125224 -0.08008904 0.08984158 -0.27869314 -0.12923686 -0.17399916 0.42588902 -0.06742854 0.19162276 0.040431354 -0.10846926 -0.25536653 -0.013093291 0.11245434 0.06321476 0.06615175 -0.3743111 0.012627172 -0.19321018 -0.3795039 -0.13735189 -0.09676714 -0.022992687 0.189275 -0.20620705 -0.018815057 -0.081366986 0.020970298 -0.38836178 0.015706848 0.12553108 0.5203011 -0.0397283 -0.41316423 -0.5682737 0.10256518 0.31414965 -0.15780927 0.11791397 0.012628681 -0.026506567 0.37307185 -0.16990772 -0.069879815 -0.08973822 -0.17079307 -0.31324077 0.046037022 -0.7199931 -0.12786248 0.0030798486 -0.06518193 -0.028167492 -0.24587443 -0.146435 0.11351797 -0.12603839 -0.18265904 0.17883626 0.4507917 0.2689192 0.19347931 -0.5407601 -0.044538952 -0.18818386 -0.18642257 -0.24432597 -0.35670522 0.46639737 0.107525356 0.2267834 -0.4690811 -0.4016131 -0.55081624 -0.07886943 -0.0040324125 0.4412011 0.09210795 -0.0536147 0.0998556 0.46726355 -0.17330663 -0.11051356 0.0075597786 -0.27311742 0.58822083 -0.5579488 0.055257246 0.14189948 0.3610899 -0.31203097 0.07543101 0.27722672 -0.09629018 -0.12623505
dgsA 0.016703535 0.07220137 0.102731265 0.38304433 0.28328076 -0.34300438 0.52152526 0.074797384 0.16234484 -0.31627482 -0.25448883 0.08431494 0.4057194 0.024588032 0.29984397 -0.08388282 -0.14890456 0.19700025 0.05697987 -0.31724682 -0.20197788 -0.3743039 -0.13442528 -0.14641498 0.34792417 -0.25932756 -0.057270907 -0.3091853 -0.28653067 -0.5088714 0.021566886 -0.41551018 -0.25555214 -0.0026090278 -0.21368767 0.113400616 0.14028284 -0.22456516 -0.03774053 0.06299349 0.0102530075 -0.13253473 -0.25150943 0.17110148 0.090377375 0.6004843 -0.30379653 -0.1263786 -0.157725 -0.25071862 -0.6551398 0.36540416 -0.35002986 0.11635004 -0.09400424 0.1906434 0.1427725 0.050955076 0.24180125 -0.30868116 0.1188813 -0.34279698 0.0046749185 0.39128426 0.29314962 0.111795604 -0.11131183 -0.42564663 0.27252236 -0.31287304 0.22146878 0.25917917 -0.35667124 0.010521743 -0.067323945 0.2809702 -0.04281709 -0.57715905 -0.2595151 -0.43557444 -0.20845075 -0.17982112 -0.4159665 -0.20946378 0.12972881 -0.010831168 -0.042449854 -0.1190176 -0.0031439092 -0.044789013 -0.5571848 -0.3483542 -0.0074828723 -0.033150706 -0.17580605 -0.18112616 0.12686911 0.061003603 0.1063771 -0.3207759 -0.16631791 0.34400976 0.049577687 0.18560001 0.20042278 0.0003230003 -0.73233193 -0.101196624 -0.2670585 0.19892348 -0.22423328 0.21601589 -0.08721863 0.40549088 0.23413587 -0.4459737 0.3177671 -0.2161305 0.7335352 -0.61534494 0.26287195 0.13846779 -0.06198634 0.7114213 0.083239816 -0.018590944 0.29919043 -0.17131299
cynR -0.2678466 0.18154919 0.38489288 0.55727446 -0.24781002 -0.14996764 0.5468647 -0.46685684 0.2067207 0.23012973 -0.21937044 0.12620635 0.36928228 0.15893456 0.24608435 -0.17233613 -0.07641629 -0.14581165 -0.009168834 -0.27811322 -0.040046472 -0.19696037 0.03413023 0.026335504 -0.16885768 -0.5414252 -0.124697156 -0.12240026 0.39723572 -0.32365093 0.03638362 -0.064177714 -0.099616505 0.3327401 -0.4388782 0.4843542 0.069069505 -0.090828024 -0.2537571 0.22986764 -0.2265676 0.64448655 0.16257253 -0.037469286 -0.21396224 -0.08139582 0.09972978 0.063255705 -0.065380305 -0.39109817 0.20904717 0.14889534 -0.2043332 -0.45050466 -0.2839016 0.19789112 -0.044393532 -0.3425382 0.19911803 -0.23583415 0.3753534 0.19648442 -0.12617394 -0.10660416 0.36207718 0.26487714 -0.33775795 -0.16468324 0.124207154 -0.38099557 -0.024561044 -0.025138168 -0.33523014 0.002005306 0.59403247 0.08783018 -0.37374023 -0.13165297 0.36754954 -0.21010531 0.18151233 -0.4016063 -0.33141458 -0.23550607 -0.11888205 0.34995982 -0.06936265 0.09260103 -0.12687933 0.28945264 -0.15111546 0.35741618 0.5909191 0.059077796 0.008330919 -0.35168108 0.23595572 0.019259369 -0.24467589 -0.72616583 -0.21689758 0.42713133 0.1424998 0.45449236 0.04596442 -0.11156323 -0.8379693 -0.13037881 -0.24181008 0.25065246 -0.2052964 -0.03543247 0.072702095 0.46509618 -0.10155695 -0.2166798 -0.03887108 -0.29597428 0.5207127 -0.21206541 -0.2427572 0.07649433 0.16259451 0.030854845 -0.008697951 0.15973957 0.11073622 -0.0017431212
crp -0.5410749 0.22506092 0.54640865 0.3274941 -0.08608404 0.41258615 0.347676 -0.23739551 0.5100245 -0.47951323 -0.43466434 -0.31017342 0.35895658 0.21787329 -0.43846378 -0.3510698 -0.09108982 -0.26074204 0.2176606 -0.34598154 -0.24890268 -0.64388037 -0.16689333 0.58385295 -0.5630966 0.83880097 -0.52267253 -0.5803155 0.46800065 -0.34296227 0.068457104 -0.3319888 0.15251018 0.15061527 -0.48009396 0.027643347 -0.24162193 -0.79688734 0.16089915 0.59773326 0.56001914 -0.425859 -0.12498093 -0.3397159 0.5671592 0.35745692 0.27943376 -0.18719682 0.066209495 -0.12722357 -0.09035209 -0.24698818 0.062401235 -0.1203393 0.012247698 0.06713155 -0.35601112 -0.15616341 0.100233495 -0.5277697 0.47635955 -0.1878568 -0.07948877 0.098770775 0.060398635 0.3759106 0.0660431 0.27116045 0.27663898 -0.43099886 0.5826453 -0.12522428 -0.2621184 -0.020088451 0.61468613 0.14207506 -0.15674059 -0.29905108 0.20999083 -0.018011268 0.08530492 -0.41846642 0.5159624 -0.40080932 0.24793798 0.25744557 -0.17201991 0.06620707 -0.059955645 0.08894623 -0.5781511 0.5616767 0.13145618 0.31153834 -0.0837654 -0.1645621 0.05313796 0.07643368 -0.10544625 0.03148172 -0.10838339 0.37430656 0.5601409 0.48126125 0.10817855 -0.0766981 0.12478756 0.17454349 -0.3439239 0.5119497 0.383599 0.5539396 -0.06211408 -0.44230315 -0.272922 0.28995857 0.732205 -0.1436992 0.5056252 -0.3201791 -0.38240644 0.508914 0.022954555 -0.5102825 -0.66057014 -0.6416964 0.41561782 -0.20332894
hipA 0.12682548 0.22726409 0.16009514 -0.0015786866 -0.18687086 0.024815705 0.18886256 0.076330416 0.11029051 -0.3971471 -0.053928953 -0.48328137 0.4282532 -0.24168633 0.17232217 -0.41657764 -0.38488257 -0.43666464 0.11733503 -0.034684695 -0.17189944 -0.34655073 -0.36882296 0.070094146 -0.102424264 -0.0407031 -0.19654462 0.18776649 -0.08971674 -0.70075184 -0.49708968 -0.16991004 -0.34727505 -0.5114595 -0.19052278 0.14535752 -0.012160424 -0.3699629 0.12767875 -0.2003334 0.11782414 -0.508021 -0.20876826 0.1652965 0.0819815 0.43282673 -0.27635536 -0.20278908 0.016635044 -0.32896182 0.02467716 -0.00021829995 0.1061594 -0.2357183 -0.23524761 0.10600871 0.10187413 0.21299677 0.14273246 -0.26592162 0.02873156 -0.28047112 -0.1587671 0.3172165 0.748032 0.26959556 0.2873778 -0.34799892 0.49005362 0.011750164 0.3007555 0.39917958 -0.23955947 0.18976842 -0.29922104 0.52848756 -0.030252572 -0.53365356 -0.21646011 -0.11869961 0.073151715 -0.36661753 0.1593551 -0.5552524 -0.051635206 -0.15038285 -0.21047899 0.2680004 -0.26010182 -0.17190872 -0.2588285 -0.30715767 -0.14282078 0.2814497 -0.039136153 0.037536874 -0.25196707 0.56164294 -0.10430787 -0.09006765 -0.42948887 0.27360326 -0.32356137 0.10307202 0.2721223 -0.053376403 -0.10719299 -0.0643758 -0.1676182 -0.06262013 0.023303358 0.4559833 0.1346951 -0.12907332 0.18434483 -0.32638913 0.18430933 0.19940095 0.69909877 -0.5357238 0.03424355 -0.23140189 -0.3256763 0.18427713 -0.23040846 0.12940495 0.0712192 -0.11435257
ykgD 0.60516214 0.3550603 0.12549636 0.08888593 -0.36151284 -0.27407435 0.1264396 -0.7377234 0.41227213 -0.29910535 -0.5755407 0.06811751 -0.13833697 -0.28067052 0.21428107 -0.06238731 0.3048631 -0.15121706 -0.6438485 0.0077596535 -0.20837161 -0.59842235 -0.6247071 0.60656 -0.41876054 -0.1711666 0.30048263 -0.1355976 -0.12026875 -0.83681965 -0.22844857 0.060946137 -0.2919348 0.20707116 -0.21570969 0.30852824 -0.211625 0.15829635 -0.044505812 0.49738944 0.5371656 0.07149467 -0.18641764 -0.31584814 -0.47837394 0.6276607 -0.23162238 -0.3319107 -0.32273084 -0.13158756 -0.44608584 -0.5996522 -0.1775547 0.027682783 0.37279272 0.112161234 0.11950422 0.37427145 -0.37730554 -0.1664839 0.5877426 -0.3879469 0.1735703 -0.124579355 0.70231706 0.5143457 -0.009821857 -0.15853362 0.42804274 -0.46476567 0.33034548 0.20706339 0.34715325 -0.10990333 -0.056442633 -0.39275894 0.14798385 -0.8591934 0.8265189 0.03749629 0.2539913 0.009698686 0.54687965 -0.13034602 0.18828341 -0.13222593 0.0113473805 -0.06197553 -0.56341696 0.31946668 -0.32531223 0.21949825 0.28460756 -0.49957898 -0.008189502 0.1791856 -0.4248405 0.34446606 -0.14650247 0.07541574 -0.6724917 0.30984154 -0.10882384 -0.10947745 -0.25078246 0.46147436 -0.6038157 0.1131077 -0.088004485 0.5571776 0.36122954 0.009428547 -0.556623 -0.3783997 -0.5175275 0.13021496 -0.2996879 -0.47076264 0.6435713 -0.041474853 -0.2709599 -0.2151029 0.15767184 -0.1483769 -0.05461536 -0.00459521 0.40512127 -0.039886113
ycaN 0.36257136 -0.13383718 -0.09948573 0.46857184 0.30411702 0.12900165 0.21386002 -0.4405715 0.51695716 -0.5004086 -0.36538416 -0.25954646 0.3503727 -0.116446115 -0.26795635 -0.6041169 0.2861486 -0.15188064 0.29890803 -0.10915791 -0.183825 -0.7663235 -0.11448024 0.33800715 0.5727666 -0.1755677 -0.48367074 0.36320978 0.39596227 -0.56813025 0.2824103 0.07459821 -0.21790701 -0.09479894 -0.63704383 0.49713957 -0.82731545 -0.24786025 0.10508009 -0.08573643 0.6765156 -0.1309533 -0.39588746 -0.40439045 -0.45161507 0.43409094 0.3842964 -0.5508997 0.88975185 -0.26210186 0.016370598 -0.08869821 -0.50361145 -0.36157745 -0.3392577 0.048279412 0.07456826 0.08167644 -0.46125478 -0.39979312 0.6115542 -0.35160166 0.031125039 0.24758147 -0.306703 0.0012346908 0.18511222 0.1332597 0.7624102 -0.13484572 0.084095955 0.13388552 -0.15806304 0.18602657 0.191531 -0.520221 0.41693753 -0.62081885 0.065638974 0.17439197 -0.23580512 -0.29360777 0.2849587 -0.23299672 -0.16075982 0.08123915 -0.2886797 -0.07322309 0.10281464 0.13186833 -0.43347257 0.58173376 0.29740104 0.30426356 -0.19735394 -0.055157315 0.47516295 -0.2852091 -0.66348463 0.10365426 0.45616794 0.30299792 -0.24691291 -0.024703804 0.07295357 0.31664252 -0.49897358 -0.0140032545 0.27138168 0.28149554 -0.4159589 0.34646565 -0.2714393 0.35409483 0.1605307 -0.21526733 -0.13734698 0.29910257 0.4658437 -0.31265596 0.07111393 -0.063246086 -0.1659717 -0.4035455 -0.6731656 -0.037660826 0.23616822 -0.09340336
ihfA 0.26124883 0.24551362 -0.06614508 0.5510034 -0.19681132 0.3386383 0.16572383 -0.261537 0.26750126 -0.21167111 -0.3123675 -0.5415429 0.39968634 -0.40356994 0.019724874 -0.34441715 0.078134455 -0.59623104 -0.09428057 0.011829278 -0.1457865 -0.6717007 -0.25990787 0.36632785 -0.14099899 -0.32971463 -0.24567282 0.5750387 0.121494316 -0.06736168 -0.2576225 -0.2588533 -0.05260702 -0.22429562 -0.49737522 0.41859594 -0.48970568 -0.46511742 -0.17112945 0.083308816 0.26898497 -0.45368725 -0.55613184 -0.38263723 -0.6585813 0.7630297 0.32338727 -0.27504548 0.40621212 0.16770346 -0.011613687 -0.33329758 0.043251906 -0.45914674 0.12387135 0.28045312 0.26622838 0.25188112 -0.34439325 -0.12576331 0.53270304 -0.17054085 0.29899615 0.049278274 0.09558229 0.19502859 0.35077548 -0.107298344 0.7846575 -0.16606678 0.19984238 0.19249146 -0.012556498 0.4368778 -0.07498954 -0.01776899 0.29607868 -0.4525189 0.0016717032 -0.017525306 0.000448565 -0.06074935 0.12964654 -0.1411521 0.010012962 -0.21830973 -0.5163363 0.009465757 0.15470557 0.15755965 0.048252188 0.6269425 0.4017707 0.39523733 -0.123151116 0.0385855 0.31248108 -0.0003203743 -0.050345175 0.29071635 -0.026106698 0.086616695 -0.30028552 -0.23044883 0.17196386 0.478864 -0.20754822 -0.12131996 0.47179 0.20924568 -0.20586358 0.432481 -0.30483806 0.037008468 0.11298461 -0.12321097 -0.040317018 0.1616151 0.3954315 -0.3071851 -0.28958482 0.14705417 -0.036746163 -0.2242604 -0.37060905 -0.026157042 0.010026222 -0.047009766
glnG -0.27726352 -0.080593914 0.4454084 0.09690896 -0.3758339 0.2370975 0.2082453 -0.55129355 0.16213156 0.013927654 -0.77513224 0.23808847 0.24118136 0.21459909 0.49940452 0.13307841 -0.16051835 0.045988373 -0.12131532 -0.085106224 -0.15417098 -0.19516777 -0.4395015 -0.15884195 -0.108002976 0.10680559 -0.35960472 -0.37654987 0.33145776 -0.47949716 0.020592615 -0.5314603 -0.17096794 0.34535423 -0.05439744 0.1504214 0.044514667 0.13487634 0.00067177875 0.18627176 0.34947917 -0.049627807 0.046944097 -0.4347805 -0.16459166 -0.08664141 0.3187303 0.33117157 -0.047226045 -0.42676553 0.22148834 0.2264619 -0.4488437 -0.48065123 0.15251307 -0.511758 0.03673996 -0.28955647 -0.32784203 -0.2696905 0.42874238 -0.23103908 0.32727143 -0.13901885 0.056610215 0.31433347 -0.29025948 -0.14919804 0.06816042 -0.16862647 -0.16643667 -0.06912256 -0.011345712 0.06206431 0.14751372 -0.08142813 -0.08756838 -0.34461594 0.110278256 -0.31040952 0.29901397 -0.51155555 -0.29071802 -0.09693428 -0.47557312 -0.18635535 -0.18063119 0.11690578 0.032505907 0.30238897 -0.35906652 0.030373923 0.54213184 0.33265957 0.13962053 -0.068173796 0.105348535 0.22098769 -0.25287187 -0.29941434 -0.40090537 0.033525042 0.020492878 0.14418824 -0.18283218 -0.24859431 -1.022796 -0.044376504 0.16449465 0.19393602 -0.028976455 0.29638308 -0.051096093 0.4463911 0.024309652 -0.0028173812 -0.18860015 -0.08505239 0.54734755 -0.43486083 -0.027747003 0.19422105 0.04094216 -0.19513021 0.04369475 0.074509695 -0.25475943 0.18553147
arsR -0.29852915 -0.23015656 0.18993114 0.57444656 -0.1463069 -0.2782261 0.6501023 -0.616101 0.1726507 -0.112486936 -0.42823312 -0.067416154 0.30520263 0.27322322 0.61249405 -0.05139087 -0.14912301 0.26560906 0.17412801 -0.17684835 -0.33938298 -0.18248747 0.04827476 -0.021711942 -0.011247445 -0.113533825 -0.20217091 -0.3421117 0.130924 -0.27481613 -0.16034544 -0.26316664 0.06303256 0.3451612 -0.04107468 0.000302863 -0.11638105 -0.48796245 -0.05056076 0.37265214 0.018082239 0.08504079 0.06738987 0.0025884586 0.06513943 -0.07473076 -0.08338345 -0.070130706 -0.052910395 -0.5177057 -0.15062247 -0.026904233 -0.348243 0.07817645 -0.11315693 0.017736902 0.38222975 -0.41983587 -0.04795166 -0.12497664 0.2054302 -0.27358946 -0.12368074 0.2797159 0.5534035 0.18198039 -0.42308033 -0.25802866 0.08912333 0.5800245 0.12061177 -0.13247104 -0.061443064 0.14095362 0.27651033 -0.3429681 0.02850777 -0.25750884 -0.009301774 -0.30937117 0.1581518 -0.5055067 0.03792037 0.18353464 -0.30254164 0.061361365 0.104956545 -0.08528845 -0.17832077 0.013695742 -0.24699147 0.10820391 0.35346156 -0.052947838 -0.113112584 -0.6237699 -0.10386999 -0.26669368 -0.34177363 -0.29439023 -0.585508 0.171135 0.15287694 0.32001865 -0.35243002 -0.5339282 -0.3205649 -0.07710434 0.010865262 0.30174258 -0.05562683 0.06271904 -0.2442167 0.5450389 -0.37486374 -0.1681742 0.0823415 -0.17009296 0.79932135 -0.6534448 0.12352493 0.044490006 0.3016194 -0.15564466 0.041176338 0.121432245 -0.21803954 -0.04327943
perR 0.037412483 0.12330846 0.22923824 0.41192245 0.20899929 -0.32352105 0.34455094 0.011789363 0.03659561 0.013608862 -0.15551488 0.10968648 0.39797562 -0.0046803853 0.4275975 0.0702403 -0.3836279 0.039237753 -0.03181632 -0.37590024 -0.22660978 -0.31690788 -0.39165145 -0.15193443 0.15590924 -0.37536195 -0.010594835 -0.37002155 0.010775092 -0.7074197 -0.08960002 -0.18840721 -0.294245 -0.06731061 -0.22215384 0.27304843 0.16088802 -0.3199332 -0.15001728 0.04708968 -0.29288247 -0.15710792 -0.30887893 -0.10401642 0.23107167 0.48696083 -0.36433956 0.03033356 -0.19384526 -0.22270514 -0.4478295 0.31202406 -0.22876613 -0.35345063 -0.17533407 0.3095235 0.014571673 -0.04717037 0.20737135 -0.108310945 0.08272938 -0.40547073 0.072616294 0.5897625 0.46173674 0.21167278 -0.086785085 -0.31914526 0.57802 -0.1215453 0.06513888 0.38587475 -0.33311942 0.090664156 -0.0052263285 0.24234228 -0.004387805 -0.46623534 -0.32954243 -0.4101372 -0.060923148 -0.60384697 -0.41013578 -0.33549717 0.26237544 0.0073144217 -0.30665237 -0.17859927 0.09997369 0.09973464 -0.54702795 -0.46268728 0.016809799 0.15899704 -0.14205316 -0.116914436 -0.19040406 0.06524174 0.051412147 -0.2690565 -0.58646566 0.22678077 0.1276294 0.15883698 -0.19380268 0.10637159 -0.4048722 -0.019065373 -0.29634267 0.29134616 0.020466626 -0.05380958 -0.09443433 0.2458405 0.22118288 -0.27933598 0.31898952 -0.21482079 0.6932351 -0.6446661 0.113262884 0.054570526 -0.21316199 0.48840556 -0.037741844 0.07816446 0.34689435 0.056307446
yiaG -0.22042249 0.17624347 0.5040732 0.31203547 -0.34270722 0.3827957 -0.047912773 -0.27345097 0.43654126 -0.27668938 -0.7667723 -0.38136992 0.41477358 0.2693345 -0.3002389 -0.087570354 -0.26735738 0.013690607 0.14217578 -0.5893624 0.11581541 -0.84921676 -0.23764288 0.66698945 -0.33833587 0.82515454 -0.4583381 -0.4606727 0.1246254 -0.47283632 -0.31033114 -0.5159289 -0.19468398 0.20671001 -0.30710232 0.39204413 -0.43929288 -0.6047678 0.1979026 0.91313195 0.6776549 -0.10128809 -0.25701573 0.01150068 0.3649604 0.34677613 0.34516162 -0.5521731 0.4563439 -0.19732915 -0.032238178 -0.13814907 -0.23046067 -0.42601988 -0.025579618 -0.2528101 -0.466551 -0.07393461 -0.45181942 -0.67648673 0.18466614 -0.015157296 -0.1182565 0.12654448 -0.13044837 0.26746064 -0.2298785 0.0718988 0.20660003 -0.35277927 0.16658731 0.15978567 -0.8504088 -0.18100692 0.70263106 0.16406815 -0.11491196 -0.33802935 0.19767205 -0.24097311 0.33351237 -0.5473309 0.2966359 -0.21683984 0.032209918 0.2675546 -0.40772375 0.352354 -0.045865644 0.111329935 -0.48100016 0.33788007 0.0036020458 0.3751307 0.105016835 -0.0101147825 0.47832718 0.2498492 -0.136767 0.04438253 -0.04152108 0.51869154 0.084495 0.20874894 0.011891346 0.06371424 0.167312 0.03107333 -0.5182435 0.38871086 0.28794968 0.81587493 0.10543756 -0.6829239 -0.09504762 0.39136356 0.6090299 0.23426116 0.9268884 0.058762718 -0.62660676 0.56884414 0.09106884 -0.2547685 -0.7035016 -0.47760138 0.70207196 -0.14499047
ydcN 0.27555862 0.13571356 0.2161293 -0.13658024 -0.108853586 -0.062168937 0.4004588 0.17145364 -0.094952546 -0.44350064 -0.14199759 -0.46316642 0.54135627 0.29594007 0.5631674 -0.26204595 -0.08179938 -0.24512906 0.019524908 -0.09393529 -0.3935819 -0.22980581 -0.29274035 -0.027370907 0.2024832 -0.2855283 -0.3416544 -0.1626937 -0.009278778 -0.3961044 0.0051941364 0.0030872817 -0.33151317 -0.24267432 -0.30703261 0.14347619 0.11659924 -0.2746749 -0.0738132 0.24737385 0.12637761 -0.047477946 -0.32185066 0.50114626 0.13001564 0.32703358 -0.268418 -0.04048782 0.01887656 -0.19442485 -0.12607199 0.08014418 -0.48295984 0.13018143 -0.25957325 0.23750165 0.07207047 0.07136679 0.11998213 -0.2670626 -0.16314365 -0.4827748 -0.42161176 0.4559687 0.7889576 -0.018335035 0.024684383 -0.28417054 0.44219583 0.13447867 0.18775809 0.58579516 -0.37829944 0.10394013 -0.3231348 0.13335392 0.16833147 -0.3992963 -0.22685178 -0.22923185 -0.29072884 -0.41237554 0.15089071 -0.31144616 -0.111011006 -0.17409036 0.00537062 0.08078807 -0.4176966 0.018019589 -0.054381493 -0.4273223 0.13297617 0.21103649 0.08357295 0.2922754 0.024951095 0.30114433 0.13966765 -0.25387013 -0.4169357 0.38460904 0.09861641 0.1111023 -0.0672237 0.1260332 -0.3236262 -0.0133847315 -0.17632046 -0.0057255123 0.056790758 0.5852353 -0.011836162 -0.10372512 0.40546286 -0.33580962 0.57126415 0.13633035 0.6414303 -0.44777542 0.29714233 -0.015242999 -0.0062178588 0.23975445 -0.0046004243 -0.05164956 -0.0062147547 -0.31795287
yjhU 0.11833402 -0.07506343 0.45559523 0.025709316 -0.29007998 -0.026530659 0.40849194 -0.3423519 0.32056153 -0.2023051 -0.54311234 -0.10956136 0.44549093 0.30407235 0.73121905 0.15542851 0.16057412 0.19473091 0.06033544 -0.31906766 -0.11658108 -0.16746059 -0.33099702 0.09530402 0.18461876 -0.37421066 -0.316404 -0.5379202 0.32281855 -0.45987955 -0.21945904 -0.22001806 0.44025105 0.21751331 -0.43238848 0.31229272 0.34097952 0.10541668 -0.12915401 0.46372116 -0.14374816 0.07723793 -0.07273397 0.13478874 0.08704013 -0.3141061 -0.1788411 0.15316337 0.08972889 -0.39495313 -0.03838632 -0.021064479 -0.30138707 -0.06987289 0.022792099 -0.068023816 -0.045290478 -0.33142066 0.031410985 0.0104487715 0.52214164 0.18387863 -0.3920411 0.37034556 0.18827693 0.44570893 -0.3541483 -0.3935198 0.07637202 -0.20340766 -0.39986405 0.17511162 -0.648164 0.01602234 0.18461862 -0.23745051 0.01598276 -0.24960548 -0.15675592 -0.52997106 0.028567862 -0.51362395 -0.07686158 -0.2170771 -0.50151443 -0.17355879 -0.3789852 0.10267849 -0.08355344 0.11780162 -0.4504289 -0.16426612 0.31108734 -0.03116635 0.085941724 -0.308571 -0.09094459 0.0774603 0.005277972 -0.018721662 -0.2315802 -0.002294946 0.1918792 0.16702855 -0.012093822 0.10823854 -0.47179386 -0.09835047 0.12817843 0.31807548 -0.23179114 0.48376003 0.024367891 0.11623629 0.20866384 -0.23490201 -0.014619076 -0.18839613 0.5309489 -0.25553635 0.15321667 -0.12888923 -0.15300354 -0.1248286 -0.11028166 -0.0561181 -0.26823968 0.17066984
yjjJ 0.30011362 0.05075663 0.25615206 -0.105468884 -0.47231066 -0.15627849 0.30986327 0.07555886 -0.08066908 -0.19121602 -0.4133172 -0.56060153 -0.0235102 0.0654062 0.073086284 -0.54725206 -0.43640688 0.056396645 -0.16372028 -0.2148806 -0.42559332 -0.6035618 -0.5148423 0.44743416 -0.27676156 0.16233803 -0.44278362 -0.18455741 -0.056837514 0.06441818 0.31686744 0.24752039 -0.3439147 0.28866845 -0.6570059 0.048499294 -0.05265237 -0.09195843 -0.112114765 0.10024738 0.596734 -0.41024837 -0.8596272 0.2561218 -0.19621374 0.16156478 0.18642914 -0.36915573 0.29619202 -0.26512247 -0.17349105 0.32539305 0.03244398 -0.57991856 0.3918584 0.4395439 -0.15056007 0.07741239 -0.29021308 -0.46796843 0.6924428 -0.48585108 0.2106671 0.5953088 0.1271631 0.34853354 0.011200093 0.41348264 0.67735094 -0.0062391954 -0.07888327 -0.10276219 -0.28575316 0.16626689 0.31358558 0.15720902 0.2879045 0.288093 -0.4110226 0.019604035 0.19927312 -0.4062042 0.21375161 -0.003031878 0.02210262 -0.48978513 -0.11273417 0.2408579 -0.13833694 0.102019235 0.003915164 0.112408906 0.07111265 -0.009889906 -0.0818719 -0.061269734 -0.03881574 0.38036564 -0.05179777 -0.13320884 -0.094680965 0.5656192 -0.35126033 0.14982674 -0.6158218 0.56949717 -0.6389545 -0.36755103 -0.24885409 0.27340016 -0.18565571 0.52048284 -0.77407205 0.10236055 0.07269441 -0.5394124 0.37701395 -0.13741854 0.69453406 -0.68053573 -0.2144273 -0.05707012 -0.05237918 -0.16240154 -0.32648277 -0.17335206 0.57556224 -0.6029825
envY 0.6130084 -0.055793952 0.14917858 -0.10711521 -0.3326749 -0.06977194 0.0003411249 0.2819951 -0.20554723 -0.19473483 -0.5746727 -0.7577343 0.1260867 0.0039196713 0.33479032 -0.2743141 -0.14053574 -0.35510853 0.22539073 -0.29749584 -0.39066407 -0.6682338 -0.7966514 0.44912162 -0.020406658 -0.1517508 -0.39911196 -0.13591361 0.17840546 -0.12493429 0.6740133 0.20933002 -0.38724786 -0.051351175 -0.31893167 0.089443296 -0.23271176 -0.061862472 0.09944501 0.5917244 0.70677537 0.3962293 -0.65843385 -0.050991207 -0.0009563063 0.47368264 -0.20522414 -0.23010775 0.33315095 0.26078045 -0.46942836 0.1532304 0.048689354 -0.4506157 -0.00075318903 0.1925027 -0.008607688 0.0056615104 -0.49836046 -0.12838194 0.5359418 -0.41261593 0.14909661 0.35520348 0.049394917 0.25430876 0.26377657 0.18564986 0.6825194 -0.23364581 0.021728706 0.274521 -0.3772672 -0.22473538 0.580343 0.06386945 0.19034874 0.3047913 -0.17929134 -0.23317525 0.3376299 -0.70906025 0.022830285 -0.100227326 -0.121191405 -0.45783737 -0.13868938 0.37523466 0.07568292 0.45210272 0.043155495 0.014214002 0.07940682 -0.0013818733 0.20441642 -0.0019498082 -0.08388196 0.26379207 -0.040052634 -0.08747215 -0.5511653 0.8091098 -0.09874564 -0.037577875 -0.3841439 0.8445218 -0.4961035 -0.06482128 -0.5729271 0.39601442 -0.43783846 0.22697243 -0.42026776 0.087275684 -0.07750961 -0.5307303 0.18037705 0.0723541 0.6193025 -0.23081702 -0.0964672 -0.36014763 -0.044310603 0.13099645 0.042633962 -0.35576817 0.7481411 -0.45987788
purR 0.3712583 0.24099855 0.30722907 0.020274095 -0.2732603 0.18555656 0.038223814 0.48596728 0.17208911 -0.26291025 -0.13101399 -0.32505137 0.33158895 -0.30755094 0.32051528 -0.512348 -0.02969805 -0.56356955 0.17454988 -0.05336917 0.009561289 -0.3518631 -0.5418098 0.099846944 0.028418865 -0.11250146 -0.21629326 0.15704039 -0.039322812 -0.9578783 -0.34763736 -0.28626555 -0.3197042 -0.2795712 -0.36766225 0.24457377 0.12312845 -0.31186077 0.14413431 -0.07603869 -0.08086235 -0.5038272 -0.3358346 0.17996319 -0.18546301 0.38352284 -0.28427154 -0.40587756 0.20292501 -0.25487924 -0.008231722 -0.1941176 0.094948895 -0.13022622 -0.1030813 0.09087057 0.27332172 0.5553917 -0.13624936 -0.4233109 0.080342665 -0.022483254 0.09928636 0.19181477 0.6613406 0.10286286 0.6090557 -0.32419842 0.36804754 0.12265579 0.5220906 0.5016435 -0.2661909 0.041906036 -0.21669438 0.41086596 -0.06272206 -0.39021194 0.044707093 0.11889023 0.4802013 -0.35706046 0.12086313 -0.33928323 -0.02383479 -0.33050662 -0.5487349 0.57612103 -0.26513764 -0.02589314 -0.071906626 -0.05001674 -0.17963953 0.0701699 -0.1873227 -0.14681011 -0.06114783 0.57729703 -0.29818267 -0.20579465 -0.57532036 0.275547 -0.47879395 0.12820868 0.15570727 0.08008794 0.027975403 -0.19671763 -0.14487086 0.09259975 0.17591307 0.4109779 -0.24089953 -0.10294483 -0.05542562 -0.091922715 -0.1343384 0.012052789 0.48531115 -0.298664 -0.2759007 -0.31886494 -0.2545823 0.1772061 -0.1345774 -0.010568283 0.105702065 -0.1794735
sokB 0.13570571 0.11109847 0.4329208 0.24032259 0.12860468 -0.21235786 0.0016344674 -0.060365833 0.38731903 -0.35219026 -0.2043801 0.16932938 0.29463103 -0.35135412 0.4163996 -0.43361425 -0.12522428 -0.19987248 0.18659288 -0.12599073 -0.23887382 -0.6677097 0.087048344 -0.21768099 0.15708597 -0.38114616 -0.25364402 -0.12158248 0.1126726 -0.61491233 -0.31954437 -0.20198025 -0.07706687 0.13315277 0.23700084 0.34105524 0.09838494 -0.07766286 -0.15857674 -0.06379221 0.043345053 0.083607756 -0.031490393 0.060381006 0.15262006 0.4658792 -0.4400385 0.13359562 -0.0011899899 -0.6518481 -0.30505937 -0.1704478 -0.20841998 -0.35402536 -0.59124404 0.15518844 0.15529668 0.041969717 0.10684999 -0.18221712 -0.07034658 -0.058426436 -0.026797768 0.24613476 0.31094053 0.2386935 0.016669424 -0.40873608 0.15604071 -0.21265756 0.24036045 0.44779548 0.07456439 0.14149012 -0.043316126 0.3894612 -0.45778885 -0.88992053 -0.2751228 -0.18287317 -0.1108444 -0.5133789 -0.051105272 -0.48081547 0.17976603 0.055130165 -0.16796295 0.020761626 -0.2050177 -0.22167702 -0.6840781 -0.12958913 -0.037458982 0.08547957 0.02263633 0.1837004 -0.08831549 0.36652055 -0.09363279 -0.033674195 -0.47795326 0.28527743 -0.18314658 0.0015111021 0.29583928 0.12925422 -0.5571004 0.3702186 -0.35483894 0.13884118 -0.27027214 0.05518585 0.2161512 0.25511494 -0.014374764 -0.29496306 0.20291528 -0.09104462 0.6191686 -0.20053299 0.24407291 -0.114148594 0.005393957 0.4832899 -0.1973968 0.08062737 0.12163187 -0.0052765147
nanR -0.5910178 0.14203404 0.0717154 0.35570502 -0.1934345 -0.041091062 0.12187734 -0.3504323 0.35570773 -0.45720944 -0.5334814 0.02634662 0.44628957 0.030699542 -0.60974973 -0.3211411 -0.5562726 -0.043566138 0.22144796 -0.44922507 -0.22863524 -0.48488024 -0.15080044 0.89698774 -0.5250683 0.36142096 -0.45902106 -0.61427164 0.29756865 -0.64176726 -0.24473077 -0.52606267 -0.06390436 0.29473358 -0.38791344 -0.039609846 -0.35210958 -0.49066928 0.48455578 0.70982885 0.5590698 0.0024607044 0.07511565 -0.5023997 0.45735213 0.45947602 0.6107461 -0.3041287 0.15802726 -0.35429364 -0.07250624 -0.13001661 -0.19475049 -0.33041108 -0.19102561 -0.0050581233 -0.13730666 0.0024803441 -0.25101575 -0.60902804 0.3743512 0.098603465 -0.110528074 0.09116575 -0.1318809 0.66436756 0.32393476 0.21604294 0.35600743 -0.118079565 0.19919628 0.0561262 -0.30033678 -0.22211273 0.5364789 -0.043342177 0.10926541 -0.4031875 0.25720057 -0.22812136 0.4194685 -0.62179965 0.36004326 -0.27510646 -0.16301712 0.31342915 -0.063230775 0.1110073 -0.30449554 0.29689556 -0.48407567 0.48868302 0.27752542 0.026674263 -0.056536373 -0.3366438 0.1949005 -0.05228324 -0.075411834 -0.22798787 0.09441016 0.25488454 -0.25219795 0.3287952 0.11084144 0.1772341 0.25429088 0.34956944 -0.26018077 0.36840975 0.22136037 0.56000626 -0.19474313 -0.89749086 0.008276729 0.06565604 0.8017862 0.14647198 0.40562642 -0.21819784 -0.5632606 0.47748923 0.07001864 -0.39747673 -0.8148039 -0.23921137 0.70731276 -0.39496115
nhaR 0.25710636 -0.21797298 0.035614546 0.3884382 0.24979168 0.07754667 0.30283597 -0.6238056 0.59998727 -0.39406022 -0.5763415 -0.38874558 0.3172701 -0.105669975 -0.2929848 -0.6172575 0.19801053 -0.06685625 0.21307455 0.28119797 -0.23016773 -0.63047916 0.05654081 0.31992936 0.4796005 -0.1740941 -0.42124933 0.2802459 0.42571998 -0.48099342 0.17171645 0.31314743 -0.21484917 -0.18510869 -0.6076047 0.34049776 -0.84517056 -0.11203414 0.04636748 -0.3637649 0.79257107 -0.3221061 -0.42975375 -0.4129249 -0.5590479 0.50699455 0.36777332 -0.46692818 0.7923428 -0.5439963 0.07119731 -0.018952003 -0.36513388 -0.27171 -0.2685866 0.22490692 0.37413883 0.046697747 -0.5667017 -0.28107017 0.8508908 -0.23473051 -0.15036218 0.23052973 -0.11912816 -0.02494788 -0.006549146 -0.017105069 0.68782836 -0.1742342 0.14888743 0.016340107 -0.25331506 0.10664203 0.17979184 -0.53748757 0.28063554 -0.51354146 0.15811683 0.15623559 -0.54917026 -0.26478654 0.4785711 -0.41826063 -0.19635311 0.10504547 -0.34937742 0.056090567 0.1730688 0.032778747 -0.50361174 0.45823187 0.00026640398 0.11717555 -0.33708444 -0.3315535 0.4215526 -0.13284726 -0.5592864 0.08906214 0.36726585 0.3807889 -0.36851898 0.0684226 0.22079024 0.09490364 -0.6512643 0.052442625 0.29343662 0.20652838 -0.23508789 0.32151708 -0.30403307 0.3887062 0.030000182 -0.30132073 -0.14646035 0.3428653 0.4542559 -0.302593 0.17296205 0.019764796 -0.03769913 -0.36024976 -0.7675504 0.38678944 0.30816147 -0.032276645
oxyR 0.033039507 0.16872823 0.46471047 0.2891263 -0.1906126 -0.065243505 0.44612265 -0.6904019 0.24549755 0.15522541 -0.696415 -0.07723522 -0.060586695 0.09625131 0.46051154 0.07475814 -0.29363176 0.08573185 -0.4030247 -0.05527525 -0.24224658 -0.32946387 -0.082597554 0.30714503 -0.057001777 -0.27174306 -0.3198854 -0.17516145 0.14454053 -0.2750559 0.027633479 -0.40946501 -0.023999557 0.4195107 0.039285153 0.20934919 0.034945037 0.053883336 -0.28477788 0.10387968 -0.13925655 0.75262874 0.18307729 -0.24629022 -0.0334615 -0.2506919 0.17392439 0.14558768 0.09849858 -0.2924801 0.18059297 0.3196396 -0.3208413 -0.5322042 -0.009324776 -0.0010700453 0.08635187 -0.26404235 -0.19526167 -0.31599012 0.087352686 0.10675631 -0.015538136 -0.20859677 0.4258922 0.052146465 -0.18075314 -0.22043325 0.10005128 -0.29315898 0.2777326 0.053958055 -0.04339524 -0.037424877 0.20144533 -0.05128802 -0.07931049 -0.22180347 -0.009777537 -0.17158966 0.18830863 -0.3892248 -0.17825982 0.023547964 -0.32517195 -0.27190727 -0.23337339 -0.019768434 -0.36608464 0.3204662 -0.4354487 0.23049504 0.43848535 0.18034753 -0.09870651 -0.39497188 0.52614427 -0.040372193 -0.22945723 -0.38697028 -0.25454798 0.50053614 0.24785934 0.5802004 0.00918405 0.03401148 -1.0182189 0.025625516 -0.023506865 0.5139269 0.33738452 0.08261807 -0.2036504 0.52028704 0.28269398 -0.31154087 -0.30944517 -0.07016976 0.46271834 -0.43294784 -0.057609282 0.19147581 0.25369978 -0.05808187 -0.06609025 -0.07909957 -0.14865723 0.22496165
omrA -0.19063546 0.013464832 0.55189276 0.41433534 -0.30925333 -0.31234884 0.49264145 -0.34513438 0.048461802 -0.19031538 -0.22178073 -0.13184409 0.23427074 0.029321084 0.60715586 0.37292853 -0.2749772 -0.11857353 -0.107532114 -0.2633633 -0.38229042 -0.5042094 -0.021121716 0.054839388 -0.33537564 -0.2540374 -0.32721633 -0.3503807 0.2070623 -0.33048394 -0.31759575 -0.21378638 0.07470856 0.1257206 0.22059585 0.41740665 -0.06555671 -0.08302582 0.09358345 0.06249304 0.15391198 0.3327842 -0.2094016 0.22668232 0.026887536 0.31175175 -0.10347988 0.17210639 -0.2432615 -0.58072287 0.007985566 0.030661324 -0.16368093 -0.68540895 -0.14695638 -0.05014491 0.16184168 -0.43027616 0.06583743 -0.14644726 0.31353986 -0.0009111401 -0.06341499 -0.079332575 0.28414398 -0.15732454 -0.5657012 -0.22840601 0.055880304 0.03980753 0.051672336 0.3747314 -0.49120733 0.17974812 0.023966452 -0.06686697 -0.25560486 -0.4773247 -0.20958474 -0.25204238 -0.19705743 -0.563811 -0.055879366 -0.15469585 -0.32024246 0.19584288 -0.14644755 -0.07444907 0.044459045 0.04589897 -0.44631603 0.040397234 0.17725153 0.2697743 -0.23347358 -0.46845722 0.28001675 -0.017109083 0.012589549 -0.23210861 0.26332995 0.3444103 0.1827641 0.30421007 0.017631473 0.25203738 -0.6374145 0.19128509 -0.20351754 -0.04155256 0.061861612 0.02785186 0.13148394 0.36821923 -0.2054986 -0.25588548 0.2035761 -0.319167 0.21891303 -0.25998828 0.22489004 -0.13830169 0.22175719 -0.09550663 0.21780433 0.19681937 0.11100506 -0.28580192
chbR 0.143135 0.3252427 0.39238825 -0.114537634 -0.37639603 0.16956261 0.5806308 -0.046492327 0.5251695 -0.28601298 -0.43780595 -0.45044246 0.15714738 0.10116394 -0.03465848 -0.32381085 -0.25218123 0.0049503986 0.13892382 -0.023733044 -0.4817302 -0.66202843 0.1701487 0.07267057 -0.30813548 0.1557298 -0.22301713 0.0035353901 -0.1225456 -0.27608302 0.3839531 0.30701643 0.27362227 -0.04986285 -0.5510768 -0.50628775 -0.3326926 -0.5261976 -0.18381146 -0.2419749 0.4570176 -0.42981988 -0.3944017 -0.3436517 -0.20951895 0.93701345 -0.6610694 -0.3930893 0.5476906 -0.025524532 -0.52100444 -0.25121456 0.1409992 -0.7793892 0.8609499 0.1605394 -0.09630474 0.11025084 -0.11221703 0.018560646 0.7827967 -0.44947422 0.20578922 0.13885856 0.15200028 0.39205697 0.6296857 0.1058523 0.503873 -0.54255456 0.03380188 0.2637317 -0.08674741 0.13749662 0.1558144 -0.054413207 -0.015407318 -0.21527079 0.08864114 0.23833692 -0.103151664 -0.04789113 0.69274104 -0.019872338 0.28190577 -0.32452506 -0.3950169 0.039469853 0.30892125 0.15981412 -0.67009383 0.2976171 0.28630507 0.16851407 -0.009313716 -0.37187883 0.016671037 -0.2028469 -0.31314296 -0.09275162 0.15182616 -0.33850387 0.03922935 0.2499335 -0.06843943 0.18291752 -0.27588883 -0.22972849 0.1466982 0.21548639 0.0416708 0.5676075 -0.51646686 0.4110917 -0.22507806 -0.32287708 -0.020734815 -0.5053924 0.52756834 -0.8348687 -0.14274296 -0.067010224 0.23538022 0.032096554 -0.13968521 0.026994625 -0.013970538 -0.060036846
yjgJ -0.09887394 0.09784328 0.40134755 0.25753784 -0.585517 0.31312424 0.5412957 -0.6218576 0.084968865 0.04982933 -0.8348238 0.002136419 0.2588494 0.368921 0.30429715 0.15593669 -0.00675092 -0.2410247 -0.008593443 0.08242005 -0.090141475 -0.11102349 -0.007957477 -0.017738014 -0.26892507 -0.09794702 -0.5531725 -0.16079354 0.63852686 -0.42770314 -0.10585209 -0.05308539 -0.122001104 0.10674379 -0.038585033 0.0409002 0.13210513 0.3006651 0.046827607 -0.005450935 0.32907176 0.35896128 0.14391902 -0.22043072 -0.18959594 -0.25057197 0.2437472 0.3574974 0.1459762 -0.5333895 0.3780067 0.13093147 -0.11774807 -0.53852314 -0.26187006 0.10954274 0.14891273 0.0659936 0.38369483 -0.43297935 0.5743931 -0.30467165 0.15676518 -0.39352763 0.19330858 0.36867735 -0.14786176 0.0440255 0.2482828 -0.16992135 -0.3899035 -0.13850671 -0.222553 0.03630726 0.03553187 -0.19644186 -0.30483255 -0.18807991 0.30128625 -0.111200765 0.1639112 -0.83388186 -0.3004455 -0.39666095 -0.39004347 -0.20394704 0.15818639 0.2465386 -0.37980297 -0.0497592 -0.31823838 0.3952361 0.5339672 0.09781273 0.047076892 -0.11063942 -0.06517743 0.21078992 -0.12191839 -0.52377546 -0.20241077 0.33737332 -0.21373148 0.42819062 0.08762318 -0.18179347 -0.97858053 -0.2401721 0.08286989 0.22662383 -0.14335762 -0.027634988 -0.108416826 0.5166046 -0.098300934 -0.10032277 -0.3836563 0.040726423 0.519751 -0.24094148 0.035674818 -0.0047968174 0.13072458 -0.035638697 0.02402797 -0.071698606 0.1675952 -0.03735871
ada 0.034657773 0.29600418 0.3693158 0.4584097 0.45168144 -0.61887014 0.74329597 0.43026534 0.24472901 -0.0287188 -0.18813497 0.48785827 0.39984724 -0.22121468 0.6145004 -0.32024086 -0.17346464 -0.23729476 -0.13016489 -0.28604856 -0.18860404 -0.73653036 -0.5151057 0.0788666 0.009430636 0.028757181 0.09035306 -0.23550485 -0.21780482 -0.73472124 -0.19005723 -0.3581095 -0.5194965 -0.20356329 -0.06041468 0.6360193 -0.40911832 -0.117915 0.17413372 0.13828641 -0.07627412 -0.1080717 0.18004417 -0.034089927 0.32059398 0.21322696 -0.2634915 0.088224664 0.17108724 -0.49352336 -0.456113 0.22421227 -0.17129816 -0.4102791 -0.16413754 0.27489874 -0.017471816 0.35808375 -0.09458991 -0.5626329 -0.0638777 -0.39140826 -0.15580307 0.18578698 0.26601088 0.51037043 0.16918424 -0.079280585 0.55531025 -0.23745279 0.40475577 0.5260757 -0.052340258 0.32163534 0.33654043 -0.22498259 0.0052257106 -0.62029773 0.14424029 -0.20300518 -0.5715679 -0.6201377 0.027955838 -0.37260857 0.22789013 0.01005748 -0.44236937 0.021422068 0.047978446 -0.12072935 0.025056425 -0.121263325 -0.24502791 -0.044059873 0.0014235524 -0.2670682 -0.41813922 -0.12638842 -0.34952208 -0.4301077 -0.24702184 -0.039426614 0.01488919 0.30149385 -0.3558019 0.22071037 -0.48656213 0.19789872 -0.13432862 0.21357872 0.047303967 0.0065997373 0.49096218 0.014481786 0.44798642 0.03898276 0.43039808 0.037400324 0.5628435 -0.54104304 0.18733943 0.12728985 -0.07414812 0.30854362 -0.744825 0.14659147 0.31232813 -0.20366345
flhD 0.56535524 0.12308588 0.11101182 0.2586404 -0.56117785 0.006671446 -0.0405511 0.048262104 0.017710531 -0.11617602 -0.36406395 -0.64736724 -0.004542229 -0.24345565 0.17118435 0.0015512381 0.2836933 -0.5893116 0.27864248 -0.18578061 -0.3983239 -0.4349078 -0.9743984 0.09672887 0.015506767 -0.08258389 0.010594743 0.047060713 -0.10337685 -0.30017996 0.39692426 0.021458859 -0.32756498 0.049008995 -0.5696459 0.2371133 -0.047536038 -0.01249038 -0.07099435 0.7404689 0.4292887 0.1290582 -0.5271416 0.29823437 -0.07147037 0.6247834 -0.02647224 -0.3182875 0.11086125 0.035655085 -0.36667818 -0.08536763 0.13699901 -0.24704868 0.35158432 0.45508114 0.12513733 0.43740568 -0.4955844 -0.34776965 0.82049215 -0.08060217 0.5175308 0.09357412 0.13546082 0.24326648 0.29811877 0.1770456 0.6995245 0.010835699 0.2736393 0.042927753 0.052845243 -0.08047557 0.40201196 -0.31578285 -0.12299577 -0.032774538 0.054205976 -0.40485412 0.42766595 -0.36551186 -0.2423643 0.24431632 -0.17597824 -0.5699537 -0.34090626 0.11499711 0.3613144 0.2793754 0.28033778 0.026718158 0.19325368 -0.33447772 -0.26729527 0.13386655 0.061023768 0.4333487 -0.190282 0.023888048 -0.30826548 0.7266617 -0.23501676 -0.07275593 -0.38391027 0.71330863 -0.3573552 -0.47685024 -0.10649007 0.4166229 -0.32096323 0.007864665 -0.29823458 -0.019017743 0.21252787 -0.06580053 -0.029738871 -0.12697276 0.6658352 0.31399095 -0.37580967 -0.028461076 -0.17026067 -0.111959666 -0.2545764 -0.3886994 0.5360635 -0.65104383
