1591 128
hha 0.5325161 0.43581736 0.041164782 -0.33932647 -0.70931625 -0.15623084 0.0359975 0.2970211 -0.24923314 0.19018646 0.031816207 0.11983793 0.0010586451 0.12935339 -0.11669197 -0.81296176 -0.06407399 0.2776155 -0.05964036 0.027296884 -0.2318822 0.23951082 0.17138606 -0.044212375 0.06215262 -0.25373566 0.42163298 -0.21704823 -0.1598001 0.29196614 0.3615832 -0.2880427 -0.23832387 0.08071719 -0.03451302 0.14349847 -0.31299484 -0.03567112 -0.40115526 0.19835529 -0.22628604 0.014029585 -0.40733513 -0.2603542 -0.0016582013 -0.367232 -0.007733144 -0.47102037 -0.112659246 -0.13613409 0.22466832 0.14386499 -0.51887256 -0.022317104 0.29418966 -0.2701539 0.2305575 0.29317775 0.069423765 -0.3157717 0.071857065 0.29758182 0.012182424 0.052141946 -0.30640373 -0.1220547 0.11716458 -0.37979627 0.3120251 0.08735354 -0.0334162 0.6471196 -0.54293126 -0.17094237 -0.060634498 -0.10246668 -0.02578927 0.17841081 -0.1932082 0.053392995 -0.17409994 -0.32576594 -0.06283544 0.056011077 -0.24911846 0.3194371 0.102532335 -0.04872274 0.1416765 -0.12904692 0.009705695 0.026093842 -0.08038456 0.27505112 -0.24448894 -0.009022544 -0.31529745 0.4533557 0.03441655 -0.2876501 0.1963488 -0.12113757 -0.15023603 -0.28796625 -0.17052633 -0.14658439 0.27220768 0.70905346 -0.22935419 0.21558262 -0.6816187 -0.0800524 0.19313523 -0.17569312 -0.053260736 -0.09766565 0.5028878 0.10232001 -0.15613386 -0.25051957 0.46100053 -0.1054782 0.0184448 -0.15677145 0.35505885 0.22645637 0.13851614 -0.39222318
crl 0.26526266 0.007319321 -0.23604247 -0.15864605 -0.19752677 -0.17824803 0.58669335 -0.3338806 -0.3020882 -0.03808998 -0.14670093 -0.14717147 0.08072071 0.53234965 -0.4157622 0.31060204 -0.45006025 0.69467425 -0.4882514 0.3359869 -0.06091896 0.23698646 0.2386284 -0.2033445 -0.18206474 0.18192856 0.16839917 0.05589107 -0.31426874 0.4234167 0.052059215 -0.12777908 0.06697317 0.16582689 0.16932549 0.66643155 0.28307998 0.3507441 -0.7106934 0.15744618 -0.6992754 -0.15844844 0.4514129 -0.14440928 -0.21691154 -0.5608328 0.04847613 -0.2332436 -0.22925875 0.2627223 -0.46988633 -0.1668669 0.071210116 0.5502411 -0.28152546 -0.052782685 -0.014713943 0.35146096 -0.18851072 -0.31136304 -0.15509948 0.12237227 -0.07654865 0.50098807 -0.31121352 -0.19687955 -0.11226977 0.029259345 0.029297372 0.10155822 0.19627136 0.25444755 -0.24136312 0.27484813 -0.5231138 0.067658395 -0.3127837 -0.649187 0.096748576 0.19033673 0.4926462 -0.17492367 -0.6692648 0.05768443 -0.086884186 0.09000735 -0.36613393 0.115560666 -0.07000936 0.092051156 0.369414 -0.20054762 0.09327086 -0.057566218 -0.130138 0.0039123124 -0.33785212 -0.18234457 -0.09157104 0.20810433 0.79512763 0.21087925 0.27371204 0.0755447 0.022294749 -0.36453247 -0.04627809 0.6484764 -0.11434786 0.32550177 -0.112154685 -0.5475803 0.32104713 0.15003408 0.1520407 0.40184677 0.2785495 -0.0786471 0.19370817 0.19371413 -0.08987264 0.5218413 0.13462605 0.4316427 -0.14896369 -0.34061685 -0.48886427 0.5638315
dsdC -0.100597546 -0.23498146 -0.4772159 -0.59842384 -0.3059025 0.024858687 0.31984484 -0.18160537 0.2861969 -0.5037437 -0.31117082 -0.20675115 0.10792551 0.18524016 -0.10808528 0.10569705 -0.088418506 0.07764226 -0.32902658 -0.018570384 0.1748128 -0.011546352 0.30633274 -0.06595814 0.096389204 0.36363843 0.028175537 0.01229119 -0.0061150645 0.5531647 -0.10372782 -0.3615371 -0.22469169 0.37733012 -0.066218644 0.36927325 -0.23295106 0.15259099 -0.18870887 0.13930799 -0.134872 0.19987877 0.031627744 -0.14773971 -0.33759227 -0.35304853 -0.13587151 -0.24917004 0.053837795 0.048852626 -0.18850556 0.09566653 0.3456637 0.35362476 0.31563532 -0.09303898 0.2266997 0.3046899 0.40088382 0.16823624 -0.14377232 -0.23254678 -0.0082668355 0.25806564 0.09327052 0.33004555 -0.44496793 -0.36661524 -0.13202381 0.24998344 0.4003211 0.038357884 0.22116274 -0.10874966 -0.21411106 0.16666271 0.026554747 -0.26275387 -0.034833603 0.5438242 0.29026824 -0.36346382 -0.40565455 0.23185891 -0.37447774 0.46999535 -0.5952091 -0.09372674 0.42009288 0.26264706 0.3921388 0.42719087 0.37520075 -0.0072108754 -0.20113297 -0.37029752 -0.043003693 -0.37343663 -0.38930842 0.43362263 0.66679245 0.680617 0.21062572 -0.49284524 -0.3140409 -0.7018502 -0.33479145 0.38609728 -0.54059803 0.029652048 -0.29605654 -0.42193857 0.21103914 0.34413975 0.44312164 0.13896541 0.012167012 0.1216372 0.17346323 0.44652584 -0.07246352 0.021379536 0.10631768 -0.25678825 -0.382212 0.019145425 -0.046770547 -0.12143034
csiR 0.10268752 0.39322123 0.4068611 -0.24117294 -0.02814098 -0.23918241 0.07255775 -0.25098193 -0.7340757 0.064622186 -0.20864074 0.074037105 0.25836632 -0.10801066 -0.14199251 -0.4976181 -0.08180339 0.08418589 -0.2778007 -0.26001635 -0.13147496 0.4604723 0.3384586 -0.25424606 -0.025989473 -0.11193582 0.4473653 -0.045844156 -0.38633952 0.21176578 -0.08050671 -0.19009611 0.15914415 -0.008185323 0.16364872 0.18587293 -0.101748146 0.059750594 -0.22566317 0.31684643 -0.550714 -0.058684733 -0.482729 -0.1264805 -0.05652759 -0.10169783 -0.0008504024 -0.6414876 -0.03221599 -0.19443357 -0.12603842 0.35018668 0.20179994 -0.24314749 0.23067491 -0.41901645 0.50308377 0.12851743 0.43761268 -0.8377388 -0.3629609 -0.24302897 0.1489195 0.12226426 -0.079293095 0.23347548 -0.05085777 -0.14638765 0.51541513 0.019149078 -0.04915594 0.5872074 -0.34041554 -0.047148265 -0.03743401 -0.38325945 -0.08836687 0.07271071 0.16990148 0.26717523 0.09094766 -0.11917094 0.020920588 0.34684265 -0.31497428 0.3449607 -0.15177144 -0.021482725 0.6609475 -0.3384947 0.21419702 0.15543194 -0.16237812 0.24573496 -0.1558912 -0.03991294 -0.14804618 0.2493667 -0.04848091 0.010916085 0.55075186 -0.211803 0.18876195 -0.058349382 0.08732088 -0.13825719 -0.07791515 0.13091455 0.22356804 0.23564617 7.569078e-05 -0.21306267 0.30828732 -0.09188838 -0.025326684 0.19654807 -0.13074102 0.014269918 0.04167043 -0.02432871 0.26298857 -0.046501648 0.06114816 -0.3153331 0.3334371 0.5312269 0.5209656 -0.3000165
oxyS 0.37914318 0.44620827 -0.21414612 -0.18625064 -0.3614324 0.013453922 0.2333857 0.32494238 -0.044634685 0.27280486 -0.12244985 0.30276325 -0.34137356 -0.11052542 -0.014999923 -0.42730242 -0.28177893 0.076714255 -0.25982878 -0.022245217 -0.36637098 0.48980188 -0.29076344 0.2857312 -0.31670144 -0.41520602 0.3821038 -0.22120339 -0.05195315 0.26740447 0.05065128 0.11611319 -0.072251685 0.4525191 -0.28713918 0.19089516 -0.33795694 -0.036764506 -0.22760142 0.39010668 -0.17902511 0.19861634 -0.4805268 -0.50369185 0.33390912 -0.3689104 -0.32879373 -0.33030835 -0.40049338 -0.11845363 0.35778826 0.09513163 0.1031889 -0.27697524 0.3891827 -0.5302388 -0.12904896 0.680033 0.043940887 -0.29477307 -0.054304644 -0.15168461 -0.23674446 0.07292129 -0.10993635 -0.046833295 0.17746207 -0.31441957 -0.087188736 -0.034132924 -0.14521703 0.5616555 -0.08780571 0.036736075 -0.34803972 -0.36986122 -0.028319763 0.42430812 0.28713897 -0.076131076 -0.0594609 0.2213266 -0.00847792 -0.027167013 -0.4025483 -0.046300374 0.39944547 0.39458066 0.29967418 0.0056111338 -0.029189222 0.4034836 -0.19708113 0.18189882 -0.06796875 0.086584866 -0.6622911 0.27724144 -0.065461576 -0.079191804 0.16472717 -0.001328366 0.26747093 -0.030647723 -0.41754887 -0.51549613 -0.039982878 0.6451379 -0.3714478 0.21764778 -0.4237224 -0.20495939 0.43295065 0.030767372 0.2905891 -0.33888853 0.3823772 0.055465885 0.1775527 0.06805387 0.2990048 0.029951671 -0.11317855 0.103518076 -0.22653452 0.18349607 0.22807956 0.078812286
cpxR 0.124507606 0.30995002 0.16019012 0.05543072 -0.19752893 -0.11064403 0.28000253 0.1065574 -0.30855447 -0.2756867 0.36039746 -0.043857694 -0.3322139 -0.07005053 0.0685532 -0.55074674 -0.31711364 0.19690304 0.046039376 0.017602142 -0.5201726 0.45701957 0.05631541 0.14543816 -0.062107 -0.037796445 0.33688638 -0.23757066 -0.2297125 0.20649916 -0.08058215 -0.45245865 0.43070874 0.6958368 -0.20253892 0.09941895 -0.18428473 0.047342643 -0.06664247 -0.010588918 -0.1576754 0.38949922 -0.55596685 -0.3205995 0.16772139 -0.3200031 -0.0910674 -0.27242246 -0.75984526 -0.26851904 -0.26665682 0.08640837 0.19080697 0.15175048 0.04495414 -0.42946482 -0.243736 0.6595433 0.16032262 -0.23225611 0.042122293 0.118147895 -0.048054203 0.090195775 -0.40310785 0.0745153 -0.050576128 -0.47130743 -0.14343694 0.3068993 0.51363426 0.41825753 -0.27139184 0.08021605 -0.0074727307 -0.5539215 0.18747668 0.38605335 0.23849793 -0.41294917 -0.21299028 0.028976738 -0.25108832 0.05884728 -0.35242495 0.21127672 -0.082787216 0.10294392 0.13714196 -0.18032409 0.01882367 0.14267315 -0.024891172 0.21459074 0.08362553 0.3408931 -0.74551684 0.21724392 0.1994299 -0.20411289 0.19784266 -0.23287436 0.393472 0.2647506 -0.35767984 -0.091966115 -0.14405696 0.43921876 -0.18657736 0.45676953 -0.45839763 -0.09508719 0.20547351 0.22181578 -0.14137171 -0.40929595 0.39046893 0.0013166489 0.019318057 -0.028440017 0.18139175 0.19769973 -0.34679827 -0.20349914 -0.090172544 0.22070187 0.3591775 -0.21264237
yeaM -0.07916927 -0.20336226 -0.293765 -0.17117259 -0.51698095 0.08274435 0.5160223 -0.06717734 -0.2075565 -0.16280869 0.21621794 -0.27742434 -0.020633182 0.14411588 -0.51503897 0.22282329 -0.39968166 0.44273716 -0.3583324 -0.097397245 -0.09971421 0.3268912 0.20969515 -0.38283935 -0.008414063 0.21013173 0.0044910894 0.21612737 -0.3092927 0.49380267 -0.10372403 -0.314915 -0.115335986 0.40160117 0.21772273 0.5727534 0.22466187 0.038410064 -0.66232073 -0.10671022 -0.14309873 0.091575354 0.3543733 -0.55737865 -0.42034075 -0.7688119 0.41084936 -0.14302126 0.22005984 0.38083956 -0.3558865 -0.025108859 0.049352963 0.5493595 -0.24476516 -0.26763692 -0.07190594 0.5228024 -0.45880848 -0.38924387 -0.21602859 -0.0775609 0.16521826 0.18956052 -0.13833809 -0.030148033 -0.15816513 0.10609286 -0.18374597 0.43963566 0.5226687 0.56932014 0.1778458 0.49181363 -0.2542759 0.22281113 -0.37398607 -0.7160066 -0.39934343 -0.010874242 -0.06953008 -0.2467099 -0.5626189 -0.009291443 -0.48510882 -0.28630435 -0.58414465 -0.008895952 0.28345454 -0.021218501 0.46989265 0.29359734 0.18529162 0.30859908 -0.12668498 0.09177281 -0.52293086 -0.46209508 -0.036433846 0.32579023 0.7190651 0.20166704 -0.12119895 -0.2985455 -0.05264256 -0.4876022 -0.29234987 0.4029233 -0.015142734 0.19306977 -0.44924036 -0.35928446 0.24737385 -0.05125689 0.21562907 0.45514545 0.26501703 -0.45867124 -0.0065699853 0.16097559 -0.047193643 0.06431956 0.32540202 -0.1666356 -0.25332555 -0.21997043 -0.27725214 0.09295355
ybcM 0.30661365 -0.14186828 -0.8262561 -0.48415306 -0.13782977 -0.20110026 0.73796654 -0.6108629 -0.09487031 -0.080488294 -0.08846792 0.090056986 -0.13338314 0.2937574 -0.20482443 0.18200593 -0.44368148 0.7138542 -0.24368918 0.06055631 -0.28913903 0.002033009 0.38657594 0.21843676 -0.37501794 -0.100282095 0.19034095 -0.40337574 -0.03310812 0.13979822 0.25766 -0.40940616 0.071947806 -0.014422153 0.26714122 0.8504838 0.24323086 0.45198348 -0.26667032 0.25557977 -0.4757162 0.32032305 0.521997 0.5496636 -0.10002702 -0.69310194 0.31691447 -0.40179616 -0.26378056 -0.06347211 -0.17755921 -0.26455638 -0.13921665 -0.0060615414 0.008621798 -0.33112425 0.12584825 0.36983496 -0.08883593 -0.27876228 0.080891445 -0.08626963 -0.15357013 0.1437852 -0.2961955 -0.19366685 -0.28583586 0.0014257826 0.16856617 0.13838013 -0.004392266 0.16151494 -0.10265227 -0.104484715 -0.35625634 -0.55006975 -0.22820698 -0.33317792 0.033047408 0.38577488 0.62083745 -0.34613496 -0.84554535 0.0593419 0.23784195 0.22138856 -0.050303742 0.7604669 0.45651874 -0.37640342 0.19741254 -0.47299147 0.22578801 -0.10917911 0.32854125 -0.081720404 -0.5009331 -0.07207969 -0.45844507 0.2220431 0.503406 -0.0634075 0.07760903 -0.11977991 -0.15125006 -0.14672993 -0.23373006 0.2156558 -0.067799956 0.18914333 -0.01963548 -0.35986337 0.3216048 -0.019435693 0.07795268 0.16952123 0.12241526 -0.209531 -0.10962068 -0.048783056 0.26889485 0.52723515 0.32028395 0.21904363 -0.15488534 -0.26998258 -0.0321204 0.13971679
rbsR -0.0316555 0.27554557 0.018911468 0.04147302 -0.3772317 -0.2997243 0.39262295 -0.07473633 -0.33746576 -0.14392512 0.27360275 0.13555053 -0.010567217 -0.007921978 -0.056726903 -0.3248932 -0.4273314 0.3433106 0.20244725 0.20889379 -0.3547149 -0.0659153 -0.09719778 0.1507759 -0.050349776 -0.10160351 0.42035547 -0.029613947 -0.2736037 0.50843525 -0.07261423 -0.21286221 0.3648839 0.4956007 -0.31772456 0.37358683 -0.53334695 0.0858588 -0.54239154 0.51766264 -0.26142037 0.2556509 -0.32845503 -0.14185703 0.33977678 -0.1303309 -0.1521504 0.250294 -0.56643647 0.00055528467 0.04869712 0.15739752 -0.10187735 -0.41452256 0.00091481966 -0.41192856 -0.052321423 0.4483778 0.15727822 -0.18163295 0.051627934 -0.046562232 -0.40496674 0.40558013 0.15138371 -0.018657675 0.11746749 -0.20700142 -0.07355591 0.45578656 0.19890718 0.52045846 -0.0005125656 0.013090803 -0.43489867 -0.17247938 0.055294443 0.23707278 0.1944098 -0.30825734 -0.041753788 -0.036838405 -0.29887033 -0.13525228 -0.101267904 0.20389856 0.11348522 0.06413947 0.28927332 -0.33293894 0.03281156 0.51184404 -0.036772586 0.034080405 0.04419371 0.37331626 -0.7416921 0.053977896 0.3617208 -0.34733665 -0.018629994 -0.16599552 0.37342182 0.20940158 -0.28959066 -0.39230034 0.072433166 0.39469162 -0.3936202 0.03965111 -0.6659181 -0.22047986 0.19496675 0.18734585 0.16460977 -0.093428515 0.37557897 0.04063808 0.3792434 -0.33577222 0.09854387 -0.089639716 0.1471962 -0.08508657 -0.12590282 0.30354312 0.5195593 -0.14790794
yihL 0.06810194 0.396683 0.27398685 -0.04368775 -0.57870406 -0.2826476 0.4209187 -0.47095704 -0.60257107 -0.14929052 0.2160025 0.41532177 -0.16014303 0.11853665 0.22241585 -0.5339879 -0.48833123 0.239503 -0.060907707 -0.057183452 -0.2823831 0.13641378 -0.17679457 -0.21456662 -0.21875569 -0.03443101 0.29140943 0.17223129 -0.65206957 0.7949138 -0.0509426 -0.31757116 0.198959 0.32096362 -0.38694885 0.10274423 -0.12747207 0.15217689 -0.21366625 0.5020463 -0.20546696 0.42791286 -0.2592399 -0.21077286 -0.06326648 -0.12115493 0.22360665 -0.11603597 -0.28417554 -0.24956553 -0.24356905 0.1347483 0.06996407 -0.082603365 0.19160096 -0.3789289 0.22865169 0.4015475 0.1099049 -0.27096233 -0.0014074788 -0.19619656 -0.090064675 0.30272245 0.43644103 0.13588668 -0.102878645 -0.20428355 0.1447489 -0.11399019 0.2341707 0.65211767 0.061938785 -0.024689177 -0.030474368 -0.2022798 0.19141407 0.20446664 0.061229657 -0.31628042 -0.22925521 0.12224648 0.05060777 0.14360076 -0.20355731 0.17899746 0.3106967 0.03303225 0.089196086 -0.35052207 0.044533703 0.13413931 -0.011392737 0.0853733 -0.1495912 0.29142013 -0.48159653 0.05817524 0.27898636 -0.27099612 0.18180859 -0.13275103 0.5044773 -0.32161766 -0.030417044 -0.034888662 -0.029356943 0.52136225 -0.07946141 0.2831541 -0.62058425 -0.1791244 -0.12845913 -0.020541199 0.055931795 -0.12208442 0.1335033 -0.07954584 0.3859294 0.03877624 0.4239816 -0.12558608 -0.018174421 -0.09960011 0.08992669 0.3053656 0.6623143 -0.17798789
yafN 0.089240395 0.12496244 -0.12029338 -0.8813371 -0.53088653 -0.36669517 0.12561373 -0.08712359 -0.17255305 -0.252143 -0.8859124 -0.5831108 -0.39844692 0.059271578 -0.06324921 0.438508 -1.1175462 0.12431393 -0.3143989 -0.02673035 -0.6644712 0.83604246 -0.24413134 -0.09350158 -0.011185766 -0.118879534 -0.25776348 -0.21992235 -0.3347233 -0.24922721 -0.32206017 -0.4460695 -0.38536432 0.33995524 -0.2647051 0.5026815 0.060660455 -0.35146978 0.11926711 0.7611221 -0.4928662 0.32891756 -0.06473611 -0.32658085 -0.26675415 -0.14067334 0.7234901 -0.22520627 -0.7845325 -0.07948559 -0.3083176 -0.38933897 -0.24114417 0.058055114 0.28684452 -0.43450278 0.0511873 0.54402864 0.294607 -0.7109724 0.20174278 0.2926277 -0.08110579 0.10130466 0.4665487 -0.32318088 -0.5854349 -0.29370293 0.2666353 0.64640915 -0.20170811 0.40933636 -0.12649249 0.48706186 -0.8601539 0.058787026 -0.6772273 -0.37892142 0.038012896 -0.046707954 0.31925547 -0.5262569 -0.51747024 0.35340747 -1.0472697 0.17022006 -0.31697366 -0.017208882 0.11277695 -0.35543942 -0.018639391 0.1326149 -0.36798224 0.58536786 0.5408957 0.7375945 -0.40174037 -0.27422643 0.03147816 -0.078412175 0.42075676 0.2719122 0.08291221 -0.81937987 -0.79503036 -0.13696377 0.07425954 0.7455165 -0.5037628 0.80208987 -0.4361205 -1.18471 -0.017797243 0.21056306 -0.24520054 0.5674601 0.11165755 0.072651535 0.224387 0.17904189 0.50289476 0.52774525 0.07870087 -0.4972385 -0.38473427 -0.44779527 0.4257114 -0.80889666
ogrK -0.19303109 0.06530143 -0.07188091 -0.29929885 -0.18989652 0.15000364 0.071884274 -0.1376336 -0.45023653 -0.2883744 -0.40622473 -0.16831173 0.30262825 -0.021398747 -0.008050152 0.13205786 -0.14704217 0.3178869 -0.3574821 -0.34096375 -0.017757995 0.24143218 0.6293984 -0.17513871 0.051526733 0.42348653 0.019415235 -0.27980638 0.1700979 0.17125127 0.058926344 0.1226345 -0.051434975 0.21744013 -0.41026008 -0.07991275 0.14717478 0.276774 0.19309255 0.07356172 -0.42061624 -0.1399729 0.10932989 -0.19822046 -0.43203768 -0.5313486 0.017850477 -0.44490907 0.092381895 0.24112594 -0.03754563 0.113119766 0.30741715 0.3754637 0.0036371525 -0.20683393 0.77974814 -0.03316649 0.15919122 -0.25109223 -0.26558685 0.041987382 0.111916006 0.025374206 0.13501044 -0.118750356 -0.111681834 -0.32133353 0.25758535 0.17558403 -0.36702248 0.41986313 -0.06032139 -0.4527469 -0.23930103 -0.37618706 -0.27286044 -0.42215753 -0.04981583 0.54055357 -0.13114218 -0.45580688 -0.67014885 0.06142955 0.10227066 0.4335443 -0.36895567 0.1850377 0.5712519 0.036674716 0.47380787 0.56421185 0.3785311 -0.006302076 0.5092202 0.08136235 -0.4976613 -0.3497165 -0.44073588 0.2812239 -0.029769246 0.15941481 0.26562056 -0.28797537 -0.10317853 -0.8368407 -0.035684887 0.60973805 0.021243552 0.42852724 -0.4817345 -0.22250585 0.23011187 0.5458054 -0.0392961 0.13681492 -0.37731227 0.25005856 0.31690463 0.067864925 -0.21240154 -0.08337413 0.31022957 -0.14347081 -0.35134766 0.19321631 0.035976693 -0.18669075
sdiA 0.22042659 -0.20554869 -0.33510506 0.023692291 -0.4782452 -0.111210376 0.37657362 -0.009626875 0.084098056 -0.17626739 0.05878419 -0.12676312 0.23832689 0.22276428 -0.40526018 0.30336013 -0.19014038 0.23136404 -0.006004064 0.035385195 0.08698344 0.019727286 0.17248522 -0.32616964 0.41715616 0.13257095 0.11704129 0.03843052 -0.35163337 0.6309305 -0.21298504 -0.35458732 -0.18261793 0.22048184 -0.01900143 0.5406232 0.015835699 0.041043025 -0.5443729 -0.047278337 -0.3817614 0.18231444 0.28140393 -0.33974427 -0.14349131 -0.46933493 0.0737203 -0.08183228 0.39105755 -0.028257666 -0.27294946 -0.06543714 -0.031504944 0.545425 -0.025792807 -0.39602137 -0.14811061 0.37176028 -0.049858294 -0.20469871 -0.40327728 -0.31216 0.051985826 0.38461712 -0.38827288 0.07181518 -0.121447675 0.12932803 -0.19110386 0.0539866 0.5906035 0.05768828 0.36814755 0.23110625 -0.5229 0.1019551 -0.033125445 -0.64369315 -0.24403837 0.21105847 0.115021296 -0.16147728 -0.40784767 0.2457685 -0.36026424 0.3667054 -0.46085757 -0.21225621 0.5849072 0.5124671 0.46258807 0.23345722 0.17322093 0.28459665 -0.2451562 0.007958782 -0.20129573 -0.7188089 -0.250606 0.42012227 0.75002253 0.36207202 -0.2322296 -0.36655992 -0.101527244 -0.56017476 -0.32205537 0.39939228 -0.37783632 0.2666792 -0.38739526 -0.5208555 0.3256667 0.25223443 0.25702628 0.3241533 0.41949663 -0.16543742 0.26483664 0.13914758 0.058962323 0.13469589 -0.13634045 -0.1753449 -0.39720166 -0.17271233 -0.23248734 0.04046923
nac -0.16489309 0.1426592 0.114657596 -0.4399767 -0.07528712 0.08431621 0.2910974 -0.115950584 -0.4489954 -0.30655998 -0.25409052 -0.22712049 0.19968024 -0.10946014 0.07214277 0.25334412 -0.09276565 0.34982485 -0.541976 0.1347038 -0.2377066 0.26330024 0.052556973 -0.11686161 0.22415215 0.70169854 -0.14691715 -0.21740103 0.12567072 0.20571153 -0.0057160486 0.32260838 0.10335807 0.28217164 -0.20795104 -0.01164696 0.22996852 0.1146843 0.094622925 0.34290746 -0.2673681 -0.0030331498 0.06573166 0.1341169 -0.3851865 -0.46521482 0.23461203 -0.60236925 0.19080506 0.5048472 -0.10430396 0.11960415 0.09482209 0.28353626 0.17735705 -0.1582596 0.453608 -0.11067279 0.26204675 -0.35795033 -0.016478196 0.18670683 -0.010902282 -0.069605306 -0.006432624 -0.049424943 -0.1720048 -0.30701578 0.27703062 -0.10523826 -0.14187591 0.43496224 -0.02221314 -0.2283074 -0.37560993 -0.43645203 -0.41136408 -0.1673556 -0.17374772 0.6546429 0.15203942 -0.15865651 -0.74895185 -0.23244235 -0.12765172 0.24997115 -0.38826957 0.32503203 0.44114715 0.08002688 0.27090636 0.6536933 0.2543066 -0.11772447 0.49396098 0.06400612 -0.4625346 -0.06849933 -0.42409286 0.4577517 0.19523479 0.111541934 0.38795677 -0.08386225 0.07819834 -0.80064934 -0.469443 0.45338202 -0.0021158054 0.43005508 -0.3861227 -0.24897343 0.22518046 0.19589531 -0.12643719 0.13119605 -0.4118342 0.18073425 0.30958426 -0.07499216 -0.20213021 0.27100554 0.402563 -0.3116716 -0.26057485 0.2470756 0.2717239 -0.39589608
rstA 0.17630602 -0.25890538 -0.5431545 -0.5048478 -0.25847742 -0.02023776 0.5061755 -0.3939162 0.08485285 -0.601629 -0.18559586 -0.19227183 -0.0075449967 0.3635522 -0.06960042 -0.08692406 -0.055750154 0.18411873 -0.25857309 0.022220384 0.16937323 0.07761504 0.07683167 -0.22353576 0.19991589 0.3004922 0.19674581 0.03064485 -0.21942508 0.36328733 -0.17117216 -0.3756439 -0.24762632 0.024713384 0.26699808 0.69617283 -0.26819593 0.17687477 -0.3489882 0.2006389 0.14711973 0.17814869 -0.06234592 0.11295995 -0.20997725 -0.42754126 -0.023079116 -0.096298866 -0.27276877 -0.19379239 0.042438455 -0.07057929 0.14126848 0.4867267 0.28028184 -0.45076078 0.15408461 0.08825806 0.11023568 -0.03389082 -0.32001245 -0.15422203 0.042024475 -0.012396665 0.05946791 0.12099411 -0.318542 -0.20064141 -0.13311122 0.22266133 0.5738903 0.31996113 0.16652001 0.013792106 -0.22711606 0.26912612 0.18649426 -0.31121007 -0.39640167 0.2514637 0.45257333 -0.257216 -0.27021506 0.09973186 -0.6717863 0.39311433 -0.627341 0.05205283 0.69735664 0.23135175 0.35785133 0.49731946 0.22234698 0.101698585 -0.16528612 -0.16888437 -0.27316946 -0.5372544 -0.49420762 0.24688324 0.49795577 1.000088 -0.1840787 -0.6690822 -0.38187358 -0.35165763 -0.1343089 -0.045779493 -0.86509717 0.04616767 -0.32012728 -0.22329739 0.22483332 -0.06819854 0.404115 0.44817817 0.3397473 -0.26240766 0.30995327 0.46752915 0.16628459 0.26738095 -0.07953999 -0.21656515 -0.4505089 -0.1411796 -0.11058411 -0.05997855
yehT 0.540738 -0.23120585 -0.5720266 -0.34336826 -0.16842112 -0.17662878 0.62758005 0.10938987 0.20417741 -0.33058316 -0.0674848 -0.19417015 0.029208962 0.25283173 -0.0052263457 -0.22018419 -0.21901296 -0.06889184 0.046066765 -0.2084913 0.20110337 0.0028526238 0.33055747 -0.06542959 0.21350983 0.3516593 0.12730077 -0.12778921 -0.33830002 0.5283714 -0.30640963 -0.5681681 -0.32137513 0.0035272362 -0.2009523 0.44358143 -0.043809704 0.41382712 -0.653761 -0.05656969 -0.04488306 0.2365392 0.044310328 -0.15166183 -0.1961819 -0.57755375 -0.035953127 -0.22673932 0.20823427 0.1955849 -0.19999759 -0.2709178 0.060950883 0.31999075 0.20040779 -0.3004564 0.050249506 0.15307052 -0.037528127 -0.0846872 -0.16175078 -0.036419168 0.11271475 0.10771169 0.13447785 0.32750303 -0.19087102 -0.06791103 -0.12791622 0.50228864 0.6079638 0.24996905 0.47465667 -0.013005796 -0.08543032 0.1812899 0.22894199 -0.47132534 -0.1221636 0.33729926 0.03560763 -0.27650803 -0.33969462 0.21793918 -0.639745 0.4642435 -0.34565833 -0.015005768 0.51379406 0.3506936 0.4858515 0.2805375 0.21198261 0.43345848 -0.1321705 0.16128056 -0.015542256 -0.47168997 -0.2608676 0.054278273 0.68630844 0.73759925 -0.27327722 -0.7471687 -0.22241817 -0.3459316 -0.19281502 0.3606413 -0.732155 0.2446579 -0.3132298 -0.12059787 0.38050506 0.26806957 0.4515368 0.27351582 0.029369792 -0.23985891 0.32892045 0.22807673 0.03707701 0.3574529 -0.09683402 -0.2590259 -0.41435814 0.05886172 -0.21908915 -0.26361868
nagC 0.4254963 -0.8855167 -0.4491834 -0.39565846 0.0022093668 -0.25580925 0.25825924 -0.074480094 0.23102249 -0.34856266 0.06320586 -0.26010796 -0.074013636 0.53761375 -0.2940813 0.0057187392 0.02537437 0.22726649 0.051535845 -0.12115053 0.19571795 -0.48078385 0.066166855 0.020158052 0.270012 0.024828378 0.09493822 -0.053747613 -0.30520856 0.21929437 0.267677 -0.7129513 -0.2216483 -0.24738207 0.08993436 0.13806266 -0.057128627 0.6080794 -0.58767885 -0.15123022 0.1208226 0.7527035 -0.45792508 -0.48872107 -0.21534915 -0.82527995 0.10291766 0.015171333 -0.1358469 -0.36817423 0.37229717 -0.45278051 0.17469339 0.05610961 0.40051103 -0.556045 0.16572134 0.4268421 0.13905971 -0.40679577 0.28022563 -0.018544616 0.06220092 0.117124714 0.13691333 0.4601407 -0.47307163 -0.22449555 0.31144863 0.3694253 0.71142113 0.43553692 0.030569049 0.03364224 -0.10885508 0.07704181 0.38228562 -0.099414855 -0.008845003 0.40842593 0.23378232 -0.14768912 0.07258942 0.09887061 -0.48035118 0.43751365 -0.2803202 -0.05496317 0.65028024 -0.081782185 0.3597001 -0.13924159 0.39035273 0.18129781 0.13145846 -0.21594061 -0.110526346 -0.21200608 -0.3020931 0.015184081 0.6199829 0.8053242 0.07886318 -0.35375372 -0.7840434 -0.6918758 -0.014971727 0.36147887 -0.6587595 0.18809305 -0.5363999 0.070248626 0.3624441 0.062681906 0.4331043 0.30622745 -0.14525649 0.067683205 0.5302951 0.27425304 0.20224062 0.6653788 -0.463786 -0.26051965 -0.30955502 0.076774366 0.050939467 -0.3025819
ompR 0.08051408 0.40486142 0.2786829 -0.20156738 -0.10054454 0.046349317 0.38423163 0.5315373 -0.04714151 -0.16839856 -0.25326076 0.23772006 -0.34655505 0.30675218 -0.10434749 -0.6409325 -0.49103987 0.055934504 0.045192476 0.22098193 -0.5587846 0.2224832 0.12985972 0.45860523 -0.124748796 -0.3245329 0.6418976 -0.56139845 -0.24765348 0.08340535 0.17226827 -0.10557057 -0.06580848 0.34002596 -0.22305258 -0.24107678 -0.331742 -0.03888374 -0.6052168 0.17281948 -0.033429652 0.053068765 -0.22682211 -0.15587474 -0.089878246 -0.26064965 -0.37931117 -0.16222765 -0.38136956 -0.088793434 0.019863471 0.4862908 0.014819983 -0.15751833 0.016600722 -0.38708887 0.17506935 0.38711038 0.09030625 -0.3732471 -0.13385269 0.08590788 0.036204696 0.33214387 -0.5138736 -0.0139967315 0.022482 -0.16854239 -0.28781268 0.3572066 0.3257563 0.40181577 0.008326696 0.15227816 -0.59401894 -0.040522967 0.10605876 0.2543406 0.08114322 0.021149915 -0.46136034 -0.27762613 -0.30132487 0.10082185 -0.071268596 0.1255557 -0.027273733 0.0016445318 0.18657362 -0.14144185 0.03589742 -0.13800475 -0.47054297 0.06756887 0.17380822 0.35580128 -0.4639655 0.35625112 -0.043665342 -0.14401639 0.06728501 0.07150281 0.2838611 -0.11185864 -0.15013473 -0.38419047 0.25364867 0.47207794 -0.49846002 0.3103129 -0.40663314 -0.5881099 -0.038466197 -0.21769063 0.14786099 0.25373998 0.17780505 0.12016456 0.16356012 -0.23407884 -0.05009049 -0.24481122 0.021530176 -0.07131515 -0.082682006 0.5596979 0.37228292 -0.24963653
yeiI 0.3558466 0.54477054 0.106655955 0.03148959 -0.5557567 -0.38086775 0.2019731 0.30945215 -0.37472224 -0.037748814 0.0806407 0.22730255 -0.1146465 -0.11204601 0.006176408 -0.34275496 -0.17968121 0.13853209 0.027191559 0.18689916 -0.15518779 0.69581175 0.15435828 0.15380569 -0.1080509 -0.15953434 0.39353293 -0.20489419 -0.48948434 0.3205445 0.20519394 0.09233576 0.020431247 0.2506671 0.15207508 0.15199567 -0.06063887 0.104883894 -0.5831137 0.27411333 -0.15238129 0.33266845 -0.61153585 -0.4776408 0.0024252553 -0.8468751 0.15159331 -0.13168828 -0.21435237 -0.30267262 0.15622942 0.13122855 -0.08852582 0.08383487 0.028084505 -0.20928599 0.05026473 0.561329 0.04729373 -0.5236537 -0.052129265 -0.0561918 -0.075577796 0.22877884 -0.29890212 0.08335133 -0.1820316 -0.32578453 -0.22867243 -0.10632951 0.122147515 0.8096854 -0.30086604 -0.013290132 0.06772626 0.081618465 -0.1777959 0.7171163 -0.09275905 -0.17214149 -0.089096464 0.17487743 -0.026275082 0.22479118 -0.66348803 0.22570883 -0.061214842 0.3963493 0.17017043 -0.09523567 0.30803317 0.07018991 0.2042392 0.44451535 0.49870175 0.16976385 -0.33488423 0.19751309 -0.09319972 -0.15419829 -0.12760368 -0.1711001 -0.31696892 0.21002439 -0.3758509 -0.045599453 0.043898933 0.461994 -0.28360528 0.30936685 -0.33570567 -0.01172539 -0.05191085 -0.043662287 -0.120106064 -0.13550027 0.38334537 0.12861468 -0.007796419 -0.27371496 0.4346677 0.13600126 0.20427516 -0.056790054 0.09882333 0.007461162 0.4845816 -0.08075877
qseB 0.1035675 0.2347701 0.10855031 -0.1267216 -0.375954 -0.19424681 0.32651776 0.22804292 -0.1927198 -0.16948524 0.06405802 0.4425755 -0.0067952564 0.18724684 -0.052643873 -0.74041975 -0.48533815 0.25618732 0.04862501 -0.13917094 -0.52546436 0.060598165 -0.038682267 0.38541672 -0.21410298 -0.40114978 0.3434882 -0.3895003 -0.35451785 0.11128154 0.34844637 0.15414837 0.07362812 0.45040503 0.028527023 0.14406914 -0.10914054 0.18325208 -0.6527052 0.29063898 0.067034245 0.25797287 -0.35874793 -0.10330899 -0.205857 -0.43361276 -0.18067372 -0.16431797 -0.3901306 -0.22922505 0.3263865 0.26466233 -0.14265439 -0.11070615 -0.016215561 -0.22757716 0.086697966 0.4417616 -0.11402759 -0.2720783 0.08578073 -0.011275863 0.0013796928 0.44505244 -0.20103632 -0.28083193 0.12578553 -0.34409615 -0.21708992 0.21401343 0.20288174 0.6522461 -0.18970469 0.018148486 -0.337522 0.0041761044 -0.138993 0.6085388 0.17693733 0.07750468 -0.10954537 -0.18963058 -0.26702335 0.11242454 -0.13376705 0.29283828 -0.010186096 -0.16269346 0.30267107 0.12847646 0.24501416 -0.31418085 -0.045459736 0.38461965 0.31166148 0.090687074 -0.27920854 0.1747904 -0.052410066 -0.12904048 0.36102602 0.17591552 0.07695737 -0.24476205 -0.24665517 -0.33018154 -0.023980284 0.5170487 -0.21242702 -0.1514395 -0.5093142 -0.15206794 0.2712183 -0.12121684 0.32832474 -0.2532574 0.319087 -0.017426213 0.1322678 -0.061602637 0.21592928 -0.18478803 0.09574184 0.01834781 0.5015288 0.55838805 0.49015474 -0.2618749
allR 0.22957087 0.60630244 0.12243411 -0.4488988 -0.5180431 -0.32340774 0.37034914 -0.25256175 -0.76958036 0.29855582 0.2602698 -0.22437887 0.2564361 0.11467762 0.2320996 -0.73168254 -0.15251915 0.16787629 0.012954777 -0.14836302 -0.4188212 0.3941604 -0.1864718 -0.21344636 -0.08767391 -0.24317826 0.046245083 -0.26677978 -0.42762315 0.3501998 0.18318465 -0.3628782 -0.21623884 -0.047680076 -0.13319919 0.1775085 -0.025651727 0.62752336 -0.34647888 0.46462616 -0.102833435 0.42214125 -0.5433929 -0.3850552 -0.072597675 -0.4248218 -0.018142672 -0.075743236 -0.46142164 -0.122165315 0.40677455 0.08762384 -0.16467293 -0.29592097 0.36802244 -0.09936313 0.106068365 0.19241294 0.085615605 -0.42326874 -0.10025824 -9.440249e-06 0.04713359 0.1416264 -0.07732663 -0.1070317 0.30345562 -0.28103566 0.2681418 0.097231925 -0.18766533 0.49475378 0.006207338 -0.0072139413 -0.34666476 -0.25516784 -0.4590108 0.1818739 0.17029518 0.052643053 -0.09130458 -0.33951867 0.12867455 -0.070051655 -0.04097272 0.10144956 -0.27922347 -0.20113482 0.54093254 -0.24810593 0.14607176 -0.3014702 -0.053091872 0.026289351 -0.28060254 0.26367596 -0.0008417129 0.36697453 0.3355526 0.007503185 0.32607174 0.04974889 0.31481084 -0.11106415 0.08193235 0.14710665 -0.32464242 0.37089443 0.032519966 0.34585428 -0.42549405 -0.14271088 0.0956012 -0.1920239 -0.039618395 0.068617366 0.23277935 0.08548452 0.35632637 -0.16796601 0.4043851 -0.34341863 0.43463835 -0.46889144 0.31838644 0.34571588 0.16708513 0.019513907
isrC 0.275381 0.6964693 -0.009559295 -0.2590644 -0.56164706 -0.19408208 -0.043305196 0.32906026 -0.597391 -0.10114174 0.17292795 0.2645915 0.044265106 0.19220154 -0.07911573 -0.5241116 -0.26227295 0.23699899 -0.22909838 -0.10220583 -0.51041424 0.60973907 -0.12608127 0.21361405 -0.25274843 -0.2969535 0.15233712 -0.3503539 -0.5958941 0.4939287 0.036612432 -0.059485212 0.21822838 0.4239908 -0.13142838 0.190278 -0.25282124 0.030525234 -0.48528412 -0.20518866 0.17623909 0.4076313 -0.13830724 0.025851661 0.08613034 -0.0058982684 0.14540367 -0.48903355 -0.6006912 -0.1174742 0.03355778 0.25459182 -0.023574924 -0.30630583 -0.06740244 -0.29836228 0.18213598 0.60128254 0.08445912 -0.29899764 0.1495083 0.18669468 0.07302873 0.37654704 -0.4577907 -0.12276223 0.08432145 -0.33607912 0.070792556 0.26245478 0.29057616 0.19803715 0.035632778 -0.14032938 -0.09240348 -0.1800314 0.08838021 0.69466096 0.18861534 -0.01099368 0.13323617 -0.31778523 -0.061911467 0.5131631 -0.55904156 -0.11135248 -0.1822637 -0.08071614 0.22649892 -0.19390015 0.19374798 0.050243944 -0.22851993 0.118435144 -0.0043294984 0.26962 -0.59063303 0.0213637 0.011033232 0.075487666 0.08909979 0.18556708 0.32209074 0.062478136 -0.30677527 -0.18389724 -0.37466857 0.40766776 0.092530124 0.1280541 -0.48462173 0.08375345 0.17284995 0.009094572 -0.006936044 -0.43681702 -0.06949335 -0.1586642 0.33484465 -0.31925657 0.20789418 0.0755056 -0.12570554 -0.34459636 0.100886285 0.32090467 0.6841903 -0.2089607
yddM 0.102743685 0.6132462 -0.019691296 -0.048651803 -0.27784896 -0.49094516 -0.04291841 0.097936384 -0.3668145 0.259242 -0.22512308 -0.20269418 0.2178993 0.122587524 -0.24290918 -0.5323548 -0.2778875 -0.012070011 -0.22057338 -0.11580624 -0.45042467 0.22746299 -0.0206852 0.08989249 0.042613603 -0.034942415 0.35271445 -0.5142082 -0.42916805 0.27492166 -0.09384756 -0.094563134 -0.06637601 -0.19117074 -0.07848131 -0.08155823 -0.10730339 -0.011733301 -0.5688753 0.5178608 -0.40165207 0.33783674 -0.21315263 -0.45651138 0.09070772 -0.43512768 -0.23804237 -0.28816295 -0.3203296 -0.35062343 0.07000853 0.35595837 -0.33994603 0.042089693 0.34656134 -0.20224874 0.20772249 -0.12234216 0.16311246 -0.7469213 -0.23029795 -0.20658907 0.14348719 -0.23610814 -0.24009793 0.066651314 0.12982987 -0.23185323 0.35885778 0.07721294 -0.25612077 0.32300013 -0.2888806 0.077476285 -0.13896252 -0.22300303 -0.27626702 0.23537058 -0.008594633 -0.21729639 0.1216722 -0.4040967 -0.022245584 0.2068986 -0.7010576 0.48893642 -0.035018895 0.22910534 0.50631785 0.16424091 0.13429514 -0.101309724 0.21103288 0.3226913 -0.12741245 0.11436776 -0.4608336 0.23885986 0.044614017 -0.37832862 0.1273479 -0.19443585 0.21375231 -0.17446761 0.058606654 -0.23791622 -0.21986368 -0.09717168 0.117940195 0.06424759 0.029729053 -0.14196499 0.016450435 -0.21624856 -0.29122075 0.011699048 0.3177325 0.2917245 0.41257927 0.04742221 0.529339 0.09739272 0.3445724 -0.35395518 0.20378102 0.4599965 0.39723504 -0.31869373
ilvY 0.60852075 0.18503378 0.022538397 -0.14763176 -0.2958897 0.015330681 0.2135817 0.48293918 -0.19233432 0.15729466 0.14430416 0.22176218 0.084318206 0.2635404 -0.072238505 -0.7525636 -0.6933233 0.05958568 -0.007833754 -0.14055786 -0.5584197 0.07194539 -0.022002514 -0.008836505 -0.21856211 -0.45572945 0.37944382 -0.3865979 -0.3555115 0.21067098 0.10847017 -0.28589293 0.1973141 0.25208646 -0.14829403 -0.038809486 -0.05514041 0.049743135 -0.7111462 0.13391954 -0.10763937 0.13484995 -0.53122 -0.21111739 0.0050235284 0.12944974 -0.25564733 -0.10488487 -0.4009093 0.15054835 -0.029817134 0.20622325 0.009727942 -0.33748135 0.063294046 -0.27136743 0.11153723 0.38613853 0.1399389 -0.17619772 -0.1505594 0.18823987 0.098324835 0.18035169 -0.06872755 -0.36599737 0.2319769 -0.14650205 0.21972784 0.24047199 0.0791131 0.5755715 -0.3851549 0.01334014 -0.3844626 -0.022810798 -0.24984165 0.05875299 -0.06981692 0.0012106658 -0.1137331 -0.013540763 -0.17959204 -0.04770864 0.021161737 0.1860251 -0.15270476 -0.08192812 0.23772936 -0.1448351 -0.15882221 0.0066576423 0.056014657 0.10065042 0.118657224 0.15849419 -0.55186987 0.6175752 0.06784028 -0.020297157 -0.03604791 -0.14200652 0.04169743 -0.3034802 -0.4328335 -0.43280038 0.12326299 0.4202268 -0.39055762 0.40702537 -0.5216705 -0.165763 0.43184704 -0.47640997 0.032998513 0.121536404 0.5657385 -0.2336484 -0.0026793997 -0.13943718 0.06720226 0.006632967 -0.11995358 -0.42964444 0.44215572 0.33935896 0.3242735 -0.17667796
feaR -0.04886831 -0.26604196 -0.31219918 -0.24319696 -0.41027024 0.09776094 0.32972106 -0.09558212 -0.3885346 -0.22136971 -0.3424811 -0.04584025 -0.027757118 -0.10815731 -0.28153992 0.43288285 -0.042460706 0.46849054 -0.41680554 0.31484926 0.00048180477 -0.07054913 0.6289885 -0.18342915 -0.08318731 0.39775825 -0.1044987 -0.067663684 -0.1255707 0.32216716 -0.107940644 -0.03261209 0.3031566 -0.0024317754 0.072192036 0.3278397 0.1418849 0.1668769 -0.40401405 0.105424136 -0.5646362 -0.12752289 0.68797725 0.07191466 -0.19261597 -0.6913504 0.079057135 -0.10686785 -0.08436162 0.0770053 -0.42775226 -0.23842677 0.15753524 0.5894306 -0.026236525 -0.03309465 0.14372396 -0.11208205 -0.047749367 -0.25113925 -0.28686932 0.1593446 0.026610557 0.33718997 -0.39394557 -0.38659143 -0.24814746 -0.13845055 0.0487081 0.111469716 0.14708462 0.1618973 -0.05239108 0.06980376 -0.30296192 -0.09676718 -0.4804469 -0.56350684 -0.16531642 0.30169588 0.43952498 -0.43737087 -0.6725319 0.041275535 -0.25044575 0.22245704 -0.27712354 -0.024984913 0.24315359 0.14439924 0.36101967 0.18425485 0.1555489 0.095200725 0.2143713 -0.12537391 -0.63379633 -0.35121515 -0.17729895 0.1576333 0.58572054 0.5997251 -0.02707374 -0.32831457 -0.20995663 -0.8276483 -0.18795197 0.6042465 -0.12487703 0.03665506 -0.14541388 -0.5048476 0.29807448 0.20485942 0.22204778 0.23413792 0.20422934 0.057396773 0.015406299 0.16804305 0.03901528 0.26093954 0.41357726 0.12147641 -0.27686635 -0.10130118 -0.1243956 0.42465985
lsrR 0.11259022 0.28287113 0.0473419 -0.24572666 -0.30823028 -0.26340532 0.44712442 -0.33959937 -0.5134066 0.037962466 -0.15761524 -0.34859538 0.006929386 -0.13901173 -0.3062977 -0.38047767 -0.121144205 0.37317342 -0.24986993 -0.11730997 -0.39205423 0.22763802 0.11513256 -0.19240093 0.15961644 -0.05617513 0.54875654 -0.20031299 -0.44022605 0.35205927 -0.1393242 -0.040290557 -0.20315742 -0.110776395 -0.0462263 -0.14951184 0.2256739 0.39420658 0.033396408 0.73597664 -0.196761 0.15569218 0.30934626 -0.05628155 0.025226962 -0.3060123 0.18176241 -0.3115254 0.13756856 0.018126352 -0.12498797 0.14339042 -0.070948295 -0.04065521 0.29667425 -0.38630766 0.58905464 -0.05108324 0.18316397 -0.75879127 -0.15676881 -0.098335184 -0.07073657 -0.1797417 -0.058517326 0.1338231 -0.118159845 -0.44471523 0.34206843 -0.0117595615 -0.38082218 0.64829457 -0.20488323 0.15721247 -0.016072633 -0.7709644 -0.22567281 -0.21447039 0.05600177 0.17291252 -0.094928384 -0.5109066 -0.2591961 0.09728986 -0.020636825 0.09838666 -0.049113914 0.21474929 0.7681351 -0.33014897 0.08358568 -0.075735986 0.10390118 0.29286757 -0.1775371 -0.032666348 -0.057836425 0.09670093 -0.23572779 0.02794274 -0.08356048 0.04891156 0.11778939 -0.04601958 -0.11202477 -0.18561913 0.0076636025 -0.3135943 0.03184077 0.343042 -0.13567585 -0.031321045 0.22494517 -0.120853275 -0.07661215 0.0035384493 0.004188239 -0.020399187 0.25954723 -0.27944005 0.39125073 0.12807107 0.0677515 -0.20742486 0.21568555 0.5095997 0.096975826 -0.29414928
spf -0.144912 0.20777565 0.12815459 0.16026522 -0.19874798 -0.89273316 0.027691048 -0.17235538 0.081035584 -0.3928509 -0.32224998 -0.09044777 -0.02260587 0.54432106 0.05708337 0.0065130075 0.13655858 0.8915305 -0.6510146 -0.28884175 -0.49593335 0.2927238 -0.2773662 0.62908775 0.7615591 -0.19330601 0.33638614 -0.029286021 -0.5884937 0.665292 -0.2738998 -1.0948519 -0.17481728 -0.029522475 0.11169886 -0.2208932 -0.17060758 0.40099636 0.009301873 0.120943986 -0.4516439 0.19161955 0.16149896 -0.16846733 -0.35764563 -0.44819534 -0.2479836 -0.85515815 -0.38538212 0.05244174 0.18939218 0.23229064 0.096779816 -0.13442996 0.027934818 -0.40235955 0.48215687 0.34219718 0.20705135 -0.1466399 -0.31024754 0.28898588 -0.4504547 0.19824663 -0.09012212 0.007797207 0.1476904 0.024378981 -0.13656388 0.13437624 0.42781243 0.5947652 0.079056285 -0.11421045 -0.6699157 0.09403471 -0.32466298 -0.16569929 0.3127623 0.78119045 0.5243926 0.25478473 0.24631986 -0.27424574 0.17493822 0.9892836 -0.06283455 -0.032695536 0.18947418 0.31849036 0.049738247 0.26273456 0.36573836 -0.42671406 -0.074986316 -0.16165936 -0.48068672 0.38290587 -0.29449558 -0.12287818 0.72613984 -0.08122664 0.22723289 0.011890105 -0.534887 -0.34480748 -0.16873881 0.6028215 0.34930515 0.25370666 -0.378537 -0.4616736 0.438576 0.64598125 -0.35466054 0.2823585 0.37244806 0.38916218 -0.11811636 -0.017518869 0.29807478 0.38929 -0.13826467 0.42722446 -0.09310256 -0.09000052 -0.66501015 -0.18565986
eutR 0.34230146 0.25070927 0.1524632 -0.14665657 -0.048972372 -0.0020629382 0.107978806 -0.31845087 -0.47479373 0.17930815 -0.1985739 -0.14034398 0.4113599 -0.12971026 -0.1684576 -0.29480526 -0.4230014 0.25964922 -0.18394423 -0.34527344 -0.27142122 0.1710653 0.23400904 -0.2316738 0.12720785 -0.12362989 0.54983014 -0.3525813 -0.08234329 0.28668544 -0.3373186 -0.20609188 -0.08188611 0.0480199 0.014960998 0.13376577 0.1385417 0.17778958 -0.11062327 0.43915448 -0.27181944 -0.0115304515 -0.007393014 -0.1958776 -0.22814988 -0.46414798 -0.022475846 -0.56007284 0.012386165 0.06358498 -0.017715698 0.092413574 0.046556003 -0.2624851 0.4750892 -0.5153048 0.31050777 0.048046265 0.1797131 -0.662017 -0.4494266 -0.30844796 0.21494432 0.14317283 -0.12967202 0.1110183 -0.095788 -0.10096692 0.57365644 0.1193437 -0.22069381 0.59939915 -0.41614994 0.10935279 -0.11925451 -0.51875913 -0.3099757 -0.1407152 0.1741998 0.20446451 0.19866672 -0.36494425 -0.27546436 0.031488217 -0.26093057 0.59936756 -0.16027504 0.05407577 0.8730462 -0.144197 0.0014357932 -0.016055444 -0.19278842 0.4774223 -0.10460059 0.014917574 -0.13056014 0.11979542 -0.3182494 -0.012362287 0.0740457 -0.2654382 0.2989187 -0.2590518 -0.26799652 -0.038584217 -0.16008508 -0.2905007 0.1416706 0.50650334 -0.16730693 0.036949176 -0.053679492 -0.12980886 -0.14424397 0.2408193 -0.23782435 -0.04781459 0.012215218 0.028199162 0.29573557 0.032204263 0.2879907 -0.28032756 0.05195655 0.45425254 0.29176226 -0.16553447
ssrS 0.3862472 0.09900076 0.113343105 -0.22394456 -0.27081987 -0.152065 0.2545092 0.23515572 -0.31661037 0.17972289 -0.10808816 0.2883389 0.16144267 -0.004640952 -0.29429263 -0.87049323 -0.31595537 0.19232719 -0.1528623 -0.0850983 -0.3144805 0.22379391 -0.1962608 0.1516002 -0.17052187 -0.19629015 0.27435884 -0.15032148 -0.10204441 0.012884876 0.24686436 -0.366589 -0.31013894 -0.07942368 -0.20282476 -0.04058403 -0.08769979 0.032509226 -0.51104814 0.5052684 -0.20759426 0.3197712 -0.2016544 -0.29587796 0.08902435 -0.3000725 -0.0025135295 -0.446439 -0.34899402 -0.25759226 0.15112989 0.38762733 -0.10591578 -0.22171898 0.3362175 -0.33908713 0.30915555 0.72029823 -0.08005794 -0.5681605 -0.29145247 0.1420137 -0.056063805 0.0694448 -0.49017394 -0.08665235 0.34063274 -0.16648464 -0.13741179 0.19665295 -0.09205058 0.4762879 -0.24793208 -0.08375879 -0.46907148 -0.08630158 -0.15693451 0.13005859 -0.13734882 -0.07667599 0.00046477123 0.008336173 0.187491 0.23180227 -0.46036074 0.074455984 0.25085112 0.13060464 0.66284215 -0.14378497 0.11878015 -0.28687465 -0.28382084 0.34252697 -0.11849048 0.08813333 -0.19490531 0.31186965 -0.29264706 -0.44356096 0.059405867 -0.03506133 0.39657694 -0.13261572 -0.001121507 -0.31163585 0.053946663 0.2962625 -0.036415927 0.2577441 -0.19169796 -0.19303098 0.4281905 -0.24216111 -0.13743973 0.2215981 0.26556242 0.005441256 -0.0817231 -0.3304641 0.35429806 -0.103203855 -0.26717454 -0.3416899 0.07045932 0.40772697 0.41137293 -0.05283093
dicA 0.27303153 0.17500186 0.003344375 -0.038956117 -0.15381263 -0.059367437 -0.08012652 -0.19338718 -0.47618836 -0.022641405 -0.29805446 -0.40592837 0.39950684 -0.17137952 0.071933016 0.15808757 -0.0888679 0.40254304 -0.36079836 -0.3473679 -0.32102522 0.4228002 0.20830727 0.19667557 0.32524788 0.343386 0.079874605 -0.1735908 0.11373013 0.26695666 -0.109994255 0.02679868 -0.20684834 -0.14176568 -0.3433488 0.011114809 0.17475098 -0.030256594 0.100879095 0.09523137 -0.3198219 0.030156504 -0.05100466 -0.19027996 -0.26824173 -0.30797526 -0.008378098 -0.82887405 0.03140004 0.16458993 0.1368164 -0.030670332 0.4402065 0.19933183 0.31410742 -0.26475304 0.61739075 0.05338081 0.16405413 -0.57720923 -0.37799147 -0.14047422 0.012140584 -0.06671742 -0.1500218 0.07994604 0.058045037 -0.081863225 0.40820375 0.06929879 -0.35532975 0.4969918 -0.2741252 -0.15318121 -0.3214143 -0.32870695 -0.44555682 0.07595389 -0.06918112 0.49045193 0.20032862 -0.4519253 -0.52822155 0.11100155 -0.26709005 0.21268731 -0.21339616 0.12934835 0.73138297 0.052144162 0.41779897 0.5737897 0.24373005 0.07945824 0.037836194 0.12868185 -0.31744802 -0.21425223 -0.4638427 0.38515747 -0.15406388 -0.029650506 0.43200138 -0.13294184 -0.1306859 -0.41415742 -0.17306119 0.10504262 0.047714688 0.79735947 -0.43965095 -0.0051897718 0.028315643 -0.08983602 -0.26579273 -0.10599586 -0.510889 0.19653654 0.400435 0.05934955 -0.08943843 0.07203915 0.45653826 -0.26930776 -0.23804955 0.3496356 0.17888892 -0.08348819
sfsB -0.116341054 0.4874132 0.107580654 -0.112912565 -0.10103407 -0.06909648 0.07467779 0.23415881 -0.27516893 -0.008699085 0.29168242 -0.011548495 0.08384383 0.28730032 -0.12595594 -0.6216891 -0.42613742 0.247295 -0.0057115783 -0.024236517 -0.38099986 0.46056327 0.20664293 -0.2937589 -0.03840309 -0.20589629 0.2745209 -0.090603285 -0.36573574 0.22489771 0.021940758 -0.07827021 -0.2232349 0.072574295 -0.23848179 -0.028967053 -0.26154897 0.08644452 -0.4871133 0.277778 -0.04840435 0.12047901 -0.61039144 -0.56841165 0.26516077 -0.021585677 0.16623448 -0.22795674 0.09614821 -0.19142976 -0.045121033 0.17778672 -0.2866044 0.15391849 0.59369755 -0.09958616 0.1008227 0.47071955 0.4726215 -0.2979319 0.07809383 -0.26884395 0.1222744 0.2568989 -0.24975829 0.048456043 0.10874014 -0.23315066 0.49779958 0.31571832 -0.07422663 0.615783 -0.19632958 0.090092905 -0.18699335 -0.3490448 -0.12706244 0.42303625 0.13056052 0.00914516 -0.19852123 -0.4843019 -0.08531296 0.20247802 -0.1853122 -0.050484434 -0.11694503 0.015293745 0.07331837 -0.40309912 0.2733019 0.02957457 -0.16220617 0.29525116 -0.28732505 -0.012317931 -0.24134383 0.20213419 0.07268577 -0.011363406 0.24789448 -0.20486355 0.72804433 -0.18530467 -0.14799468 -0.25597128 0.04187472 0.7211096 -0.27703828 0.39529744 -0.6348524 -0.31315672 0.27464667 -0.51275253 -0.1536144 0.072027884 0.34608397 0.2970739 0.37696084 -0.19947878 0.23805493 -0.17041746 0.2544117 -0.14005311 0.14735213 0.52764595 0.42539436 -0.31325293
nrdR 0.27384108 0.44140035 0.25973794 0.03337854 -0.57232976 -0.39761782 0.09870608 0.21779656 -0.11596494 -0.1875839 0.091993704 0.48362228 -0.19046932 -0.06733667 -0.026358416 -0.5738628 -0.68349725 0.124045566 -0.17287207 -0.26041967 -0.12528601 0.066116236 0.3518041 0.12422345 -0.19270942 0.04711114 0.6981098 -0.18518199 -0.45193172 0.15772179 0.39798304 -0.17958052 -0.021572959 0.29660696 -0.0912397 0.25722247 -0.032767963 -0.18918547 -0.16366746 0.29749396 -0.08697031 0.247194 -0.44723237 -0.22681469 -0.047121312 -0.50596887 0.12263033 -0.04108212 -0.3784588 -0.25680763 0.3662914 0.40370333 -0.24514408 -0.013112711 -0.07091757 -0.36001018 0.28565058 0.44600308 -0.14704882 -0.25745258 0.27692917 0.20039478 0.038713317 0.23831442 -0.06797541 -0.20293875 0.13135308 -0.5714184 -0.083097495 -0.16567822 0.019571058 0.5141879 -0.10478913 -0.2889276 -0.46576995 -0.057625465 -0.22949234 0.32027113 0.039838653 -0.22375093 -0.3065577 -0.24758168 -0.13211617 0.29499874 -0.3107338 0.26779288 -0.27236992 -0.05465231 0.29336113 -0.12948653 -0.0056709065 -0.382884 0.1993593 0.57871777 0.35199144 0.08507367 -0.39647958 0.50340074 0.043181058 -0.100196466 0.12831384 0.26440266 0.24137898 -0.32384765 -0.22762291 -0.11242699 -0.089116186 0.43030024 -0.11575383 -0.15668893 -0.29703563 -0.30508232 0.5817366 0.03151266 0.025987403 -0.27719435 0.74191797 0.3012586 0.13408932 0.09092452 0.4774839 -0.047821905 -0.204322 0.013169385 0.2554748 0.24144597 0.6141017 -0.37179446
aidB 0.47948804 -0.40280592 -0.26181763 -0.27426428 -0.05911376 -0.30337524 0.6141355 0.1341808 0.23560728 -0.38781205 -0.022764368 -0.26298138 0.21076958 0.037726767 -0.03240456 -0.3322125 -0.31116596 -0.03053101 0.20069665 -0.15520623 0.4126664 -0.21873303 0.17477053 0.3307247 0.014702102 0.3091985 0.063701086 -0.41687843 -0.4190496 0.70863277 -0.3655785 -0.6312219 -0.12528695 -0.04828409 -0.24286523 0.33943662 0.21998739 0.69260645 -0.6317606 0.0705903 -0.013317916 0.5340233 -0.09779046 -0.3809848 -0.24579279 -0.7637414 -0.24137954 -0.10418771 0.14072321 -0.105953865 0.37403488 -0.65055823 0.33973014 -0.0012286408 0.05541137 -0.31322464 0.07780766 0.320282 0.23072472 -0.42691553 -0.002015723 0.030580074 0.2836572 0.0007256733 0.41971695 0.35265017 -0.31825846 -0.2644254 0.100550696 0.4158938 1.0237155 0.48610634 0.31205806 -0.017105011 0.23062511 0.033099413 -0.09587255 -0.35007778 0.120010644 0.42026258 0.14580137 -0.1420252 -0.26610842 0.31894872 -0.65424204 0.5801159 -0.20430875 -0.19765916 0.39423758 0.25066185 0.5199885 -0.123738825 0.32946095 0.42544326 0.082141966 -0.1302339 0.038921554 -0.03364584 -0.17249142 -0.19743559 0.34673136 0.5940766 -0.23210935 -0.32997978 -0.3817197 -0.5923372 -0.1881367 0.39961424 -0.78140134 0.2021469 -0.14895739 -0.15806675 0.39946687 0.39931402 0.2920027 0.3659525 -0.014953592 0.07554834 0.21592636 -0.12376069 0.14634825 0.6216052 -0.18856467 -0.17721961 -0.61444634 0.020708848 0.2855733 -0.31589028
fis 0.34328312 0.417311 0.09442907 -0.25321296 -0.2427436 0.1433518 0.37896037 0.006608605 -0.51844877 -0.05174235 0.11978793 0.22138041 -0.36802262 0.09468834 -0.17656709 -0.2769924 -0.050606083 0.07611315 0.19719398 0.158856 -0.22471333 0.33527943 0.0060425405 0.2531877 -0.238407 -0.13507175 0.3402766 -0.30243412 -0.28435314 0.31567067 0.3942408 -0.15899102 -0.2799628 0.14581907 0.06809093 -0.117500804 -0.25925747 -0.15586857 -0.37911433 0.41307056 -0.03745444 0.23610732 -0.15817259 -0.2639821 0.1963983 -0.44505996 -0.11471759 -0.061237246 -0.7345443 -0.2906689 0.008094926 0.24494244 0.22735475 -0.022739496 -0.037071113 -0.47812662 -0.105723515 0.60327065 -0.1448502 -0.63521665 -0.10357006 0.01653481 -0.2248875 0.30958584 -0.5113817 0.08377863 0.007343123 -0.42997766 -0.2987768 0.03454833 0.42089084 0.4204387 0.07727282 -0.27760842 -0.3410946 -0.19752583 0.033749636 0.379713 0.12331634 -0.28182656 -0.31862757 -0.09452242 0.15450808 -0.019471385 -0.6355243 -0.16796175 -0.013539434 0.06324346 0.20275894 -0.14282393 0.37531096 0.087967545 -0.24817635 -0.038118318 -0.020960115 0.32699746 -0.65204084 0.3798258 -0.022198318 -0.0709588 -0.0730557 -0.14198354 0.10825015 0.036236357 -0.23000547 -0.19177519 0.4221969 0.3806542 -0.58232814 0.60413885 -0.57909167 -0.42137545 -0.100720756 0.13798115 -0.059814427 0.48006716 -0.010076062 -0.09171608 0.02114785 -0.18889722 0.33683974 -0.15333608 0.34966624 -0.25549346 -0.23372509 0.30684707 0.34769493 -0.26714796
matA 0.5745023 -0.5898342 -0.23783888 -0.2854119 -0.25776505 -0.33144516 0.44697967 0.07125846 0.24626952 -0.26987818 -0.071219824 -0.3117937 0.018112944 0.43232855 -0.058195405 -0.24780023 -0.17775097 -0.029035296 -0.028619891 -0.11245582 0.18015522 -0.21275057 0.19623064 0.1988387 0.29705593 0.35844177 0.25144565 -0.25707585 -0.35874584 0.46152234 -0.34432703 -0.68732667 -0.36824244 -0.025629442 -0.34215105 0.19357464 -0.20846611 0.30378345 -0.38903314 -0.17164938 -0.13165651 0.26751292 -0.13335013 -0.2916688 0.015718417 -0.7465508 -0.0118611185 -0.15716535 0.015139426 0.05629977 -0.0523292 -0.32589933 0.18507288 0.2478411 0.13973513 -0.2644881 0.17628023 0.20659925 -0.048792798 -0.11039126 0.07559284 -0.22147498 0.15206322 -0.0025078785 0.20484151 0.4434898 -0.3085272 -0.22292526 0.063562505 0.55399036 0.7740963 0.06368096 0.40235773 0.20216894 -0.06978642 0.312156 0.09509079 -0.4080986 0.18438983 0.629073 0.063404396 -0.30542934 -0.11989324 0.46625534 -0.31122652 0.71601206 -0.33479548 -0.15530626 0.5114906 0.44274694 0.48937643 0.2732488 0.4044606 0.5078445 -0.0040374636 0.06475057 -0.060538318 -0.21147577 -0.1376206 0.03772036 0.7982891 0.65633917 -0.19862977 -0.611745 -0.49247274 -0.5117555 -0.105744116 0.40485823 -0.5535235 0.20574029 -0.18823163 -0.17821886 0.41510102 0.53983426 0.5975751 0.0910578 -0.23631078 -0.084266976 0.46809468 0.1232617 0.05413078 0.39583552 -0.34605426 -0.2951741 -0.1913297 0.08386666 0.107970074 -0.19060431
nikR 0.33378294 0.92595536 -0.037274268 0.104490735 -0.4181878 -0.3054972 0.084345415 -0.02293522 -0.3704688 0.10124826 -0.2514808 0.026760265 -0.10461691 0.11915958 -0.33698007 -0.63371086 -0.3011619 0.24812654 0.14384617 -0.23866762 -0.013121034 0.26786405 0.008341492 0.3086123 -0.009965724 -0.28644398 0.43277532 -0.29645917 -0.29274097 0.6142199 0.029291218 -0.35648474 -0.18784429 0.16607429 -0.06226897 -0.052744623 -0.25604102 0.035485975 -0.37576935 0.25547418 -0.1732601 0.3275162 -0.33536047 -0.20213535 0.13394888 -0.59183764 0.08028479 -0.06503814 -0.56482506 -0.38986927 0.17227888 -0.122397095 0.032260705 0.07631806 -0.26249474 -0.41954818 0.5543144 0.30023888 0.074877486 -0.59745806 0.0653087 0.18072379 0.3465712 0.23943712 -0.01757641 0.015988052 0.4755993 -0.22185382 0.556777 0.063917264 -0.09188693 0.52505046 0.20082904 -0.2752422 0.058717407 -0.23516195 -0.4303456 0.7492128 0.10120223 0.06666201 0.069470525 -0.16491236 0.13653797 -0.06466488 -0.5661536 0.20396593 -0.32533342 -0.0031927647 0.35617113 -0.34058157 -0.11796466 -0.28205043 0.211776 0.08441123 -0.3225194 0.315367 -0.16276985 0.08748828 0.13937125 0.10060619 0.3786624 0.07532564 0.19306591 -0.27919367 -0.16810915 -0.16206606 0.12804703 0.12178615 0.115808845 -0.1829059 -0.2540871 -0.19266911 0.2763963 -0.033675015 -0.08076674 -0.3251391 0.37316895 0.2378781 0.21750541 0.26542413 0.32774538 -0.3242555 0.08525772 -0.116584 0.26054487 0.3803756 0.34497333 -0.028689135
ybhD -0.1769882 0.063964084 -0.10228679 -0.050455585 -0.3253324 -0.16651548 0.12744808 -0.2198201 -0.47803974 -0.3974978 -0.5295755 -0.47502905 0.0648761 -0.16521807 0.38183218 0.26272607 -0.22508371 0.49594167 -0.5270713 -0.19360901 -0.60815567 0.17241965 0.048339088 -0.017818762 -0.034945726 0.36852914 -0.3120008 -0.22881442 0.23135103 0.27955878 0.08122129 0.07927039 -0.19460692 -0.03924264 -0.247868 0.30583096 -0.06976164 0.2109942 0.07476384 0.36506286 -0.062404487 0.35480216 -0.16621956 0.042546272 -0.36114252 -0.77260715 0.25017834 -0.6374103 0.00689868 0.07033898 0.016742801 -0.08772995 0.07440556 0.3189373 -0.035572927 -0.33307838 0.46081477 0.0033887466 0.3673646 -0.31585056 -0.06811053 0.23792212 0.1556746 0.032171745 -0.08389443 0.07459334 -0.028688826 -0.32073352 0.18080112 0.1235055 0.15363574 0.65605396 -0.047534764 -0.085228086 -0.13022417 -0.5457329 -0.6126363 -0.09394042 0.17378508 0.7688859 -0.19269326 -0.31148776 -0.45743984 -0.20013905 0.23879571 0.15595175 -0.62987244 0.19808692 0.6571746 0.3508896 0.51924497 0.43193135 0.008806531 -0.06497023 0.7222878 -0.0025057297 -0.15126976 -0.054757923 -0.41736233 0.5615917 0.028700076 -0.12871103 0.005021651 -0.0027195606 -0.27870205 -0.85341334 -0.24909016 0.06355126 -0.06950505 0.5793938 -0.29149094 -0.23938812 -0.19828509 0.48220715 -0.04094881 -0.22347155 -0.45947945 0.11817478 0.28464946 0.26623443 -0.08853374 -0.20861495 0.4122241 -0.36405617 -0.13463688 0.23340496 0.042255532 -0.34146228
yegW -0.041530974 0.19539802 -0.22078979 -0.059823457 -0.3448077 -0.026175268 0.22712491 -0.3226266 -0.35377097 -0.23045892 -0.5254858 -0.18570855 0.5514789 -0.28848124 0.3030868 0.19551362 -0.46135145 0.23764372 -0.52974063 -0.55369663 -0.14030063 0.37602645 0.1285481 0.05311971 0.33211657 0.3631241 -0.05204542 0.1460377 -0.07227368 0.24168879 -0.17693199 -0.09559699 -0.0144414455 0.15210721 -0.3760561 0.039750427 0.4076235 0.22473656 0.2864644 -0.07980642 -0.16244747 0.25231087 -0.11090457 0.18541999 -0.24370024 -0.3542486 0.2889662 -0.5135206 0.18462022 0.28513554 0.29708454 0.101146445 0.35635012 0.26846534 0.46251494 -0.5381654 0.4561935 -0.15602727 0.27964428 -0.20195816 -0.24388373 -0.08829066 -0.1740324 0.18908982 0.12660225 -0.008096416 -0.22531484 -0.42622608 0.062277343 -0.027996195 -0.088163115 0.249372 -0.27827477 -0.32226112 -0.5856829 -0.1363811 -0.37251708 0.013037794 -0.26871544 0.6928286 0.14256586 -0.110707715 -0.6964279 -0.22502369 -0.14740387 0.67301166 -0.42874774 -0.05230035 0.511752 -0.14750427 0.33908805 0.6205879 0.20808405 0.09925249 0.24833214 0.11792938 -0.42947978 -0.26877484 -0.36278445 0.23459578 -0.032615162 0.2877856 0.51796025 -0.37113628 -0.06708391 -0.37924072 -0.35023695 0.4246079 -0.37108853 0.7209285 -0.5741907 -0.24332845 0.2013662 0.04167574 0.115210965 0.030256517 -0.5987005 0.26753834 0.36133206 0.26098773 -0.31595555 0.08308196 0.46657258 -0.2976383 -0.21254237 0.27127188 -0.05389217 -0.280417
allS 0.5216092 0.42663112 0.036934048 -0.085778214 -0.31655067 -0.35376698 0.36974922 0.13796107 -0.3065143 0.17929721 0.40699184 0.018125866 0.3571712 0.29135114 0.17432858 -0.85002893 -0.19532976 0.013588385 -0.03740763 -0.19797322 -0.5559337 0.40678087 -0.10173278 -0.022635926 -0.23945604 -0.33107096 0.4709966 -0.5242614 -0.35719374 0.33434415 0.38956767 -0.24968766 -0.11854601 -0.16482458 -0.15984778 0.24506858 -0.34839636 0.16222987 -0.44569212 0.46096194 0.006436771 0.39774156 -0.6080183 -0.47356877 0.11617281 -0.4286809 -0.22856738 -0.1804999 -0.30750248 -0.20331126 0.10331921 0.2631409 -0.24273916 -0.009544329 0.21149445 -0.36117858 -0.09536272 0.39095804 0.0106468825 -0.3697548 -0.2708671 -0.32202533 0.10559397 -0.18650344 -0.4679381 -0.121490344 0.10232947 -0.19716744 0.17469086 0.082834594 -0.2543653 0.6909406 -0.18943118 0.17646563 -0.17633505 -0.26604918 -0.10801557 0.35111508 -0.03033241 -0.09170372 0.17283936 -0.30617434 0.046478126 0.30890828 -0.2010021 0.10332545 0.091674045 0.06441547 0.40985584 0.046400867 0.35630488 -0.052572727 0.2990943 0.14771414 -0.11054801 -0.18669978 -0.24192117 0.2722711 -0.12407119 -0.1937621 0.22286901 -0.10083053 0.13398789 0.13202657 -0.2662716 -0.30887914 -0.093638435 0.32466078 -0.010285518 0.4761631 -0.17921408 0.054841157 0.11966542 -0.3653432 0.1629867 0.25197482 0.45277673 0.1155857 -0.0056392313 -0.16206129 0.3968345 -0.11026495 0.086731195 -0.15257992 0.06395704 0.1215775 0.22707687 -0.08839711
cspF 0.18222928 0.48593238 0.086689055 0.111628 -0.5594523 -0.29033598 0.33908978 -0.2165114 -0.50648636 0.029805137 0.3121774 -0.17310593 -0.077815615 0.4133847 0.22504471 -0.8028338 -0.07881193 0.17334273 0.0016098063 0.03795043 -0.3723798 0.23706588 0.034758613 0.0116601605 0.02573379 -0.083358586 0.5524122 -0.2313075 -0.36311904 0.5065537 0.36153224 -0.05601138 -0.063292034 0.050123326 -0.356732 0.015878461 -0.28304258 0.16983928 -0.41106054 0.5548524 -0.047466733 0.36830884 -0.5721022 -0.19576836 0.18245581 -0.27073118 0.18505412 -0.2118942 -0.11891964 -0.02007333 0.10581737 0.03767953 0.0013214364 -0.0005256284 0.16881502 -0.31970337 0.45548066 0.4042055 0.36028445 -0.37964663 -0.15735134 -0.18344702 0.32353163 0.003759331 -0.124090485 -0.00835987 0.17187357 -0.42559808 0.35397097 0.011165718 -0.29707637 0.75103855 -0.079375915 0.13102785 -0.14455403 -0.5325266 -0.15285383 0.39862993 0.31125912 0.30372566 -0.15947759 -0.40502518 -0.21874538 0.10999992 -0.008516201 -0.09287004 -0.24748696 0.01171997 0.4001709 -0.36036152 0.3234008 -0.09764071 -0.09946345 0.14522812 -0.30257943 -0.048106134 -0.07348163 0.21606687 0.07166101 0.019323865 0.22419159 -0.023186227 0.07810053 -0.11093369 -0.02387398 -0.08101371 -0.16626826 0.131307 -0.013468611 0.52999777 -0.17696226 0.069056585 0.029730093 -0.3570085 -0.014655918 0.084927775 0.18014407 -0.21647693 0.20768829 -0.22701095 0.39343697 -0.30776584 -0.03598656 -0.08831126 0.11953148 0.24243018 0.15272887 -0.12973125
dctR 0.15381715 0.55885506 0.22664423 0.048721932 -0.73709047 -0.19138914 0.3590221 0.015916903 -0.33583552 0.13563545 0.26944253 0.32535467 -0.15104443 -0.07450438 -0.074484125 -0.65293765 -0.117577076 0.45751452 -0.10813378 -0.011742695 -0.21283163 0.27586827 0.15650928 -0.13211253 -0.075724036 -0.3279229 0.46099094 -0.059379816 -0.6046715 0.5429923 0.5255636 -0.38563657 -0.06259461 -0.06323323 -0.3842534 0.16461326 -0.20928553 -0.059852544 -0.17311531 -0.08649248 -0.20863193 0.42598158 -0.35828802 -0.08220716 0.03367263 -0.5485017 0.038004376 0.10392229 -0.14561045 -0.172142 0.3116379 0.3590096 -0.14810872 -0.0988897 0.43914524 -0.4263464 0.12397784 0.43986365 0.17108867 -0.21013905 -0.33727458 -0.086434945 0.31937477 0.077718444 0.085384004 0.094002806 0.2077962 -0.19504184 0.12108446 0.07173814 0.050161906 0.51048934 -0.008832642 -0.14500242 -0.27158102 -0.4533155 0.0096558975 0.17600329 -0.16117427 -0.18628782 -0.12104169 -0.2515068 -0.063007906 0.13570033 -0.14668027 0.26663864 0.27974844 0.13122351 0.57392734 -0.32015496 -0.30489662 0.1767316 -0.14041466 0.2842706 -0.20496823 -0.13387814 -0.47557053 0.34772146 0.24933939 -0.44420257 0.31146002 0.14606151 0.4835488 -0.22511865 -0.051307403 -0.1461966 -0.0014457228 0.5616519 -0.14733179 0.35423556 -0.36788318 -0.036707915 -0.09825037 -0.02366748 -0.26069638 -0.026303312 0.19994377 0.0015146903 -0.096601605 -0.051876184 0.2734785 -0.2860098 0.18415557 -0.32710272 0.24109663 0.121185735 0.24966457 0.042250443
dgsA 0.33259958 0.18715754 0.23712324 -0.25700808 -0.080073886 -0.35856453 0.2477261 -0.5299209 -0.62003964 0.3326365 -0.24021374 0.040541314 0.2989376 -0.12629147 -0.13811234 -0.20619623 -0.27144036 0.12776956 -0.014284025 -0.3133687 -0.29036173 0.045750536 0.031254873 -0.013220539 0.31401366 0.14731519 0.40343386 -0.29786414 -0.20483452 0.4069791 -0.20988803 -0.032599244 -0.13307156 -0.025167221 -0.08586208 -0.027791496 0.3414033 0.36194754 -0.27795556 0.7468438 -0.3139954 0.24096566 -0.13404989 -0.2917917 -0.08070202 -0.54301167 0.09722721 -0.43724892 -0.07102772 -0.020719264 -0.13118652 -0.021140289 -0.12867856 -0.10344112 0.6195495 -0.2900017 0.5196788 0.06990861 0.12564135 -0.6665578 -0.28498986 -0.15425098 0.14350665 0.095613025 -0.28946942 -0.042785965 -0.026377242 -0.37510887 0.44115844 0.082647 -0.36610082 0.49618658 -0.20071372 0.2918033 -0.022928279 -0.46796465 -0.27259678 -0.15890269 0.34316134 0.18066996 0.16465665 -0.25312933 -0.18474534 0.14694197 -0.25893858 0.40605822 -0.28060052 0.16827698 0.74483967 -0.19711657 0.15204884 -0.08543787 -0.34293664 0.36010224 -0.05862563 -0.11533027 -0.12458904 -0.049924172 -0.26306087 -0.19186284 0.109291285 -0.01738419 0.48272264 -0.20619665 -0.14268436 -0.27880368 -0.17946285 -0.13992807 0.10394914 0.47546166 -0.13528576 0.08626796 0.10816547 -0.21495019 -0.3460502 0.21904837 -0.17038105 0.21183474 0.16271451 -0.20385729 0.43087375 -0.0034808922 0.11501926 -0.23777203 0.10986293 0.370513 0.2074158 -0.16313894
cynR 0.5234878 0.5768017 -0.06514187 -0.0034726504 -0.47871143 -0.1608106 0.41505912 0.029333927 -0.27473694 -0.20947273 -0.1031131 0.36041728 0.047924623 0.08226327 -0.086816706 -0.5912875 -0.39630347 0.3095584 0.07613189 0.13072774 -0.5927061 0.534161 -0.05773344 0.14890993 -0.070211716 -0.1388007 0.5287056 -0.25040218 -0.06814051 0.066905394 0.49426028 0.10377808 -0.47822812 0.23314354 0.0068426845 0.17031936 -0.16067533 0.022801694 -0.50624925 0.35613564 0.08873914 0.0012567656 -0.38157552 -0.28774846 0.016169462 -0.4761762 -0.035394434 -0.1436431 -0.398079 -0.4008911 0.3020374 0.2939793 -0.09162832 0.21122517 0.15626474 -0.379047 0.10955249 0.37059322 -0.076327816 -0.35485414 0.027398763 0.08007234 -0.037177693 0.016729437 -0.32474256 -0.012893134 0.1914293 -0.38588935 -0.26989594 0.2222007 0.1613703 0.6074206 -0.102334805 -0.14020832 -0.2972027 -0.062726334 0.07618799 0.6356036 -0.052185323 -0.29824537 -0.16424629 0.067317925 -0.18627512 -0.024719456 -0.3619286 0.5909903 0.10117521 0.11472892 0.16859606 -0.0035829602 0.09118038 -0.32590482 -0.2524119 0.37178263 0.0887268 0.057610672 -0.42902634 0.24833204 -0.104331225 -0.20598625 0.15407404 0.23440126 0.13239177 -0.2579178 -0.058230836 -0.021361195 0.23591167 0.5167078 -0.33786875 0.05122471 -0.4695753 -0.19818453 0.23813444 0.14828485 -0.09562551 -0.057130877 0.27122322 0.20485309 0.18506017 0.08938388 0.3301165 -0.26862416 -0.22298129 0.035735812 0.20895547 0.49344337 0.63469887 -0.2218808
crp -0.31310144 0.20429114 0.048889697 0.039658897 -0.510273 -0.79731923 0.1323798 -0.19708501 0.25623137 -0.19849883 -0.17585154 -0.36189392 -0.055439033 0.5809013 0.0728922 -0.07949122 0.16199164 0.6477768 -0.56453145 -0.10827977 -0.5909136 0.6398563 -0.20818523 0.30948207 0.46740806 0.13541634 0.3284077 -0.41637993 -0.4394516 0.5531317 -0.36709532 -0.7471804 -0.50215226 0.004031694 0.19839911 0.360453 -0.21927032 0.026199287 -0.13649663 -0.1336972 -0.5838067 -0.0966626 0.2817534 -0.54495156 -0.47942367 -0.33224764 -0.074298896 -0.7660089 -0.68253213 0.33329955 -0.10470477 0.26328853 0.027474975 -0.068927355 -0.01259383 -0.3860186 0.59692186 0.43760237 0.08957646 -0.49210307 -0.1458239 0.24537231 -0.7082563 0.43851674 0.1471945 -0.10418853 -0.29783723 0.023342827 -0.3742059 -0.022820178 0.2705398 0.52798027 0.36614987 -0.12713131 -0.45900354 0.21827671 -0.2760251 -0.22285196 0.009088092 0.64104545 0.51768893 0.25632626 -0.21137981 -0.53263426 0.37259376 0.40633124 -0.26253092 -0.06275577 0.44219792 0.03912011 0.10028709 0.14867228 0.5541933 -0.20394169 0.12174719 -0.11120186 -0.34448576 0.31626067 -0.124038495 -0.055431906 0.73231834 -0.078496784 0.02156 0.06950594 0.10108537 -0.24162793 -0.004801403 0.3255266 0.48614007 0.0056739817 -0.9365261 -0.45700413 0.28084862 0.25007936 -0.19926505 0.09847989 0.21541929 0.32490534 -0.3862937 -0.03903187 0.26448983 0.32192457 -0.026489515 0.5229929 -0.31605792 -0.2464028 -0.5481777 0.112011984
deoR 0.22982734 0.25818732 -0.33357468 -0.15017141 -0.4406637 0.07637401 0.23664948 -0.6318862 -0.12286628 -0.66159844 -0.32768565 -0.3509935 0.28523353 0.0068404903 0.419474 0.29998797 -0.3427175 0.627209 -0.5844969 0.0056577553 -0.31134343 -0.032851227 -0.0924279 -0.18628255 0.11828893 0.3894258 0.07911311 -0.1845436 0.3169794 -0.10443724 0.12695691 -0.09365057 -0.2768086 0.15391622 -0.19634308 0.46463424 -0.072111495 0.062168296 0.21868706 0.24521588 0.04296622 0.13996764 -0.21322267 0.039407004 -0.45730487 -0.69707304 0.28545225 -0.57927734 -0.34726715 0.20062955 0.1099242 -0.04739353 0.124340944 0.29537645 0.09167037 -0.4385845 0.4262303 -0.036994122 0.22901687 -0.14459105 0.013793403 0.24189644 0.027317934 -0.112950586 -0.09387901 -0.05528219 -0.027094401 -0.2508325 0.11236651 0.041989394 0.16944355 0.5571395 -0.0061967503 -0.3476398 -0.29484698 -0.4220207 -0.2188245 -0.0022350708 -0.14271569 0.76036364 0.1083884 -0.18338272 -0.5305047 -0.30167428 0.108097374 0.6022315 -0.5551599 0.25241464 0.5630265 0.27179104 0.3663417 0.38783807 -0.10158233 -0.24584761 0.70405066 -0.038372654 -0.42750102 0.030963827 -0.29490572 0.5742894 0.07889715 0.02166134 0.3559732 -0.46595737 -0.033737067 -0.73939806 -0.35997263 0.023504782 -0.21495675 0.7260954 -0.31284595 0.09462768 0.27281943 0.61526597 0.23304479 0.18259792 -0.2440301 0.12757048 0.29469004 0.118416645 -0.17431156 -0.11182 0.27092034 -0.2284212 -0.35175386 0.018482385 0.018240446 -0.3862404
ycaN -0.017980728 -0.36039993 -0.15537308 -0.12721372 -0.48047876 0.23627616 0.3023468 -0.04921589 -0.49882928 -0.7597574 -0.49636373 0.021320311 -0.3352244 0.39380884 -0.0639148 0.22010683 -0.5293375 0.5986308 -0.26544666 0.14454725 -0.0076151504 -0.2197654 0.6972764 -0.18761706 0.6150028 0.51333475 0.764516 -0.061964378 -0.10400305 0.19875279 0.029887162 -0.43856853 0.45951527 0.44750655 0.5430804 0.5775024 -0.0016900144 -0.20924555 -0.17829227 0.06283528 -0.48832184 0.17757393 0.570142 -0.385307 -0.27779007 -0.5231378 0.2712913 -0.5218773 -0.42170203 -0.31570512 -0.20586307 -0.19065227 0.31621623 0.29172906 -0.2054221 -0.21185316 -0.38512462 0.038733754 0.22820672 -0.3933905 0.057681065 0.25199562 -0.0048541613 0.024482382 -0.2493931 -0.592875 -0.29963014 -0.2364828 0.019765656 0.09612633 0.31641835 0.45406902 0.24762101 0.25266722 -0.54062974 -0.105134815 -0.284818 -0.23148681 0.1970638 0.49026856 0.51875055 -0.26556265 -0.5244309 -0.12375806 -0.924522 0.45866096 0.13231727 -0.36146358 0.38250887 -0.10193224 0.27016774 0.38635436 -0.0044856737 0.46600854 0.1703706 -0.33480668 -0.7646126 -0.050581124 -0.21379288 -0.21581864 0.7373751 0.08029153 -0.17664011 -0.4584605 -0.72900194 -0.62229776 0.02808 0.5768254 0.04126413 0.006633169 -0.026831841 -0.17465644 0.2880032 0.074286185 -0.026216721 0.904063 0.043584052 0.14004059 -0.13928968 0.11385006 0.32777873 0.5970628 0.0341816 0.10340031 -0.11774212 0.099027485 0.012520902 0.32810706
ykgD 0.5777963 -0.52084696 -0.3477732 -0.31139505 -0.12567273 -0.54782575 0.28978384 0.2545598 0.3087934 -0.26387846 0.096176036 -0.2886635 0.04369225 0.29988346 -0.14413497 -0.102644525 -0.42885232 0.008207193 -0.049511988 -0.029202053 0.2581643 -0.53203857 0.32570323 0.20746651 0.19122835 0.25504643 0.08693424 -0.1850247 -0.30661765 0.55111974 -0.067981236 -0.8724686 -0.07292067 -0.10206809 -0.34732193 0.14600198 0.2799476 0.63002807 -0.67910576 -0.10672748 0.069459304 0.79714465 -0.12806778 -0.40214732 -0.17487524 -0.7051279 0.003275909 -0.27851534 0.089859836 -0.31128648 0.38719013 -0.46784368 0.37426373 0.18507017 -0.0060301777 -0.26405764 0.16191378 0.23232463 0.3112592 -0.38544503 0.18334219 -0.016957272 0.16036269 -0.1426611 0.29991984 0.5214132 -0.31932795 -0.527403 0.2813814 0.444878 0.68338996 0.47758028 0.084045194 -0.090424955 0.09863448 -0.08142068 -0.024891106 -0.18529777 0.2968217 0.35315552 0.44233242 -0.19906032 -0.13955793 0.2270541 -0.5715028 0.68336064 -0.23459907 -0.3674786 0.42186734 0.13993616 0.596331 -0.052463494 0.40503782 0.35723943 0.0915336 -0.15361127 0.03195357 0.069547884 -0.16373965 -0.10260266 0.3125926 0.31639996 0.102901384 -0.51593566 -0.35386413 -0.5620475 -0.05694748 0.4337685 -0.5931769 0.21208856 -0.28546506 -0.16049021 0.4524737 0.4906755 0.38604483 0.40499356 0.0016755302 0.15947446 0.38717616 -0.19960609 0.073814765 0.66355646 -0.54431444 0.10151668 -0.68568754 0.0752329 0.0111932475 -0.201032
ihfA 0.11978855 -0.16897425 -0.5307388 -0.10238858 -0.37930897 0.023105875 0.25294676 0.053330787 -0.2515523 -0.5397065 -0.32558227 -0.20987262 0.044498965 0.11775783 0.13312201 0.36737818 -0.042817682 0.4050681 -0.46976894 0.21790811 -0.020874714 0.060752098 0.540701 -0.17315522 0.2859745 0.51111823 0.3460842 0.11557742 -0.1536781 0.5111046 0.09445765 -0.20605779 0.18422636 0.55334616 0.44735873 0.5717836 -0.22599559 0.16258304 -0.5962544 -0.029261762 -0.25433445 0.027011765 0.16460711 -0.3584119 -0.33974543 -0.42504898 0.2718483 -0.09412574 0.12525648 -0.28039572 -0.42528698 -0.37702248 0.3510274 0.35625964 -0.073828146 0.034041937 -0.063080385 0.15050548 -0.026891038 -0.15023836 -0.1090308 -0.17597811 0.17322442 0.22111778 -0.3378128 -0.16365305 -0.26430687 -0.17755139 -0.15506825 0.04100667 0.20370059 0.17462072 0.31159982 0.16001925 -0.33934584 0.116610676 -0.18631959 -0.4522678 -0.20138812 0.3912634 0.21726462 -0.0850936 -0.604499 0.1900627 -0.44389734 0.070993215 -0.14911649 0.0029767258 0.48454452 0.10012538 0.33235887 0.21134157 0.1909424 0.06550789 -0.08504708 -0.19176048 -0.30975702 -0.39266366 -0.4594292 0.27619657 0.5561356 0.5096685 -0.0027139399 -0.40397158 -0.5544556 -0.6750469 -0.000273431 0.44252306 -0.3947371 0.08410462 0.108039185 -0.3892161 0.1267009 0.11020508 0.061212365 0.6230467 0.22959061 -0.312464 -0.2243846 0.58823276 0.13807267 0.33357072 0.24487309 -0.09516809 -0.32047006 0.077199124 0.091236666 0.36812314
hipA 0.2722889 0.17631751 -0.28584385 0.054183766 -0.35812092 -0.18635814 0.24359784 -0.4613509 -0.6386666 -0.23987512 -0.2372077 -0.63884586 0.63326216 -0.1543894 0.069920376 0.1807977 -0.26407623 0.48203218 -0.48595655 -0.18161727 -0.14455368 0.18926482 0.32355952 -0.20954965 -0.004983482 0.29399416 0.086600624 0.05018474 -0.13817969 0.08512919 0.24904431 -0.096181944 -0.14859886 0.17184807 -0.032162115 0.3049418 0.112567835 0.28726494 -0.15843654 0.24192688 -0.33696628 -0.045700073 -0.061627932 -0.009298745 -0.3574006 -0.33738917 0.30837026 -0.73324037 0.22000551 0.23572952 -0.3006404 -0.00695119 0.1503354 0.21887854 -0.06551882 -0.04294913 0.5325071 -0.13112333 0.17012686 -0.46321017 -0.20865911 -0.1742952 0.12981527 -0.03380433 -0.32105872 0.033334218 -0.21763961 -0.28264114 0.11054775 0.055864766 -0.14833131 0.430572 -0.16274951 -0.46479365 -0.37744516 -0.31190526 -0.28053382 -0.20760906 -0.11414943 0.5076383 0.038116094 -0.14487542 -0.68260896 0.09743677 0.007347815 0.49317077 -0.23902212 0.18070658 0.6054716 0.081363805 0.40012842 0.35777637 0.40210888 -0.18770447 0.34108442 0.33638915 -0.44463035 0.09025947 -0.22410402 0.33499706 0.110518575 -0.027478293 0.36560726 -0.3009571 0.22683488 -0.41372877 0.025062203 -0.027635748 -0.08787691 0.625697 -0.09587571 -0.12649885 0.19012433 0.14603777 -0.109253235 0.18237905 -0.55228555 -0.18122934 0.22688338 0.48663545 -0.18868245 0.14805798 0.4234871 -0.2410389 -0.11003787 0.22735073 0.10634318 -0.010334184
glnG 0.2703549 0.44595408 0.051063728 -0.05407847 -0.4848173 -0.19949396 0.25607365 -0.21845803 -0.31203386 -0.014197763 0.37246594 0.32037312 -0.5156954 -0.16497782 -0.05217173 -0.51399505 -0.39452136 0.35695872 0.06021833 0.1836401 -0.61252534 0.2435122 -0.26279065 0.23955579 -0.025815776 0.026343672 0.3221421 -0.14286233 -0.19579701 0.4761375 -0.1531151 -0.20218441 0.11419255 0.6189872 -0.22171539 0.19365244 -0.42616197 0.0896641 -0.2836975 0.16809069 -0.20189984 0.28833508 -0.45904726 -0.2885616 0.2537515 -0.21810864 -0.1768999 -0.17786951 -0.6541521 -0.059466634 0.04873363 0.09582006 0.106993414 -0.19762193 0.041375443 -0.4264571 -0.104064114 0.39966118 0.022979131 -0.52617437 0.00092955603 0.0006452914 -0.06975694 0.21495177 0.12566414 0.15492791 0.026784876 -0.30912 0.07751416 0.06843983 0.3534453 0.6047586 -0.16986388 0.03858381 -0.49969295 -0.31060147 0.09601822 0.37158492 0.36501068 -0.5872913 -0.19759633 0.26297656 -0.071685985 -0.39610922 -0.23619416 0.085104726 0.19866948 0.3687828 0.2568666 -0.12058004 -0.040409718 0.27577645 -0.12977585 -0.03416301 -0.0766535 0.24973916 -0.5490353 0.14796734 0.12951356 -0.0696847 0.035698876 -0.10046797 0.36180097 -0.058876887 -0.36794847 -0.35162613 0.06655056 0.43995926 -0.45881006 0.2955659 -0.6086095 -0.074489 0.24251157 0.16518807 0.06557517 -0.30695245 0.35812682 -0.035430204 0.026174946 0.014498423 -0.019879023 0.098039754 -0.056270733 -0.15033543 -0.059851717 0.39340863 0.22291003 -0.029530821
perR 0.5900242 0.38841313 0.21790312 -0.18814577 -0.043584812 -0.18306653 0.14123408 -0.43469587 -0.5589804 0.22338307 -0.2628166 0.018124117 0.27300885 -0.24888688 -0.21431528 -0.38206095 -0.104841925 0.43829536 -0.436527 -0.28179708 -0.50920254 0.009856708 0.2857833 0.100488275 0.23809932 -0.2353582 0.4540798 -0.19670229 0.1384868 0.35306698 -0.080909066 -0.19792758 0.019062823 -0.013378509 -0.014272518 -0.020375691 0.035720646 0.04333452 -0.36896715 0.36701784 -0.38728213 0.05579168 -0.0045769275 -0.16606793 -0.102257386 -0.37207282 0.2103456 -0.38048276 -0.003529497 0.14112312 -0.005924695 -0.022995217 0.06557306 -0.13425574 0.27840304 -0.34474295 0.47645327 0.17659943 0.1642546 -0.5705516 -0.27121887 -0.21422258 0.15928195 0.115674384 -0.05404939 0.13555199 -0.36064395 -0.045210723 0.5343099 -0.3600029 -0.38976288 0.39002404 -0.27519146 0.046881396 -0.07280981 -0.47147042 -0.13253023 -0.09240747 -0.018099444 0.29706287 0.2668709 -0.21259423 -0.30868578 0.11402898 -0.39255187 0.32301226 -0.09194325 0.2447563 0.86710924 -0.09911949 0.32173884 -0.00333372 -0.101989135 0.28086898 0.03904037 0.036212012 0.006288053 -0.06354744 -0.31455794 0.05096999 0.28252384 -0.3260504 0.2748247 -0.1383533 -0.15802757 -0.23371954 0.108122215 -0.10475598 0.26407602 0.53846556 -0.10101888 -0.10830659 -0.053138644 -0.3041884 -0.3524236 0.13537349 0.043942343 0.0123087345 0.27694824 -0.061604228 0.5592883 -0.07272225 0.14474581 -0.4024189 0.15852644 0.32694688 0.21356106 -0.20931774
yiaG -0.16434748 0.39708328 0.1090911 0.0047662645 -0.41214067 -0.56631166 -0.20788005 -0.20580958 0.3209934 -0.7437801 -0.49469954 -0.12646061 -0.15600494 0.7110078 -0.014761114 -0.2729295 0.3845742 0.7744214 -0.5896369 -0.1408881 -0.5727616 0.36657044 -0.17886545 0.35847056 0.625065 -0.13483782 0.2806214 -0.31667414 -0.40611756 0.6781538 -0.32854635 -0.7005749 -0.6620638 0.21300769 0.19813983 -0.2055415 -0.2697084 0.03908548 0.4255447 0.31094727 -0.68213624 0.14675042 0.19131072 -0.58119804 -0.77225643 -0.3177443 -0.039414726 -0.9191759 -0.2116096 0.07608203 0.16588214 0.34105211 0.030483307 -0.12585665 -0.030043742 -0.5596524 0.66582304 0.48107412 0.3066796 -0.35412207 -0.13696986 0.13200155 -0.3629199 0.22841676 0.0021815484 0.182708 0.22029997 0.53483 -0.1678303 -0.01032841 0.42223594 0.56016177 0.26571947 -0.05017609 -0.86423707 0.13789643 -0.12552793 0.08276636 0.013470384 0.9637761 -0.03403144 0.1622854 0.20832314 -0.27606794 0.3106693 0.6131567 -0.3514951 -0.026593054 0.48112297 0.047255386 0.112589404 0.08386207 0.46006596 -0.47157246 -0.3877495 0.048319068 -0.53029263 0.338775 -0.10974285 0.0303686 0.52665186 0.1393439 -0.11137932 -0.05423617 -0.52656746 -0.3008525 -0.21614385 0.4659014 0.45089096 0.31081143 -0.70153874 -0.19744791 0.12924153 0.3041204 -0.12545839 0.23546442 0.2883168 0.5017094 -0.018743634 -0.16715145 0.39630097 0.29162523 -0.3212124 0.24418013 -0.23477678 -0.1767431 -0.51360816 -0.0030924184
arsR 0.1054135 0.52097917 0.10485498 -0.027183468 -0.72961867 -0.095051214 0.19453932 -0.12930503 -0.42766437 0.010705442 0.36867335 0.26099524 -0.33933184 0.07013988 0.14330482 -0.591706 0.10166339 0.20686755 -0.3713253 0.10741966 -0.05203925 -0.013727152 0.18825367 -0.2753255 -0.08777648 -0.21992925 0.52492577 -0.04687538 -0.62995464 0.42523167 0.2432744 -0.08989755 0.116614506 0.03675609 -0.4234306 0.23442602 -0.415658 -0.0694211 -0.2948981 -0.027030678 -0.2998314 0.19621734 -0.21092378 -0.28406227 -0.0016132168 -0.7040675 0.03292446 0.03415556 -0.2792289 -0.24912469 0.32283205 0.219888 -0.2360588 -0.16159289 -0.027751714 -0.44330654 0.42729425 0.3500812 0.023727238 -0.36674306 -0.16299926 0.12597825 0.12982592 0.20892103 -0.008036117 0.11952098 -0.12414365 -0.41762078 0.28123036 -0.09076929 -0.10022764 0.5722824 0.16365717 -0.06414406 -0.4387225 -0.270026 0.04362596 0.32145077 0.10334161 -0.30805126 -0.05316818 -0.27312532 -0.18066892 0.26604968 -0.18590486 0.31925446 0.0040993565 0.004123667 0.47028595 -0.37103236 -0.372784 -0.00028244432 -0.117482126 0.34462902 -0.27720773 0.03360708 -0.3565971 0.2638611 0.38848546 -0.43167576 0.1479694 0.22143005 0.4932883 -0.14288193 -0.18143395 -0.13219894 -0.11211256 0.72247636 0.032036234 0.26702967 -0.5330427 -0.06702215 0.07853675 -0.13417868 -0.32236293 -0.14121084 0.17835635 0.11773217 0.019181138 -0.056255672 0.3046871 -0.18594834 -0.031116582 -0.11386656 -0.018182809 0.06625844 0.28352302 0.043546416
ydcN 0.14448877 0.23713648 0.02532101 -0.17271003 -0.28465408 -0.06936025 0.4286566 -0.095572814 -0.7920878 -0.27429265 -0.06752527 -0.088024534 0.38369095 -0.08716304 -0.17243023 0.004703905 0.053238634 0.674548 -0.4772202 -0.08715713 -0.19217022 0.3167086 0.086834416 -0.19350463 0.096047275 0.114221305 0.46446404 -0.2949541 -0.18939213 0.17005672 0.12026205 -0.019492084 -0.03658215 0.029744348 0.05959159 0.0059149377 0.19875884 0.31163675 -0.037121046 0.8237822 -0.30530557 -0.16191828 -0.062555544 0.025658425 -0.34025082 -0.13858646 0.3814165 -0.57760525 0.0888318 0.16741471 0.10034358 0.031149777 -0.056273922 0.13387302 -0.004173167 -0.36488453 0.63317424 -0.061716292 0.18847509 -0.7694249 -0.33570963 -0.21696804 0.09253815 -0.14217061 -0.07411641 0.15558518 0.25685647 -0.21463282 0.42811602 0.018692933 -0.368554 0.6944713 -0.04238555 -0.087145716 -0.16398269 -0.7877504 -0.08809506 -0.14775324 0.22045343 0.20366365 -0.013218778 -0.24570581 -0.63272065 -0.002756233 0.18491504 0.42737037 -0.20466055 0.18647535 0.76991665 -0.3497458 0.0055543445 -0.21945156 0.3473126 -0.061906125 -0.12576346 0.04726941 -0.032087702 0.03448603 -0.261236 0.36969128 -0.1248887 0.013279865 0.5025404 -0.123820074 0.10395979 -0.06021206 -0.066155724 -0.05774796 0.13315216 0.487627 0.07087115 -0.06749746 0.29842225 0.023213504 -0.19052324 0.08012959 0.10465217 -0.22111997 0.22458145 0.01440851 0.17920285 -0.13928825 0.27571598 -0.2320666 0.032426827 0.4673795 0.28906196 -0.013545816
yjhU 0.11787801 0.4776634 0.077376954 0.11318546 -0.55416214 0.17424096 0.23223297 -0.055890772 -0.57147384 0.107380174 0.04074879 0.2099833 -0.1017881 0.34481248 -0.17790666 -0.7555252 -0.45827678 0.27221653 -0.018648027 0.060285714 -0.03766809 0.4561341 -0.04493354 0.059078947 -0.09365361 -0.36670697 0.45806745 -0.42887536 -0.3133695 0.7958932 0.088769816 -0.516623 -0.044711675 0.40564612 -0.11789823 -0.197005 -0.19652551 0.24343412 -0.31155768 0.22274537 0.1640695 0.5380251 -0.2536521 -0.054372706 0.16104318 -0.19017586 0.1200013 -0.2809999 -0.3274783 -0.007259287 0.070740126 0.139898 0.34326628 0.365239 0.015092418 -0.24302354 0.15580179 0.3063935 0.5677142 -0.33731893 -0.1124286 0.021432718 0.3191548 0.5887132 -0.061518535 0.10271479 0.3856012 -0.379361 0.3487355 -0.24557908 0.027681421 0.47260663 0.20032428 0.2187561 -0.13537428 -0.22895798 -0.30442262 0.68210626 0.2872505 -0.047462385 -0.073446356 -0.24329041 0.0588019 -0.12513609 -0.24182479 -0.1984803 -0.36087048 0.2038407 0.20423988 -0.36314273 0.0018740741 -0.068836525 0.057241507 0.13739868 -0.21177177 0.38341662 -0.43256593 0.15103495 -0.15525803 0.14082244 0.008628337 -0.009764565 0.12953866 -0.19996126 -0.032361757 -0.45885473 -0.08035351 0.29917014 -0.13998888 0.23301229 -0.4797215 -0.052263517 0.4925683 -0.1856268 -0.3169165 -0.16122779 0.2581105 0.01220612 0.05034954 -0.31700337 0.382371 -0.1906042 -0.02262318 0.036445815 0.10123 0.2752487 0.29943007 0.061476555
nanR -0.28723812 0.2897771 0.07336723 0.15431246 -0.061020512 -0.7030013 -0.11014174 -0.13303576 0.31909826 -0.34504664 -0.41456363 0.09237543 -0.021534469 0.40494555 0.14532116 -0.2435322 0.21284187 0.81313133 -0.5722466 -0.38960585 -0.7510461 0.34464833 -0.59382296 0.42513534 0.46709606 -0.18056762 0.38732257 0.13258205 -0.35349151 0.5548412 -0.36918518 -0.84381384 -0.27482647 -0.043037277 -0.073054776 0.033879966 -0.10542322 0.03205281 -0.09300376 -0.08317629 -0.5199278 0.24812551 -0.009452954 -0.5852425 -0.60834515 -0.50519806 0.062741406 -0.9711264 -0.6231485 0.04124913 -0.04461856 0.28165352 -0.03701217 -0.213943 0.06764953 -0.7838273 0.6892422 0.15809421 -0.09399294 -0.47045314 -0.11800156 0.0056380634 -0.4828257 0.2538104 0.25008777 -0.35678944 0.23524894 -0.04627405 -0.25149006 0.035846382 0.49136513 0.37986228 0.34176284 -0.28899014 -0.6656352 -0.30722702 -0.054055 -0.3438054 0.10579047 0.619655 0.27839434 -0.0074307187 0.327844 -0.15539704 0.34784013 0.84582627 0.1419703 0.05839567 0.59102225 0.1235549 0.104400724 0.17692843 0.4598524 -0.43812063 0.24560742 -0.18245839 -0.35265437 0.46408343 -0.13314064 0.17680506 0.8751571 -0.0880643 0.15324944 0.013866489 -0.60318166 -0.5121822 0.10462467 0.50356483 0.38497245 0.17341034 -0.6063582 -0.46204463 0.0032836215 0.37305248 -0.37311867 0.2957085 0.13371564 0.5393016 -0.28183472 -0.170823 -0.013935544 0.35934117 0.16972919 0.3484808 -0.28121045 -0.14512743 -0.66465575 -0.037290785
yjjJ 0.47161838 0.08630539 -0.86278385 -0.4406925 -0.4371918 -0.36711735 0.65673804 -0.47866347 0.011504831 -0.24679598 0.06601367 0.19285113 -0.29337606 0.35347107 -0.26725203 0.37372595 -0.29884744 0.76601976 -0.13872458 0.04942258 -0.36480525 0.07727201 0.20241842 0.15553819 -0.50428265 -0.034135606 0.050425112 -0.3460147 -0.3550734 0.22581057 0.1628431 -0.5084891 0.058217168 -0.12446054 0.22556414 0.7346342 -0.05249632 0.41799507 -0.35332814 0.06943601 -0.80007404 0.5272774 0.5599965 0.44239566 -0.030732427 -0.54278636 0.33540943 -0.42273903 -0.3240838 -0.14369078 0.040374894 -0.0269696 -0.046895947 0.04396573 0.09741949 -0.49068996 0.19483326 0.23652844 0.041293483 -0.14028239 0.12273572 0.009792026 -0.090113185 0.1435303 -0.2914426 -0.33968833 -0.22306754 0.27305233 0.02951738 0.03288055 -0.06110917 0.36044347 -0.108323015 -0.30061963 -0.4185151 -0.59421855 -0.09720125 -0.2777235 0.010809893 0.49181038 0.48907283 -0.30592316 -0.6525234 -0.0738433 0.16958754 0.31753546 0.03844183 0.7338993 0.40269724 -0.52937347 0.26631522 -0.64848876 0.17241102 -0.19919299 0.5160724 -0.08279455 -0.52810365 -0.045287706 -0.39479706 0.2781572 0.53674006 -0.18493816 0.27284598 -0.24659805 -0.3616754 -0.4986339 -0.08205933 0.32036167 0.2578643 0.2717178 -0.14836621 -0.20365538 0.17983314 0.055064667 0.21792628 0.47361338 0.6094005 -0.115822375 -0.18632683 -0.09459146 0.4220002 0.5180104 0.41799995 0.18823808 -0.116266124 -0.40844703 -0.19226223 0.0834898
nhaR 0.020990647 -0.5025823 0.02943281 -0.12794764 -0.46449518 0.18229567 0.47902575 -0.15318461 -0.6081715 -0.6497329 -0.48864812 0.18779218 -0.32641467 0.26956338 -0.1977824 0.25244853 -0.40784863 0.51816386 -0.3049156 0.29193008 -0.15893087 -0.14405277 0.66688854 -0.24713196 0.48916307 0.59213984 0.77656406 -0.120716974 -0.16890611 0.3260428 0.12841512 -0.5518174 0.5234436 0.12978524 0.47196957 0.5871201 0.047954347 -0.33856997 -0.12624153 -0.095942825 -0.71012175 0.119345 0.5498757 -0.5010836 -0.25194886 -0.5758012 0.2592496 -0.39686576 -0.42378622 -0.21807519 -0.10158139 -0.15489027 0.3692547 0.21262927 -0.26677525 -0.2522768 -0.32235897 -0.0015361184 0.046311483 -0.35952362 0.18532872 0.31216213 -0.04572035 -0.11947079 -0.26103377 -0.64704853 -0.42074445 -0.32431418 0.042648308 0.028635906 0.27122977 0.6145304 0.24805509 0.35440907 -0.56431973 -0.015365311 -0.24327946 -0.14906839 0.27292556 0.44050542 0.48914278 -0.29717925 -0.52225894 -0.36653566 -0.89160895 0.51675195 -0.034834713 -0.43305454 0.26454973 -0.16839868 0.15987612 0.5000332 -0.04670111 0.54928774 0.18762429 -0.20888391 -0.77161354 -0.078419186 0.019408012 -0.18086825 0.65756476 0.10457724 -0.10418822 -0.4407542 -0.76577806 -0.6334774 -0.12580891 0.6181831 0.1480011 -0.023453485 -0.20869541 -0.13294324 0.25342506 0.02651397 0.26023304 0.8070731 -0.049709376 0.24912183 -0.10643092 0.020204818 0.41504583 0.56691897 -0.0057719783 -0.017590988 -0.14010082 -0.0077051288 0.17884713 0.25042096
sokB 0.0057285465 0.1706234 0.08633892 -0.014849237 -0.20274451 -0.018601596 -0.28682983 -0.34491324 -0.5195993 0.06954745 -0.16295429 -0.2465306 0.5164466 0.081807636 -0.010042549 0.11975598 -0.3650292 0.51515555 -0.031904247 -0.5952745 -0.20565847 0.27783668 0.54407483 -0.1615258 0.17952912 0.3136054 0.2708868 -0.3913139 0.06815326 0.2807362 -0.009367157 -0.23360597 -0.1480714 -0.018526398 -0.22264305 0.14260374 0.16196784 -0.013558518 -0.20300107 0.18704464 -0.42895478 0.09853189 -0.27105543 -0.2274602 0.11544644 -0.14147772 0.28484765 -0.58104247 -0.10016943 -0.005581374 0.10440573 0.17132835 0.15540802 -0.27430663 0.39168993 -0.11980126 0.5120842 0.2797222 0.3202425 -0.63501984 -0.16746956 -0.29694647 0.46777937 0.090650514 -0.30257517 0.11885743 -0.025720937 -0.07414359 0.5400303 0.21731026 -0.103576556 0.57519746 -0.31595266 -0.21864493 -0.15522511 -0.19380467 -0.45070148 -0.0056446674 0.14353558 0.31438553 -0.23440376 -0.41422957 -0.4947194 0.27393168 -0.2460803 0.49531156 -0.25347444 -0.059543014 0.48727787 -0.053318966 0.16530937 0.26834926 -0.21250296 0.20414288 0.0060072234 0.110018335 -0.28013712 -0.11770725 -0.3754649 0.08795267 -0.28212115 -0.22897594 0.45661178 0.07894213 -0.38520637 -0.33613878 0.073552966 0.01951202 0.06453188 0.740708 -0.40409437 -0.03960664 0.17779267 -0.0942009 -0.16046116 -0.013464968 -0.41969007 0.28658614 0.30188286 -0.103619784 -0.19053677 0.09346041 0.3097117 -0.041100517 0.18027705 0.56612766 0.2870796 0.03758361
purR 0.14349046 0.028762663 -0.50102293 -0.1641995 -0.23157227 0.07743473 0.3642121 -0.26271242 -0.2139159 -0.26502717 -0.11468949 -0.5402125 0.65730554 0.2026445 0.106400125 0.2668584 -0.2594561 0.23137413 -0.38018557 -0.21194455 0.10812028 0.17046592 0.520701 -0.36193305 0.014314081 0.23761691 0.028779455 0.07827135 0.06797294 -0.09383363 0.24142025 -0.19412838 -0.28860176 0.42734745 -0.11318985 0.3051904 -0.16111535 0.3015615 0.07975684 0.3516106 -0.010860328 0.0042520333 -0.15618657 -0.21454416 -0.48954847 -0.5144885 -0.09200429 -0.4311735 0.053083528 0.035327446 -0.10419049 -0.05097544 0.2650379 0.49162617 -0.027712297 -0.28885671 0.7273825 -0.07299967 0.28966728 -0.14402577 -0.2030367 -0.11087857 0.074835375 0.012700306 -0.10446891 0.074100725 -0.04104866 -0.22406936 0.1865919 0.36510593 -0.0130164735 0.5476179 -0.17673108 -0.49870366 -0.34717906 -0.18407607 -0.12273661 -0.21004279 -0.056541298 0.58703107 -0.09011744 -0.24099053 -0.50870395 0.010368444 0.0915234 0.5014572 -0.38036755 0.24730137 0.5128194 0.013324825 0.48915565 0.35590622 0.29424274 -0.20494367 0.3612618 0.17627028 -0.26410982 -0.15289204 -0.55758566 0.42758536 0.30340642 0.08096812 0.50524056 -0.34765294 -0.060248528 -0.6254539 -0.10826268 0.15708949 -0.33289832 0.7263872 -0.15078573 0.01355104 0.38538185 0.5405916 0.30809876 0.04981697 -0.35738313 0.029043678 0.24592762 0.3001738 -0.19503438 -0.29057613 0.38704544 -0.0137936985 -0.38998547 0.20082189 0.046371337 -0.07702177
envY 0.26572445 -0.21150559 -0.9477971 -0.7407753 -0.08675533 -0.17200291 0.84474784 -0.46876746 0.040399816 -0.40975064 -0.02143893 0.2803486 -0.13761438 0.18760034 -0.43154564 -0.20170984 -0.58099693 0.6944706 -0.16420117 0.10569212 -0.4259117 0.1966115 0.24247898 0.33380193 -0.18598951 -0.31780592 0.18739226 -0.53574175 -0.12194668 0.28922713 -0.21101274 -0.304379 -0.061768867 0.13565312 0.2731294 0.96445435 0.16295353 0.5268762 -0.22355731 0.6811999 -0.56345624 0.30248913 0.4538045 0.4425337 -0.2131978 -0.64918613 0.16041426 -0.59796023 -0.3076853 -0.34310213 0.23392315 -0.17773566 -0.029021507 0.039059483 0.46161208 -0.48137394 0.3052254 0.19675465 -0.043309398 -0.24712119 -0.16867593 -0.0017547626 -0.1490064 0.26203847 0.16484359 -0.009757111 0.09083495 0.2294045 0.12705676 0.39879483 0.21527934 0.11151283 -0.103569455 0.01018955 -0.1717655 -0.4266748 -0.20283087 -0.18556432 -0.016637372 0.22612868 0.252663 -0.3639343 -0.6655157 0.16285762 0.26925468 0.6302022 -0.29211715 0.6464016 0.72046995 -0.6332766 0.12930796 -0.50756204 0.11449782 -0.19560245 0.09600882 0.15793929 0.00047611352 0.10370693 -0.62537926 0.17747283 0.19929081 0.27825823 0.048467662 -0.35005668 -0.34032115 0.1557964 -0.48824894 0.092718855 -0.2100563 0.038408507 -0.016732806 -0.096310355 0.05605954 -0.16994081 -0.033880595 0.5415724 0.29568663 0.012493941 0.06682258 -0.18427838 0.08377673 0.37960047 0.15937065 0.0965336 -0.4801043 -0.1525331 0.09812294 -0.00054628315
oxyR 0.20542066 0.80675 0.03328682 0.052192084 -0.39101288 -0.259142 0.18085264 0.061060555 -0.18638223 -0.1697587 0.25594017 0.56255484 -0.28312644 -0.04997401 0.02920769 -0.6590255 -0.28275865 0.42145815 -0.023353646 0.0015077371 -0.41607574 0.46296564 0.032182448 0.14547132 -0.019502353 0.010931073 0.3388663 -0.087229386 -0.1264317 0.15132514 0.08820649 0.15913148 -0.13425724 0.2272932 0.20741968 0.19554184 0.027216827 0.16364029 -0.28930888 0.16691396 -0.0887249 0.36476278 -0.4831538 -0.4811805 0.0995717 -0.7197638 -0.1606077 -0.22360957 -0.255543 -0.047180407 0.23798221 0.10744673 -0.277817 0.12228638 -0.14421661 -0.24322696 0.057047848 0.6069324 -0.2477774 -0.66388565 -0.17838629 -3.9156257e-06 0.06879994 0.38582578 -0.014354972 0.15854909 0.19380048 -0.24104725 -0.05619803 -0.12062027 0.19665523 0.4123196 -0.23735872 -0.23035689 -0.32409647 -0.1174748 -0.27112597 0.58051157 0.2111144 -0.377452 -0.112671986 0.2524753 0.017245509 -0.17074166 -0.24279691 0.22643815 0.11514314 0.39967605 0.41557035 -0.17235127 0.2095102 -0.11010886 -0.063987516 0.4067488 0.34199515 0.2577275 -0.38952032 0.27672985 -0.20220177 -0.15963477 0.18746375 -0.011264814 0.15012963 0.045761436 -0.43406025 -0.27131492 -0.028153032 0.45523682 -0.27642506 0.17914297 -0.49423352 -0.056672275 0.3920391 0.0391175 0.035694398 -0.13537934 0.37159547 0.09632683 -0.2976388 -0.27619907 -0.06668726 0.036184162 0.0986808 -0.21308917 0.22139716 0.35782555 0.51196593 -0.12876938
omrA -0.10230043 0.49932638 0.21970594 -0.016414333 -0.5091579 -0.31602475 0.07339088 0.24313687 -0.2309312 0.02420811 -0.21488526 0.040740095 0.11687444 0.015063678 -0.20573366 -0.506366 -0.2620903 0.4436845 -0.14221835 -0.19968484 -0.2934327 0.4293213 0.09313008 0.033743475 -0.20220156 -0.15958098 0.5873699 -0.11028384 -0.5634542 0.47362876 0.21842206 -0.15604697 0.22915322 0.16863647 0.0027323056 0.29798964 0.05985044 -0.36842585 -0.19251557 0.14532655 -0.47011238 0.21365467 -0.5822326 -0.25443044 0.23526114 -0.24322136 0.1742905 -0.56250215 -0.4699464 -0.4527162 0.24760006 0.44482613 -0.038628932 -0.27251634 0.27511978 -0.12409465 0.13510028 0.42633796 0.22411294 -0.5601328 -0.04419408 -0.08021824 0.09100277 0.04288491 -0.07788819 0.038695943 0.26754546 -0.26863924 -0.100967176 0.42950967 0.2520843 0.60476154 -0.25459936 -0.12865621 -0.049444523 -0.26692867 -0.43570274 0.42391708 -0.011446904 0.23431285 -0.06337846 -0.25166908 0.018768128 0.35882765 -0.52563834 0.08942295 0.41680735 -0.083181195 0.5343775 0.26431987 -0.00088166614 0.007450997 -0.24292779 0.3470775 0.06132323 -0.065051004 -0.04251764 0.32480893 -0.2773197 -0.06438191 0.10022727 -0.12184277 -0.039166432 -0.0037879148 -0.11534354 -0.21879905 -0.022938097 0.24990682 0.004903698 -0.008136839 -0.17695735 -0.029978573 0.29411083 -0.09730501 0.36357397 -0.23156905 0.043742094 0.078756995 0.10859286 -0.015359437 0.07787559 0.047037903 0.33675703 -0.23476255 0.15271473 0.44329432 0.5658736 -0.25534996
chbR 0.47271255 0.36476526 -0.06254256 -0.20502725 -0.30310717 -0.14963324 0.6617154 -0.14097641 -0.07654488 0.12643865 0.024289036 -0.28674042 -0.21641211 0.32262307 -0.117257155 0.44640785 -0.48753595 0.18063936 -0.5466298 0.45097953 -0.11803472 0.38121387 0.14620079 0.009516271 -0.1707293 0.107157044 0.11292919 -0.0042314343 -0.7208359 0.81145513 -0.17007603 0.05329691 -0.24567048 -0.060728572 0.10887867 0.65358317 0.346378 0.442949 -0.53555745 -0.07014959 -0.727568 0.23065521 0.049875367 -0.014749305 -0.223214 -0.47288376 0.034144063 -0.21411856 -0.25020134 0.5020956 -0.6463527 -0.21535677 0.27348277 0.532193 -0.38223726 -0.113662526 -0.043221932 0.19483429 -0.11839287 -0.18142132 -0.24542297 0.16088268 0.021395415 0.24282695 -0.43444937 -0.24849235 -0.35537857 -0.15194854 0.07217061 0.22610031 0.14112477 0.5527866 -0.36011645 0.48702952 -0.22992392 0.11120324 -0.22692442 -0.47577047 0.11277192 0.41835937 0.5709522 -0.28635722 -0.7905733 0.19109896 0.02608164 0.07478535 -0.033445973 0.031785026 -0.059153523 -0.020681622 0.086934686 -0.23656435 -0.0855389 0.09545479 0.17819577 0.2655364 -0.3055875 -0.117260836 -0.33947143 0.27189404 1.2297764 0.18587017 0.5724631 0.19563997 -0.5298966 -0.77339375 -0.07844638 0.7913451 -0.33577156 0.18117906 0.11159421 -0.5619252 0.3953678 0.18984115 0.0007687232 0.37513375 0.12697333 0.22306916 -0.044270013 0.26114577 0.26850852 0.55081975 0.2968507 0.37843403 -0.013812643 -0.35399824 -0.27088362 0.5439732
gcvB 0.40270245 0.34627306 0.12702607 -0.12803641 -0.17237066 -0.5996651 0.16750006 -0.47665486 -0.54548603 0.036120914 -0.036995564 -0.11033978 0.2327464 0.012034871 -0.13067707 -0.56829715 -0.108636014 0.058504995 0.024462849 -0.28719014 -0.23619005 0.04271983 0.20107105 0.32893634 0.32788575 0.02422671 0.53196025 0.19222738 -0.006513453 0.3940825 0.016760431 -0.23283257 -0.09622519 -0.046714533 -0.05481941 0.048610218 -0.2260883 -0.29357684 -0.52011687 0.5016157 -0.12615882 0.1839494 -0.4259172 -0.11053488 -0.09861695 -0.43960625 0.3716822 -0.16099809 -0.16403794 -0.010551278 -0.019827724 -0.0063331537 0.17187941 -0.39601704 0.064975075 -0.3612144 0.77721375 0.3566913 0.09741572 -0.6048448 -0.14043003 0.10739284 0.092610486 0.095860995 0.2316113 0.24211664 -0.20734636 -0.48249164 0.59663814 -0.1397666 -0.16893029 0.5251353 -0.00048416576 -0.16609576 -0.39701512 -0.08650853 -0.48017433 0.13023771 0.12347807 0.357685 -0.031617306 -0.0135028865 -0.47895607 0.19214444 -0.29582903 0.2017346 -0.28535438 0.17688039 0.79216075 -0.3039068 0.006935396 0.27130213 -0.3234186 -0.14928797 -0.11940331 0.15769893 -0.14244346 -0.15881565 0.12003289 -0.1318373 0.23268038 -0.1267884 0.15705341 0.07907216 -0.056010686 0.021408238 0.0798805 -0.057357002 0.3872796 0.5699163 -0.11450296 0.0782852 0.08193531 -0.19104096 -0.3571735 0.062366772 -0.1015161 -0.01683481 -0.08046374 -0.12767173 0.44828954 -0.21030638 0.0038106162 0.005654338 0.4321029 0.34002462 0.27380326 -0.20350218
yjgJ 0.2677813 0.45298105 0.16983707 -0.106693536 -0.12065152 0.03300382 0.46269265 0.14210053 -0.4640114 -0.28257948 0.2913995 0.19441657 -0.12371588 0.003243931 -0.18836436 -0.45805627 -0.21710092 0.49689204 -0.011847468 -0.012567606 -0.7151635 -0.11546092 -0.19509898 0.3417222 -0.015779763 -0.083037406 0.09510599 -0.56284297 -0.37498346 0.122961946 0.21875098 -0.067843415 0.26583743 0.7080872 -0.058604226 0.04428226 -0.0004668725 0.063992515 -0.1707928 0.3966281 -0.33284953 -0.11804961 -0.32838127 -0.48064557 0.18367612 -0.542213 -0.06653983 -0.32481864 -0.80508274 -0.52720064 0.008567301 -0.0494993 0.07587168 0.30492464 -0.024281457 -0.41817206 -0.19472513 0.634523 0.016783647 -0.36373398 0.04924012 -0.20825416 -0.3862404 -0.03892446 -0.42458087 -0.06610398 0.21063302 -0.2995945 -0.23072435 0.27646485 0.38093746 0.51895785 -0.00923441 -0.13159898 -0.28737634 -0.26973304 0.022952572 0.3168999 0.25811404 -0.4855928 -0.30209622 0.3120455 0.31233582 -0.09175055 0.05855043 0.00618009 -0.118455075 0.34200394 -0.08533729 0.17291602 0.20897752 0.25452754 -0.20381641 -0.018821437 -0.22211002 -0.09247928 -0.70656985 0.2835328 -0.18525681 -0.13091365 -0.024464106 -0.007950732 0.16340484 -0.2789318 -0.4559094 -0.3101454 0.062818676 0.6685403 -0.47368702 0.21657623 -0.75169325 -0.059775144 0.21418178 -0.01621378 -0.08787142 0.15415643 0.2599922 0.29586515 0.3157012 -0.18514815 0.121183455 0.2547565 -0.1877815 -0.37590745 -0.13810256 0.25145677 0.33948556 -0.011410202
flhD 0.15036727 -0.4349847 -0.8551624 -0.6779515 0.015804743 -0.14077276 0.6005235 -0.4271656 0.4430078 -0.39758214 -0.062882684 0.17879726 -0.07855955 0.4223794 -0.1323396 -0.11620068 -0.13090558 0.3088323 -0.25235224 -0.13056238 -0.11413767 0.08693247 0.15719981 0.21280554 -0.13780452 0.015692664 0.21956176 -0.37299627 -0.08966224 0.48156112 -0.025478384 -0.613702 -0.24758407 0.27216038 0.14622153 0.83553463 -0.33824295 0.24933892 -0.25243902 0.30275056 -0.044424906 0.4968116 -0.000111980786 0.5573081 -0.20863397 -0.5826446 0.15441209 -0.20908982 -0.21125677 -0.39411438 0.0093473 -0.18076985 -0.04356224 0.087005794 0.2504403 -0.6977762 0.4553968 0.14524715 0.1951 0.08217813 -0.15021431 -0.2823145 -0.0777824 0.15837693 -0.15453267 0.14608996 -0.13556837 -0.24024974 -0.05363087 0.24653156 0.48316267 0.12529616 0.4121438 0.017625209 -0.43180603 -0.32630062 0.37724197 -0.19167459 0.035004675 0.42788732 0.39299226 -0.40931007 -0.413187 0.08602706 -0.13039146 0.26462203 -0.39381152 0.47433093 0.67481303 -0.106621824 0.14492366 0.15710883 0.3526544 -0.2112138 -0.20413771 -0.1855724 -0.06411733 -0.3266481 -0.62047344 0.25034657 0.81295717 0.63571954 -0.050192386 -0.44576868 -0.55269486 -0.19105956 -0.37448877 0.21164495 -0.46437132 -0.051443726 -0.19382308 -0.2791492 0.111626685 0.1774987 0.4162726 0.13748807 0.33801013 -0.25701457 0.11702245 0.06859702 0.111482106 0.14222257 0.12380292 -0.049694594 -0.4769661 -0.101681665 -0.19102383 -0.14495456
