31 128
ascG -0.19316098 0.14675716 -0.5164928 0.0852743 0.27417406 -0.21051826 -0.08629312 0.06865231 0.49334508 -0.29493845 0.026857253 0.09671554 0.18366475 -0.13836534 -0.2037218 -0.04563918 -0.639295 -0.20808078 -0.21419111 0.27230716 -0.2172554 0.42045802 -0.07579946 0.33172864 0.06845628 -0.10346275 -0.057108708 0.23146106 0.41644734 0.40178198 0.11328137 -0.094640225 0.296606 0.36715966 -0.2265788 -0.024183737 0.011958809 -0.29351264 -0.018769179 0.0037231909 -0.32139093 -0.31346634 -0.46016926 0.45380378 -0.0026042107 0.1447488 0.0855168 0.033084497 -0.14381494 0.0841525 -0.073890895 -0.38321942 -0.21937756 -0.35594708 -0.40028194 0.07599069 -0.39667028 0.5896227 0.47003645 -0.36398113 0.19453132 0.6135002 -0.067222305 0.4375853 -0.5531998 0.32343388 0.41005382 -0.147989 -0.31217635 -0.5455899 0.067779616 -0.03213033 -0.17665906 -0.0036717583 0.525475 0.24859709 0.23950052 0.0067250733 -0.18947022 -0.056236394 -0.34875405 0.08445348 0.17515585 -0.13909191 0.07435738 0.062870845 -0.1396954 -0.1890357 0.20586117 -0.28144693 0.092357956 -0.29667017 0.14820108 -0.32050142 -0.08621543 -0.102154635 0.4037482 -0.4973828 0.23331101 -0.5546033 0.3532116 -0.2555332 -0.2112384 -0.35204968 -0.48543632 -0.28496948 -0.45895255 0.26415098 0.22551645 0.04905541 -0.061395757 0.3666731 -0.61711794 -0.16440953 0.04391548 -0.00637312 -0.0005137648 0.35680062 0.46407145 -0.503299 0.07240978 -0.08927541 -0.38754717 -0.07339528 -0.07769688 -0.3419406 -0.09863092 -0.05589616
mlrA 0.013680979 0.19029601 -0.61712795 -0.3137962 -0.046901558 -0.5153215 0.269145 0.3576927 0.0812888 0.487072 0.12410376 0.29657316 0.19785185 0.076373875 0.10285341 0.3634992 -0.043788306 -0.17529489 -0.36495116 0.118431725 -0.26044264 -0.14425743 0.053791374 -0.13665591 0.14357585 0.5770075 0.05751472 0.11374828 0.17693041 -0.087198794 -0.10080822 0.159899 0.5821604 -0.15601803 -0.04130207 0.29725888 0.21298473 0.0667123 0.19447112 -0.24657583 0.5022855 0.11277964 0.20530923 0.28661108 0.06906384 0.1816102 0.2658642 -0.31473088 -0.69611526 -0.17204027 -0.5697398 -0.18673874 0.030904159 -0.3610977 -0.25811085 0.32665408 0.10344462 0.000357911 0.051785402 0.17523368 -0.0861783 0.15447763 0.108186014 0.10710503 -0.26835048 0.45491388 -0.16757138 -0.1863986 -0.67363167 0.074542694 -0.09843868 -0.060636308 0.14080447 -0.06338443 -0.31546393 0.02702123 0.7303528 -0.2500098 -0.42598468 0.031192483 -0.47039852 -0.10565701 0.11133236 -0.037151646 0.30469185 0.0011050153 -0.060851082 -0.40883723 0.0645811 0.13213393 -0.1248551 0.022138078 -0.26632652 -0.2667789 0.15813327 0.046372272 0.66689956 0.12858202 0.2340522 -0.5341723 0.025161324 0.08815355 0.00859054 0.010300762 0.012999031 0.29761568 -0.1865681 0.05813118 0.14578448 -0.15112214 -0.051072776 0.39340115 -0.77463716 0.1390949 0.29994732 0.18566166 0.5447027 -0.14244358 0.103178784 -0.44463664 0.11195921 -0.19074613 -0.26135227 -0.36931717 0.025923602 0.24206719 -0.41215512 -0.66254497
fur -0.50062656 0.22927657 0.14065294 -0.38561812 -0.5009282 -0.35134506 0.27765226 -0.20535886 0.020231351 0.49079415 -0.2147013 0.39560592 0.037969273 -0.18540384 0.1928194 0.32777014 -0.25105253 0.07942185 0.030134324 0.23059592 -0.16892058 0.24669823 0.42663908 0.6525621 -0.12906964 -0.001510933 -0.02113352 0.19068944 0.3436364 0.3581616 -0.19670844 0.13541695 0.43927774 -0.037032127 0.16537578 0.32298273 0.45516723 -0.07500529 0.25015417 0.17189401 -0.0039813938 -0.17106682 -0.029800985 0.19910182 -0.011983078 -0.37372327 -0.09881788 0.034197062 0.2774984 0.12164638 -0.17757262 -0.46150625 -0.034891866 -0.5723093 -0.010074868 0.42141005 -0.53266984 -0.018195976 0.23374002 0.20694882 0.14446165 0.003859242 -0.01116686 0.009747088 -0.3780492 -0.13140199 -0.019702967 -0.06239425 -0.3872706 -0.369552 -0.35099587 -0.17420204 -0.59252864 -0.070814334 0.16680788 0.012974339 0.31327498 0.0037279567 -0.4654292 -0.0329788 -0.7788859 0.3647108 0.12119036 0.4148081 0.09757658 0.16088058 -0.08460533 0.12939264 0.7794458 0.1447637 -0.17196222 -0.2736097 0.32526115 0.23887941 -0.34213153 0.1847566 -0.044645734 -0.052016873 0.14364667 -0.4784571 -0.051533427 0.009473425 0.3441213 0.33032852 -0.2313367 0.07606757 -0.32438344 -0.24058563 -0.30879873 0.16809407 -0.35961482 0.3189435 -0.57354295 -0.28414363 0.23741756 0.22668357 0.46664408 0.4697265 0.068354726 -0.053822406 -0.17307666 -0.44043556 -0.24751455 -0.9601628 0.23870608 -0.04838005 -0.0040326435 -0.4167817
yhjB 0.0005677631 0.026106937 0.029670311 -0.074237496 -0.46846876 0.14707771 -0.2916425 0.12055002 0.3103043 -0.118641004 -0.052528977 0.008257737 0.06065193 0.5332142 0.10878839 0.33850753 -0.12999803 -0.36291367 -0.30948496 -0.11640039 0.33065605 0.44123366 0.2238965 -0.11676015 0.16984446 -0.17142694 -0.40211496 0.086627364 0.68494505 0.1982945 0.35671893 0.08694206 0.13541302 -0.18295889 0.12523748 0.0072507504 0.26765516 -0.16403472 0.17743176 0.12662858 -0.13990262 0.07813023 0.37162155 0.05771514 0.019393502 0.48578358 0.14491995 0.25591585 0.29063052 -0.21601711 -0.4652722 -0.36431536 0.47129634 -0.392848 -0.29397392 -0.0052843075 -0.09273303 0.488179 0.3599421 0.17416853 -0.16961671 -0.03689622 0.3339837 0.22516079 -0.19324893 0.46025583 0.16026597 -0.2367759 -0.44225404 -0.4451835 -0.5653301 0.23964281 -0.25126633 0.52623796 -0.024716921 -0.16728058 0.64895254 -0.26892748 -0.1206037 -0.21449272 -1.0666507 -0.308444 -0.02151807 -0.36947805 0.2616854 -0.19420779 -0.0781518 -0.22104664 0.23114306 -0.5705191 -0.12946722 -0.18640047 -0.085181385 -0.20710622 -0.10683834 0.44772327 -0.009633826 -0.11769491 0.18791755 -0.101562366 -0.15216771 0.14658013 0.45602137 0.11853938 -0.16180335 -0.10847326 -0.2782657 -0.14900145 0.32690305 -0.28721666 -0.14436929 0.05360938 -0.36269426 -0.02556416 0.14808607 -0.11631633 0.12184302 0.27823207 0.051831666 0.20788966 -0.3389718 -0.23859876 0.1178412 -0.587216 -0.11003425 0.27247453 0.026675638 -0.6029775
yqhC 0.042893365 0.45399368 -0.21868266 -0.27672255 -0.22501759 -0.32900447 -0.0666048 0.534163 -0.027933532 0.5160061 0.16791631 -0.012711298 0.43625623 -0.28378385 0.23346047 -0.097956866 -0.1493814 -0.18282689 -0.086878136 0.17659746 -0.10953997 0.52089936 0.34608695 -0.1039374 0.15539953 -0.073978856 -0.04479151 0.334818 0.18256617 0.09777801 -0.18474244 0.07392795 -0.23355134 -0.07367553 0.055302255 -0.23015329 0.12428134 -0.51872724 0.034211386 -0.4581414 0.14428368 -0.3048202 -0.4634176 -0.10316984 -0.008571293 -0.2593076 -0.064067535 0.06113061 -0.43597212 -0.18196192 -0.16408534 -0.20778103 0.21555792 -0.10522417 -0.22559947 -0.030683571 -0.35120198 0.26209685 0.31056324 -0.058401182 -0.43049687 -0.064339004 0.40675667 0.6072488 -0.4469 0.11884685 0.1931446 -0.3266468 -0.27010897 -0.15625764 -0.17093848 0.36248666 -0.35828072 -0.14163803 -0.13798091 0.5136188 0.50631124 -0.18261078 -0.101418324 0.0022231883 -0.33554348 0.2982517 0.016739778 -0.042111043 -0.028857976 0.19342974 -0.49130353 0.23254561 0.2701319 -0.43839812 -0.0016745564 0.0372374 0.08153095 -0.4264791 -0.2662057 0.49375868 -0.24718282 0.21572068 0.1971223 -0.20359194 -0.13879141 -0.40659413 0.38980076 -0.24868038 -0.4340276 0.028006006 0.1655681 0.2886606 0.19863832 -0.41302195 -0.33433592 0.8445417 -0.20186247 0.2362779 0.19288756 -0.0724173 0.043496992 0.3946765 0.16821568 -0.29974622 -0.2466806 -0.369628 0.23919867 -0.6393173 0.072672985 0.29690316 -0.395213 -0.4619464
mazE 0.079469696 0.23291706 -0.3202379 0.14050482 -0.59383845 -0.24749935 -0.28639412 0.04736372 0.008709385 0.2717907 0.10331998 -0.16435158 0.0059965053 0.26167867 -0.033504598 0.41194308 -0.055759847 -0.04531668 -0.22287038 0.028635522 -0.0019708583 0.49000326 -0.15913008 0.4026733 -0.08434256 -0.119717784 -0.41612884 0.03574672 0.07188492 0.19731188 0.06344721 0.3613496 0.01051776 -0.12249282 -0.04663672 0.29829776 -0.22579049 0.06893798 0.44264913 0.1710178 0.41938806 -0.06946651 0.046002995 0.09120611 -0.09188171 0.026994305 0.020800877 -0.23766227 -0.39329147 -0.04843874 -0.38728482 -0.4439297 0.34272924 0.032427553 -0.29988837 0.13547012 -0.06519195 -0.26902452 0.2983162 -0.13051656 -0.16182415 0.23569086 0.11082603 0.3925732 -0.6194758 0.38270268 0.20899342 -0.46023518 -0.09683919 -0.12849367 -0.19940728 0.22861947 -0.6340779 0.19542049 -0.07008418 -0.11033783 0.13303325 0.41084734 -0.35213602 0.22908938 -0.6928722 0.41020653 0.1917836 -0.27379715 0.5334077 0.23504466 0.26168847 0.37616333 0.4318796 -0.09074666 -0.2890941 -0.73270756 -0.3662726 -0.12733401 -0.46937746 0.4421568 0.25542206 0.2393489 -0.2530123 -0.698593 0.23726878 0.04923712 0.031867106 0.20111148 0.03634369 0.2521367 -0.24240899 0.70484746 -0.04385364 -0.11194749 0.14097257 0.40644142 -0.37575963 0.32828638 0.19266923 -0.061459582 0.5040284 0.14552908 0.18268934 -0.37141952 -0.6056553 0.25857225 -0.24163786 -0.37886658 0.41620603 -0.620674 -0.23691814 -0.43427446
lsrG -0.21425214 0.75619197 -0.3221794 -0.0810321 -0.7565771 -0.22279994 -0.3402661 -0.034705494 0.5227415 -0.035677955 -0.14808767 -0.11703134 -0.28767404 -0.34473193 0.24827151 0.43023053 0.09285075 -0.012218237 0.06247943 -0.019518118 -0.32801536 0.451813 -0.026607169 0.23470818 0.1122791 0.111441895 -0.25553662 0.5115608 0.17268921 0.36471915 -0.15847617 0.0792324 0.08113854 -0.46480945 0.0018657688 0.46996462 -0.2172298 0.08428516 0.42290306 0.0004426933 0.037882112 -0.4285356 -0.011812091 -0.258237 -0.1323687 0.065472126 0.28322813 0.18032363 0.01101997 0.45814356 -0.37431854 -0.4788225 -0.03641272 -0.20670792 -0.18719332 0.07824158 -0.37857175 -0.045220416 0.0460344 -0.25816092 0.06143178 0.71130484 -0.14099957 0.6379126 -0.37451562 0.35159713 0.09820647 -0.207376 -0.12087014 -0.026074627 0.18758388 0.2683362 -0.459006 -0.04814133 0.09582436 0.016326418 0.5948061 0.10138258 -0.50447404 -0.4784075 -0.4490433 -0.2821198 0.21863352 0.19779018 0.21186087 0.067388 -0.1675726 -0.3001704 0.13156007 -0.20492688 -0.113824144 0.4476833 -0.06545534 -0.1969797 0.05023144 -0.028014768 0.070100255 -0.0026057763 0.5932882 -0.046303194 -0.30330178 0.12873918 0.2796771 0.006610709 0.030728368 0.25559494 0.12922353 -0.2476095 0.1947858 -0.11501122 0.29795143 0.8571655 -0.6883264 -0.037010845 0.35896474 0.15823674 0.004987431 0.17180032 0.38205484 0.30674517 0.18584391 -0.3588005 0.07768664 -0.33621046 0.38236478 0.031612396 0.2177134 -0.5564455
pntA 0.06768178 -0.016714448 -0.04109718 0.14940514 -0.11675183 -0.51633257 0.49729759 0.015028371 0.079675205 -0.029014839 0.52885115 0.12917207 -0.09645618 -0.012257976 -0.3425774 0.27033716 0.14200708 -0.15038075 -0.7060915 0.5724938 -0.2594384 -0.18321998 -0.029906603 0.17727423 0.15396993 0.16317113 -0.3050835 0.036053725 0.40562966 0.3540871 0.4892391 -0.015862938 0.10259096 0.16133477 0.46539313 0.24647819 0.023066366 -0.09486289 -0.13058256 0.16197026 -0.040375486 -0.35244727 -0.12539922 0.14482209 -0.679809 0.4165583 0.038774524 0.010912215 -0.30548 -0.3411525 -0.23023473 -0.21462457 -0.22435816 -0.28296196 -0.08822779 0.22363845 0.006126475 0.13432732 0.046914306 0.041595437 -0.14164391 0.14067087 0.057630584 0.39491764 -0.04050713 0.49962342 0.65528685 -0.19303727 -0.14371862 -0.035089456 -0.1829878 -0.285013 -0.24863228 -0.25721988 -0.14169726 -0.07856087 0.62954205 -0.20036238 -0.7944566 -0.106943905 -0.70260936 0.18065985 -2.2202585e-06 -0.61386305 -0.37100813 -0.16869456 -0.103278145 0.4438847 0.82700807 0.24542363 0.2696114 -0.05897605 0.452429 0.055491857 -0.47554755 0.44315323 -0.2863447 -0.04493556 0.18857494 -0.38015345 -0.25625217 0.016389431 -0.31479648 0.025556413 -0.45803094 0.30502564 -0.07037441 -0.0019488416 0.22941627 0.09701893 0.12401013 0.3058966 -0.56589144 0.38980597 -0.11579568 0.3360357 -0.20348977 0.8843832 0.52354133 0.12326277 -0.33571815 -0.32252383 0.03481286 -0.6145943 0.007896673 0.0075381617 -0.20475322 -0.64657474
yhjC 0.04262366 0.010848718 -0.06939564 0.12866288 -0.1487107 -0.5219009 0.46590096 0.023762055 0.10387347 -0.010616778 0.5020688 0.1295502 -0.06950767 -0.0064641237 -0.3183036 0.280937 0.10581895 -0.16569667 -0.6919745 0.56155235 -0.25513637 -0.12451838 -0.005718091 0.196821 0.15378185 0.15261842 -0.30771253 0.055571042 0.42898342 0.37188298 0.46667826 -0.0062600086 0.12364444 0.14684165 0.44382045 0.24518818 0.033615652 -0.10475361 -0.10511312 0.15861748 -0.030584615 -0.3621216 -0.13675016 0.16064294 -0.6507541 0.39603007 0.048519336 0.013984711 -0.30572495 -0.3275492 -0.25430757 -0.24784394 -0.20331909 -0.30744168 -0.115663044 0.23217802 -0.03206374 0.14851692 0.08148053 0.035905145 -0.1406392 0.15870869 0.063231796 0.41030478 -0.09587078 0.50562626 0.64740103 -0.21125062 -0.17696945 -0.07497267 -0.19484727 -0.26337877 -0.288388 -0.23969103 -0.1219799 -0.059931476 0.6469831 -0.18934064 -0.7923794 -0.09852845 -0.74679667 0.19087191 0.019275595 -0.59073824 -0.33050117 -0.14929563 -0.115315475 0.4233735 0.8356549 0.21174009 0.24194755 -0.08999785 0.43379185 0.029427862 -0.47660682 0.45258936 -0.25686747 -0.043545883 0.19019079 -0.41403726 -0.23684892 0.0062147486 -0.27869913 0.026272332 -0.46253592 0.29456222 -0.09771066 0.01649435 0.23238763 0.08563928 0.100306235 0.34423342 -0.60143566 0.3728507 -0.08294884 0.32559767 -0.16004756 0.8814183 0.5279961 0.09291744 -0.34267572 -0.33052588 0.017047608 -0.65114284 0.022375721 -0.0036246846 -0.21251585 -0.6670553
malY 0.0633256 0.24696283 -0.30842695 0.14484102 -0.59216297 -0.23307012 -0.29764083 0.027922638 0.03364289 0.24352497 0.084877126 -0.16969691 -0.0055838814 0.23613285 -0.034236263 0.4030508 -0.05747235 -0.027769476 -0.1999489 0.018768985 -0.0041633546 0.48969933 -0.16123858 0.40386918 -0.09084326 -0.122701555 -0.40246826 0.0467294 0.0629196 0.20655052 0.052624945 0.34802252 -0.0048848684 -0.12938233 -0.05505691 0.29465532 -0.23531002 0.07683016 0.43619052 0.16603845 0.3946817 -0.08140095 0.034112655 0.07522841 -0.09311919 0.016256137 0.028324034 -0.22299264 -0.36343977 -0.021579644 -0.36686546 -0.43557325 0.31807163 0.03927816 -0.28899366 0.12876263 -0.069609575 -0.26643628 0.28654876 -0.14923587 -0.14168748 0.25387096 0.09368737 0.3906663 -0.6069352 0.36194846 0.20455147 -0.4405603 -0.06871365 -0.13053009 -0.173795 0.22722687 -0.6249082 0.18168989 -0.048726346 -0.11305596 0.11940197 0.41501635 -0.3413418 0.21382038 -0.6545745 0.38712162 0.19576761 -0.25481367 0.5218521 0.23572329 0.2541119 0.35866043 0.40723264 -0.09461188 -0.28540754 -0.6890746 -0.35032856 -0.123744175 -0.44945607 0.41234756 0.23994388 0.21791501 -0.23315339 -0.66213995 0.23017137 0.05280797 0.037212927 0.19602154 0.043259174 0.24127474 -0.22596045 0.6748174 -0.040374275 -0.103777945 0.15454562 0.40608767 -0.3621626 0.3097189 0.19029224 -0.058693953 0.47717953 0.12834178 0.18739001 -0.3390237 -0.5719769 0.25139078 -0.22825758 -0.3455336 0.41747755 -0.61336267 -0.21313038 -0.40387422
relB -0.21396795 0.7288104 -0.33190456 -0.075777166 -0.7382027 -0.20880039 -0.34418124 -0.04864785 0.50714344 -0.03039056 -0.16283853 -0.1114248 -0.2815812 -0.32458264 0.23694701 0.43027696 0.07339212 -0.010955318 0.0810665 -0.031330734 -0.31480056 0.4406253 -0.04007201 0.25290063 0.0952482 0.1033396 -0.24185717 0.48932382 0.1552878 0.3528797 -0.15908988 0.086539544 0.0930649 -0.4457012 -0.02182713 0.46213666 -0.21413283 0.10518118 0.42940217 0.022162605 0.04292611 -0.39406696 -0.0021442834 -0.23329382 -0.101510495 0.05030091 0.27765572 0.16456273 0.019190677 0.45629796 -0.356388 -0.4733424 -0.03407397 -0.19922413 -0.18093525 0.089144215 -0.36005074 -0.06018837 0.047993924 -0.2571383 0.08079256 0.69802207 -0.15167561 0.5956581 -0.37956822 0.32231814 0.07065964 -0.19203822 -0.11962027 -0.03359059 0.18507124 0.25766096 -0.4443572 -0.036288913 0.102046855 0.002801009 0.53664005 0.12368459 -0.47785538 -0.44575587 -0.42601094 -0.26513478 0.22215064 0.20906346 0.24139592 0.08138879 -0.13306113 -0.30174744 0.11896674 -0.18096915 -0.12898444 0.39945036 -0.09123309 -0.17975901 0.0517033 -0.049953394 0.10114848 -0.006665123 0.5524793 -0.06431653 -0.2640978 0.13539921 0.26251507 0.022430427 0.04963026 0.2415253 0.103977 -0.21396795 0.16265373 -0.10426414 0.29529074 0.8075785 -0.65734166 -0.046943888 0.35143813 0.1461366 0.03091964 0.1319901 0.3564991 0.2743191 0.17938983 -0.3170943 0.05033466 -0.30392054 0.37981638 -0.008264363 0.21699241 -0.5093573
lsrR -0.19879395 0.745899 -0.3149277 -0.06324666 -0.7595705 -0.2114597 -0.3488022 -0.044213757 0.5188486 -0.054335523 -0.14404833 -0.12800543 -0.30497313 -0.33451146 0.24000052 0.42983478 0.10941823 -0.011281554 0.06689887 -0.02775424 -0.3139492 0.4395611 -0.04470423 0.22774321 0.10928848 0.09896841 -0.26625884 0.50417244 0.16521794 0.364383 -0.14059477 0.074502066 0.060775172 -0.4664975 0.0017699371 0.468623 -0.23068975 0.09730045 0.412615 0.012947032 0.031115953 -0.42346683 -0.0020834024 -0.2675338 -0.14269586 0.078378916 0.28833827 0.18594961 0.023146408 0.4564652 -0.36137003 -0.4709951 -0.035972998 -0.1902314 -0.1753736 0.067484245 -0.35690308 -0.04988076 0.0309622 -0.2637372 0.065637454 0.70632195 -0.14602822 0.6275431 -0.35500962 0.35207888 0.10429787 -0.20033395 -0.09848504 -0.015615791 0.19410118 0.27024573 -0.4434964 -0.038862165 0.09299987 -0.0021633056 0.5758759 0.10822814 -0.5002123 -0.4821895 -0.43671927 -0.2869181 0.20867419 0.17815611 0.20547943 0.055547215 -0.15020673 -0.29189697 0.12508775 -0.19749314 -0.10516709 0.45077696 -0.06775741 -0.18871655 0.05118929 -0.029966034 0.053114675 -0.0064615244 0.5843655 -0.024311205 -0.3074915 0.14427777 0.26571414 0.011759133 0.0422798 0.25665742 0.14050974 -0.24749853 0.19572811 -0.11091892 0.31822732 0.8319194 -0.66352665 -0.03036117 0.34776086 0.15434942 -0.014991568 0.16768654 0.3737725 0.32399002 0.183562 -0.34168983 0.08710021 -0.31348473 0.37568977 0.02364198 0.23034571 -0.53503984
ycgV 0.07597509 0.22424573 -0.30098274 0.14870262 -0.5724333 -0.22616465 -0.29187605 0.03555613 0.02465723 0.24097921 0.101559065 -0.16914949 0.008395025 0.25208446 -0.039752323 0.38668343 -0.05938469 -0.045166876 -0.21129012 0.02340946 0.00035824964 0.48859894 -0.1605026 0.395667 -0.07905844 -0.12630813 -0.4063371 0.035805177 0.07206619 0.2038999 0.07204619 0.34302673 -0.0038962504 -0.10940987 -0.052859005 0.28051507 -0.22159126 0.059803035 0.42550385 0.16280992 0.3845249 -0.07093375 0.03282386 0.08402774 -0.09503212 0.031142397 0.01692692 -0.21651906 -0.36766803 -0.0400664 -0.36647102 -0.43251565 0.3260787 0.03314605 -0.29348654 0.1235602 -0.07204715 -0.24600981 0.2997549 -0.13682352 -0.15250158 0.24038349 0.10548953 0.39177474 -0.604745 0.36723554 0.21365719 -0.44151247 -0.07883308 -0.13975419 -0.19167152 0.22278902 -0.6192857 0.19475617 -0.048394 -0.102151625 0.12007716 0.3981679 -0.33216754 0.21907791 -0.660572 0.39381546 0.18754818 -0.2725315 0.50941074 0.22660688 0.24618173 0.36749655 0.41624266 -0.10671747 -0.27268562 -0.7076284 -0.34741056 -0.13070898 -0.45702952 0.4250025 0.23763768 0.21947747 -0.23855144 -0.6654728 0.23244078 0.038882647 0.03153252 0.18729196 0.026736226 0.23078305 -0.2289964 0.6835964 -0.03306373 -0.10701631 0.14087282 0.39327297 -0.3497108 0.31454226 0.18005145 -0.06798237 0.46817753 0.14698996 0.18576917 -0.353667 -0.58716536 0.24740331 -0.23130356 -0.35476744 0.39933726 -0.60999537 -0.22406027 -0.40723297
folX 0.049198225 0.42297998 -0.19445398 -0.2550386 -0.20080976 -0.3017711 -0.059327826 0.5091746 -0.043547917 0.48776537 0.15697971 -0.016741686 0.40984708 -0.2710817 0.21929692 -0.10792297 -0.13035907 -0.17063957 -0.08094218 0.15857594 -0.09499787 0.47553748 0.32629263 -0.11507925 0.14493394 -0.07626307 -0.038051777 0.30788592 0.15751398 0.07680244 -0.17262462 0.06266675 -0.24286948 -0.071718894 0.060234435 -0.23273288 0.116285995 -0.48646837 0.027400605 -0.4380365 0.1342994 -0.28491318 -0.43736374 -0.10525031 -0.011668569 -0.25107735 -0.065764315 0.061161734 -0.40834922 -0.18252234 -0.13464457 -0.17582291 0.20224991 -0.07432843 -0.20469637 -0.03551859 -0.3128955 0.23172025 0.28490597 -0.051510487 -0.41457158 -0.07652755 0.38757044 0.5641011 -0.40617964 0.10124845 0.17208599 -0.30059612 -0.24076127 -0.13112383 -0.15867518 0.34840417 -0.3217081 -0.13798313 -0.14235029 0.48329732 0.45968154 -0.17383768 -0.07995845 0.01186529 -0.28324386 0.28427458 0.0028645522 -0.040071297 -0.03440823 0.18696405 -0.46267557 0.23113282 0.23061156 -0.4094595 0.00439455 0.04506253 0.07400041 -0.397433 -0.24073197 0.4591698 -0.25351232 0.21292838 0.17490934 -0.17613089 -0.13357256 -0.38274845 0.35869157 -0.23205882 -0.39997834 0.02770368 0.17681688 0.27489278 0.18086044 -0.38803142 -0.317951 0.7781518 -0.15444285 0.23018488 0.16594698 -0.07618362 0.029653784 0.3573954 0.14616379 -0.27285624 -0.23219746 -0.33543214 0.2358162 -0.58601505 0.068678625 0.28616786 -0.3742265 -0.41341197
ydfG -0.46012956 0.20765209 0.14561054 -0.3608081 -0.4557364 -0.3207985 0.2538378 -0.193382 0.00930278 0.4535235 -0.1976415 0.35671362 0.037504613 -0.17680612 0.18109138 0.2897035 -0.22181709 0.07808079 0.03814108 0.21328458 -0.15183909 0.22106463 0.39786634 0.5994727 -0.12360267 -0.008637303 -0.020746721 0.17270702 0.30731863 0.3274495 -0.18427514 0.1254633 0.37835935 -0.029292325 0.16198567 0.28726688 0.41079792 -0.07126697 0.2230385 0.15952666 -0.00823893 -0.15922706 -0.034823872 0.17232294 -0.012974829 -0.3608422 -0.09608241 0.036973476 0.2606836 0.10746119 -0.14388481 -0.4147613 -0.03459963 -0.5156666 0.0013935773 0.37890536 -0.49263945 -0.026833974 0.20898545 0.1959666 0.12842663 -0.015758768 -0.0056977915 0.0056199823 -0.33261997 -0.13705763 -0.014885137 -0.052617416 -0.34009218 -0.33491442 -0.31360444 -0.15696636 -0.5429338 -0.07915654 0.15094908 0.013958614 0.26872763 0.0036560444 -0.41402355 -0.03080418 -0.7050629 0.34762588 0.10688287 0.38733113 0.07799708 0.15396781 -0.08229498 0.13095789 0.7205103 0.12929441 -0.15273738 -0.2469198 0.31248346 0.22774763 -0.31359556 0.1773569 -0.06433771 -0.036591318 0.12736608 -0.42706937 -0.058950085 -0.0024581093 0.31286553 0.30070138 -0.21841918 0.067526266 -0.28517628 -0.22126257 -0.2841527 0.15183638 -0.3338125 0.2950366 -0.5104679 -0.25870213 0.2108186 0.20794232 0.41324624 0.4403038 0.054514546 -0.043371893 -0.16162977 -0.40803117 -0.21298185 -0.8833724 0.21297066 -0.04370903 -0.006115076 -0.37999982
rhtB 0.041980863 0.4316866 -0.19350243 -0.25775802 -0.2059637 -0.30979928 -0.06789775 0.5161051 -0.04071456 0.49851272 0.16352193 -0.019111045 0.42091778 -0.27882642 0.22607356 -0.10939488 -0.1411793 -0.1741904 -0.07809766 0.1689491 -0.09684438 0.50171083 0.3379605 -0.10708344 0.14877254 -0.087474495 -0.037755564 0.31328946 0.16633806 0.08037585 -0.18123005 0.060285375 -0.24389976 -0.07084916 0.058923997 -0.23927306 0.1228781 -0.5064918 0.023717012 -0.44471323 0.12932728 -0.29431805 -0.44886005 -0.10538725 -0.004848323 -0.255107 -0.06956675 0.06818782 -0.41250932 -0.18359235 -0.14140607 -0.18924439 0.20353611 -0.08515723 -0.2113292 -0.04268197 -0.32989323 0.24576887 0.29718637 -0.050792765 -0.41761464 -0.07844106 0.3956882 0.5774439 -0.4158598 0.099679455 0.17686477 -0.30366504 -0.24896985 -0.13765337 -0.16254975 0.35609585 -0.33368275 -0.13649248 -0.1349503 0.4980463 0.46897298 -0.1718182 -0.07872056 0.006820102 -0.29761776 0.29141712 0.0048848568 -0.040857725 -0.036235023 0.19255261 -0.472529 0.23180847 0.24307351 -0.41745347 0.001792173 0.043412704 0.07370248 -0.40103182 -0.25060627 0.47690883 -0.26121703 0.21318454 0.18434055 -0.1845342 -0.12993877 -0.39662623 0.37093154 -0.24198672 -0.41771513 0.022195965 0.17469387 0.28216118 0.18478145 -0.3998683 -0.3318929 0.79813534 -0.16666508 0.22457093 0.17286135 -0.08022114 0.029128693 0.37465847 0.148202 -0.28169373 -0.23972066 -0.34871426 0.24041793 -0.60506475 0.0628363 0.29363564 -0.37965465 -0.42705673
yeeJ -0.019512907 0.043278232 0.0068105753 -0.090425156 -0.43786168 0.12347092 -0.2685985 0.11619046 0.3114136 -0.103989385 -0.05026774 0.021950437 0.06840245 0.48811597 0.11037006 0.3280246 -0.13228083 -0.34588236 -0.29398394 -0.104840145 0.2910178 0.41820937 0.21725006 -0.0995797 0.16196685 -0.1465534 -0.37137288 0.09292597 0.6559931 0.20105174 0.32804772 0.08765271 0.15033022 -0.16989255 0.104491845 0.013347186 0.2612236 -0.15964124 0.17086972 0.107283324 -0.13311017 0.06067995 0.33626825 0.06829844 0.022553023 0.4529836 0.13879968 0.23805481 0.26359943 -0.1873341 -0.45201975 -0.35313097 0.43686992 -0.3878338 -0.28923717 0.008258695 -0.107496984 0.4726123 0.3462842 0.16004807 -0.15096997 -0.012122925 0.31079698 0.22222574 -0.19480217 0.44434178 0.15209807 -0.22679314 -0.43816116 -0.43003303 -0.52889186 0.21808648 -0.24552172 0.4891328 -0.008921911 -0.14967158 0.6335668 -0.25930786 -0.1229966 -0.20884626 -1.0153836 -0.2918119 -0.009361585 -0.33148694 0.25569034 -0.17820585 -0.08307212 -0.23101547 0.22496085 -0.5399628 -0.12493654 -0.16360863 -0.07790301 -0.20346096 -0.08722763 0.413216 0.01182097 -0.11999084 0.19849823 -0.11266404 -0.13462359 0.13004336 0.43441412 0.10041851 -0.1605258 -0.10627557 -0.26991427 -0.1496207 0.30967593 -0.26449817 -0.14522748 0.07400759 -0.37390006 -0.03373885 0.15197636 -0.10607775 0.12807123 0.25973448 0.06332094 0.17870742 -0.30417067 -0.23514645 0.09793012 -0.5718492 -0.102222644 0.26165253 0.02268967 -0.58440644
clcA 0.0036910202 0.016068287 0.04403542 -0.073901854 -0.4592285 0.1606865 -0.29090902 0.11905015 0.30990705 -0.12518479 -0.04716051 0.0009048783 0.059230626 0.52899575 0.10521148 0.32468137 -0.11637064 -0.35932365 -0.30940384 -0.12077911 0.333514 0.43159086 0.21767573 -0.12173924 0.17269138 -0.17146659 -0.39933053 0.080294505 0.6770006 0.19641556 0.3642919 0.08227369 0.11652739 -0.1770061 0.12534432 -0.007840512 0.26275384 -0.15944137 0.16736113 0.12600586 -0.1541777 0.07833829 0.36626747 0.045922868 0.01620094 0.48541516 0.13686821 0.25928223 0.2965835 -0.21461484 -0.44933861 -0.34986034 0.466698 -0.37734672 -0.2828783 -0.015644671 -0.08380326 0.4885196 0.34704188 0.17311153 -0.1716241 -0.03737711 0.33561185 0.21858993 -0.16962926 0.44453886 0.15939976 -0.22978228 -0.42003936 -0.43317786 -0.5554381 0.23514926 -0.24282146 0.5173708 -0.023029035 -0.16975753 0.63431233 -0.2672042 -0.10337733 -0.21555723 -1.0377392 -0.31182235 -0.021569297 -0.36422282 0.24717294 -0.19389783 -0.07604134 -0.21778052 0.22348292 -0.5667024 -0.12483116 -0.1626075 -0.076306865 -0.19960736 -0.09761198 0.43631858 -0.026019933 -0.11861657 0.18801862 -0.0796845 -0.15920871 0.14532973 0.4515108 0.110516965 -0.16353507 -0.11394202 -0.25659308 -0.16325298 0.32496905 -0.28254804 -0.14104962 0.039041564 -0.34188873 -0.018974256 0.13883467 -0.116240576 0.09624703 0.27431336 0.052934915 0.22043379 -0.32758278 -0.238724 0.12760979 -0.576501 -0.117905006 0.2798237 0.03676357 -0.59033847
phoQ -0.46126312 0.20208189 0.14171943 -0.3547017 -0.44441685 -0.32364187 0.27198827 -0.20712787 0.009832402 0.4442277 -0.19778392 0.36137354 0.024837296 -0.19309811 0.17386664 0.28090373 -0.21770309 0.07882354 0.04271388 0.22147702 -0.1739482 0.2100431 0.38977692 0.6073484 -0.123212755 -0.0072396826 -0.007919756 0.16366374 0.29636306 0.3382988 -0.18567055 0.11607994 0.38768247 -0.02254492 0.16402927 0.30011824 0.41430262 -0.069425225 0.22036998 0.15878908 -0.011513418 -0.17068034 -0.04711445 0.17465696 -0.018977769 -0.3663886 -0.0961631 0.035007045 0.26167035 0.111160666 -0.13514537 -0.40917137 -0.061052658 -0.5135279 0.0076690605 0.3861301 -0.4993089 -0.02642084 0.20405188 0.18961105 0.1390054 -0.006318073 -0.023031434 -0.0040532644 -0.32749963 -0.14143406 -0.005995538 -0.049147133 -0.3282916 -0.3350443 -0.30488497 -0.16878775 -0.5351831 -0.094170935 0.1573881 0.018137995 0.25890824 0.013074951 -0.42949533 -0.028778965 -0.6874153 0.3544121 0.10121904 0.3931731 0.06189156 0.15455836 -0.074103504 0.13143055 0.72195846 0.14749682 -0.13645731 -0.2453726 0.32591316 0.23539211 -0.3127941 0.16670418 -0.06805087 -0.044114817 0.12678017 -0.4259912 -0.05760038 -0.005137557 0.29228142 0.29492664 -0.21664634 0.064827465 -0.28791246 -0.22905663 -0.29396433 0.16821858 -0.32090446 0.29543155 -0.51327336 -0.26305574 0.1972891 0.22297505 0.40111676 0.44320768 0.06882896 -0.045932453 -0.15167814 -0.4056793 -0.21244857 -0.86912 0.2182729 -0.052222874 -0.0030025 -0.36160716
yjjA -0.47107193 0.2272792 0.1527802 -0.36252454 -0.4696749 -0.32313782 0.2606348 -0.21037184 -0.0029096645 0.4588236 -0.21036297 0.34744337 0.019886946 -0.21192347 0.18726374 0.2805482 -0.21046543 0.09520233 0.07013503 0.2158222 -0.1779201 0.22002147 0.3936501 0.6164978 -0.13395803 -0.008920789 -0.010094076 0.17636944 0.2714971 0.33739927 -0.21220414 0.11831751 0.37246636 -0.032720458 0.15888116 0.3027664 0.404354 -0.064766146 0.2324731 0.15760645 0.0016513076 -0.17344461 -0.053912763 0.15976831 -0.0117685525 -0.39596602 -0.09816133 0.036516618 0.26736632 0.12906045 -0.12962417 -0.40730056 -0.05781505 -0.5002217 0.012412387 0.37712932 -0.5082097 -0.05446607 0.19147283 0.18226925 0.13866217 -0.004902114 -0.02388508 0.0006186308 -0.33040103 -0.16369745 -0.02173964 -0.04846015 -0.30458647 -0.32256323 -0.28926432 -0.15852517 -0.5503472 -0.101866744 0.15830928 0.02443809 0.24831577 0.023715418 -0.41950768 -0.029738953 -0.6660911 0.35821515 0.10947654 0.41721624 0.07014272 0.171321 -0.07748726 0.14097573 0.71678406 0.14935113 -0.14244628 -0.2317082 0.31794795 0.23812453 -0.31787202 0.1600533 -0.07935685 -0.02478341 0.11944589 -0.41421813 -0.06110922 -0.0097173825 0.3110456 0.30272904 -0.2039901 0.07584015 -0.2711819 -0.22531965 -0.3078051 0.16281246 -0.32027733 0.31419778 -0.49923164 -0.26553836 0.20235041 0.21924236 0.39892775 0.43107748 0.056321524 -0.035695136 -0.1498394 -0.40376633 -0.20431118 -0.8678283 0.23298588 -0.053680312 -0.00027027016 -0.35629252
fieF -0.007946907 0.0438892 0.020875067 -0.080942005 -0.4434556 0.13457333 -0.27434474 0.11141309 0.30275047 -0.10865173 -0.041732397 -0.0012936512 0.05592437 0.48179382 0.110140644 0.31676382 -0.11557901 -0.3402761 -0.28931892 -0.11229069 0.29565823 0.41087198 0.20703831 -0.10971043 0.15722832 -0.15456294 -0.37194157 0.08825071 0.6362453 0.19368586 0.3227423 0.08011298 0.119401075 -0.1820378 0.119667135 0.008882559 0.2362746 -0.15281114 0.16780211 0.10480127 -0.13302623 0.05490089 0.3362136 0.040456876 0.010461679 0.44348454 0.14166752 0.23991756 0.26717046 -0.18688753 -0.43871137 -0.34244782 0.43094042 -0.36106694 -0.27429926 -0.010488945 -0.097266406 0.45421717 0.33010975 0.1533925 -0.16183853 -0.015566142 0.31302246 0.23019883 -0.1788624 0.43208158 0.15554596 -0.2227693 -0.4042773 -0.40388912 -0.5136285 0.22608761 -0.24621135 0.47933787 -0.026090104 -0.15200146 0.60923266 -0.24477519 -0.11887533 -0.2132621 -0.9860218 -0.2896784 -0.019410705 -0.3382227 0.2362324 -0.1765686 -0.079044744 -0.20579727 0.21193081 -0.5361799 -0.11947515 -0.1470212 -0.082399465 -0.19860125 -0.088857554 0.41579095 -0.016443897 -0.10566761 0.19414254 -0.087419175 -0.15043782 0.13078372 0.43332228 0.10145007 -0.15498972 -0.0985321 -0.24850194 -0.14978074 0.31216887 -0.27450335 -0.13326877 0.07726744 -0.3494291 -0.019867398 0.14687432 -0.107673235 0.10939186 0.25915074 0.05859068 0.20412186 -0.30235985 -0.23020539 0.11253085 -0.5581646 -0.097084135 0.2598102 0.033708144 -0.5742027
queG 0.014074139 0.17538105 -0.5577444 -0.2824789 -0.040683955 -0.4781452 0.25782683 0.33094636 0.06694502 0.4539749 0.12186716 0.26567933 0.20026045 0.05259075 0.088672526 0.3230947 -0.042973008 -0.1603884 -0.33280057 0.1231476 -0.24989937 -0.13294615 0.05597417 -0.12311362 0.1372508 0.51867026 0.05897695 0.11041687 0.15447658 -0.070150316 -0.087252714 0.13724425 0.5185334 -0.12514608 -0.032860976 0.26173618 0.18947455 0.04969376 0.15901884 -0.24076475 0.452662 0.08543903 0.15588066 0.2670854 0.049507074 0.15715335 0.22347221 -0.28731638 -0.64941263 -0.1619235 -0.5043994 -0.16414788 0.017329391 -0.32497776 -0.22895691 0.29398283 0.08366485 0.0020614509 0.05320365 0.15453406 -0.08430316 0.13974248 0.10480589 0.105098225 -0.25184166 0.41119254 -0.13386334 -0.17741093 -0.6187073 0.06332785 -0.095007606 -0.054847345 0.1194922 -0.0718045 -0.29255012 0.04002124 0.6766229 -0.2305188 -0.39507502 0.034235403 -0.43453255 -0.065022476 0.10644035 -0.041332718 0.26711097 0.011594355 -0.071890235 -0.35570654 0.08027898 0.11421466 -0.10495037 0.0145088425 -0.22676577 -0.24941899 0.13222472 0.05392665 0.5971186 0.13236687 0.21326806 -0.49884146 0.022294551 0.057947274 -0.004649723 -0.0014664715 -0.007763213 0.28182477 -0.1659026 0.070351005 0.13191761 -0.13896522 -0.051605273 0.3818947 -0.7117841 0.1392829 0.27239552 0.16562176 0.49517852 -0.10971946 0.10521021 -0.4188859 0.091848165 -0.17497483 -0.23609042 -0.35353053 0.028695773 0.22085378 -0.38867918 -0.6143747
fhlA -0.004439648 0.20177633 -0.55863404 -0.29982278 -0.07063018 -0.48339444 0.2385468 0.33212966 0.08053601 0.4478408 0.107577495 0.26604754 0.18467668 0.04354589 0.102804594 0.33692333 -0.040896013 -0.16438644 -0.3209202 0.11208597 -0.25544673 -0.11123009 0.061803557 -0.1205192 0.14477244 0.5239792 0.053593665 0.13416505 0.162985 -0.06283419 -0.10020664 0.13807757 0.51928145 -0.15077764 -0.032694336 0.27550617 0.19326179 0.053256143 0.17708638 -0.23629555 0.44955868 0.08092496 0.16142948 0.24775235 0.05326402 0.15410165 0.23617853 -0.27071628 -0.62860125 -0.13767076 -0.5157049 -0.18623705 0.0182201 -0.33212534 -0.2265028 0.29818633 0.068449885 0.0053108484 0.05878384 0.1469245 -0.08044195 0.15348423 0.096659385 0.123710275 -0.25226894 0.4151531 -0.14099187 -0.18582715 -0.62183577 0.067573324 -0.090930514 -0.04489058 0.10016456 -0.063969634 -0.28448695 0.04531112 0.6904939 -0.23361653 -0.409544 0.017499603 -0.4515314 -0.08748113 0.11367457 -0.02602603 0.27070016 0.0107017765 -0.0817688 -0.37358916 0.08013094 0.10550597 -0.108768165 0.0397487 -0.22734049 -0.24573788 0.13813505 0.053002134 0.58619183 0.12935835 0.23020808 -0.4801295 0.0012910559 0.06794608 0.020209163 0.00037624434 0.0021607117 0.2862776 -0.16489273 0.04224951 0.13189511 -0.1491216 -0.051841304 0.4029593 -0.730581 0.12516376 0.2800482 0.17276742 0.49247754 -0.10608042 0.10345504 -0.39369085 0.10083714 -0.19850591 -0.22822142 -0.36669013 0.041821662 0.2318146 -0.3785742 -0.6303728
lpxD -0.17632072 0.1152499 -0.46872726 0.08044177 0.27535278 -0.19744112 -0.059316676 0.05683483 0.44204944 -0.26896778 0.033972587 0.09109949 0.17431527 -0.12078393 -0.19784342 -0.053007882 -0.59297925 -0.19419886 -0.20824446 0.2591881 -0.20126289 0.37453076 -0.07476574 0.30584008 0.054050285 -0.09604462 -0.045789488 0.20292206 0.38123494 0.36708197 0.11131129 -0.09405068 0.2742164 0.3527185 -0.20032248 -0.02482649 0.017144363 -0.27504486 -0.02076555 -0.0016290345 -0.29915753 -0.28281915 -0.43160066 0.4249088 0.00050671486 0.13370506 0.072507426 0.023489807 -0.13376006 0.06255501 -0.054918002 -0.3464177 -0.20825551 -0.31965092 -0.36567867 0.06572723 -0.35297188 0.5432876 0.42743355 -0.32105848 0.17546473 0.55091524 -0.06183318 0.3894666 -0.49883476 0.2902401 0.38004678 -0.12800086 -0.28400186 -0.49299768 0.05637553 -0.039900374 -0.15957487 -0.011792157 0.47900888 0.22468187 0.21388689 -0.00032153702 -0.17068113 -0.040535413 -0.31341535 0.09447332 0.15519384 -0.13390306 0.058212347 0.06137567 -0.13042277 -0.15970053 0.19581442 -0.24876578 0.0939546 -0.28095263 0.14612292 -0.28192255 -0.08520098 -0.08580198 0.36901006 -0.45681903 0.20756362 -0.5197506 0.32721993 -0.2355146 -0.21389794 -0.32731596 -0.4623699 -0.266449 -0.42424121 0.24492352 0.20103471 0.04873887 -0.0576295 0.3287722 -0.5594848 -0.14656278 0.037548155 -0.005754024 -0.0007135547 0.340148 0.43106037 -0.47424075 0.063164376 -0.082261205 -0.36533374 -0.072895356 -0.08049173 -0.3139834 -0.09232317 -0.052444592
wecH 0.053807903 0.42332166 -0.19497617 -0.26357216 -0.19149025 -0.30860245 -0.057206295 0.5189846 -0.046815567 0.49583644 0.16154703 -0.012022475 0.41623965 -0.275632 0.21909113 -0.11416239 -0.13097979 -0.17023467 -0.08120195 0.16417128 -0.09552428 0.47772685 0.32835466 -0.12256448 0.14851777 -0.0706289 -0.03284604 0.31007296 0.15426888 0.067592174 -0.17998004 0.057764836 -0.24259809 -0.06634524 0.06209908 -0.23975715 0.11867692 -0.49551088 0.021323591 -0.44275817 0.13887225 -0.28758404 -0.44358552 -0.11085389 -0.0058531826 -0.25632688 -0.06817795 0.057786733 -0.41823995 -0.18587051 -0.1350249 -0.1742159 0.19647512 -0.07494863 -0.20018153 -0.04261047 -0.3143796 0.23575667 0.2794972 -0.054285087 -0.418753 -0.08258736 0.38669187 0.5601833 -0.4008138 0.09734996 0.16785477 -0.3021189 -0.24082309 -0.12196888 -0.15437195 0.34435433 -0.31574884 -0.14731012 -0.14825605 0.49527866 0.46627885 -0.18066566 -0.076409005 0.007566535 -0.27914524 0.279862 0.0028750217 -0.039191287 -0.0414137 0.18742044 -0.47045934 0.23049445 0.23077434 -0.40682617 0.0025916924 0.053150058 0.07385725 -0.3994348 -0.23948395 0.46195713 -0.25224757 0.21202593 0.17985618 -0.17007557 -0.13668464 -0.39172503 0.36066115 -0.2407046 -0.40766266 0.025740193 0.17882946 0.27575743 0.18292314 -0.39730626 -0.32592022 0.78889936 -0.15923494 0.2310511 0.16601971 -0.074658856 0.031038813 0.36177257 0.14836892 -0.27971423 -0.22997418 -0.34173608 0.24268228 -0.5847681 0.05885004 0.2999292 -0.37683406 -0.41577953
yggU -0.16656686 0.122114584 -0.45003694 0.0648036 0.23561566 -0.20172958 -0.059865315 0.06645987 0.42688492 -0.24294862 0.03583754 0.08605172 0.17115375 -0.11236698 -0.18149199 -0.036391515 -0.55837846 -0.18887226 -0.20091052 0.25059757 -0.19478881 0.37105298 -0.06307367 0.28280717 0.058513742 -0.08532655 -0.05190216 0.1973665 0.37086475 0.356428 0.102578424 -0.08353567 0.25713632 0.31749243 -0.18519823 -0.014555154 0.013651782 -0.26749942 -0.011063213 -0.008488093 -0.27702668 -0.2700508 -0.39780635 0.39792117 -0.0068680122 0.13132071 0.0724935 0.021244118 -0.13829237 0.050649174 -0.07548628 -0.33651552 -0.18154526 -0.32038528 -0.35374418 0.06611803 -0.34028432 0.52310526 0.4071131 -0.30850816 0.16014233 0.52652687 -0.051084463 0.38693148 -0.48845693 0.28910494 0.36663923 -0.13437563 -0.2816754 -0.47439677 0.051679965 -0.028617874 -0.16316508 -0.0022612032 0.44209313 0.21757926 0.23276421 -0.013489365 -0.17351542 -0.044930708 -0.32922313 0.08580721 0.14582784 -0.13342579 0.060594 0.05619334 -0.12858897 -0.15363468 0.19548985 -0.25325376 0.08160619 -0.26699978 0.13044554 -0.2861071 -0.081277765 -0.06518438 0.3439429 -0.428184 0.21031135 -0.4926818 0.29368454 -0.21825093 -0.18848708 -0.3057581 -0.4399642 -0.24116829 -0.39621854 0.23480158 0.20439194 0.03569146 -0.05894625 0.33259466 -0.5551745 -0.13293156 0.045502126 -0.0016671836 0.009585067 0.3307459 0.4174417 -0.44739178 0.053225007 -0.08905272 -0.33967406 -0.08837406 -0.06735114 -0.28911778 -0.100880645 -0.0792847
psiF 0.0020724167 0.18954128 -0.5656916 -0.30478173 -0.04646658 -0.48697993 0.25990352 0.3432597 0.07643993 0.45660892 0.115909815 0.2767127 0.1973398 0.049562834 0.091961674 0.3335918 -0.04571386 -0.17434518 -0.3422724 0.12215767 -0.25696772 -0.13010043 0.06433659 -0.12806092 0.15202394 0.5338251 0.05553595 0.12796836 0.17194583 -0.06608569 -0.09333332 0.12986222 0.5307606 -0.14003886 -0.021808298 0.26693708 0.2070944 0.042192284 0.15985271 -0.24230395 0.448682 0.08286807 0.15893109 0.2627874 0.049307648 0.16231641 0.23556484 -0.27138135 -0.64261484 -0.15497877 -0.5219521 -0.17482549 0.016749902 -0.341968 -0.23301437 0.30140957 0.07046042 0.020097258 0.061207052 0.1607124 -0.08934931 0.14553502 0.10226169 0.115885116 -0.24712397 0.42220286 -0.13494663 -0.18246165 -0.64202625 0.06483335 -0.10145904 -0.05887771 0.11576159 -0.070882596 -0.28807902 0.04727771 0.71147937 -0.2500873 -0.4152162 0.016015751 -0.4554522 -0.090059526 0.10926145 -0.034213535 0.25600365 -0.0010978533 -0.08274226 -0.3777082 0.08581103 0.11202617 -0.10028121 0.042595576 -0.21300401 -0.25035563 0.13685493 0.05829597 0.5958986 0.12663576 0.23990355 -0.48844156 0.00052927085 0.060749434 0.013175236 -0.0034824954 -0.013318732 0.28334796 -0.17136604 0.035595782 0.14514782 -0.14307758 -0.05795852 0.3999824 -0.7399601 0.13333252 0.28146645 0.17730002 0.48758465 -0.09666992 0.10854669 -0.4048115 0.10357307 -0.20449062 -0.22980976 -0.37333396 0.02828434 0.24940789 -0.38988683 -0.63479483
bioH -0.16554087 0.13677053 -0.46158025 0.058153752 0.22303118 -0.20296247 -0.06959199 0.07864644 0.4223109 -0.22586866 0.028959436 0.090013236 0.17909853 -0.11044681 -0.16524242 -0.033098996 -0.55704033 -0.1950732 -0.2050411 0.2444644 -0.19338445 0.38178518 -0.057249177 0.28790396 0.06406754 -0.08500772 -0.057907034 0.20778368 0.3775857 0.35515508 0.09794311 -0.076492675 0.26267081 0.31077817 -0.18878826 -0.014001947 0.023556007 -0.27238122 -0.0016563511 -0.011088157 -0.26150772 -0.2731047 -0.40153217 0.3927332 0.0048568156 0.1288557 0.07673153 0.021503136 -0.14271237 0.05251408 -0.08727733 -0.34677127 -0.17292023 -0.31848595 -0.36336052 0.068383686 -0.35030532 0.52126896 0.41641247 -0.30064642 0.14966087 0.52857083 -0.036551837 0.39608482 -0.5000664 0.295352 0.35639995 -0.14780156 -0.29891106 -0.47291288 0.04294414 -0.018074717 -0.17490484 -0.0002512401 0.43755278 0.22319148 0.24175651 -0.008923681 -0.18005979 -0.043951437 -0.3395317 0.0905928 0.15022103 -0.12585598 0.074624866 0.066641875 -0.1356894 -0.15512893 0.20150901 -0.25700355 0.07447726 -0.27039415 0.1269716 -0.2873627 -0.086215176 -0.061097894 0.34908068 -0.41406918 0.21010363 -0.50745094 0.29945484 -0.223043 -0.17304485 -0.30231106 -0.4417275 -0.23846863 -0.40185744 0.23547553 0.20553537 0.026374983 -0.060360577 0.35320053 -0.56434226 -0.1279438 0.055751696 -0.0033555701 0.01795075 0.32932755 0.41419202 -0.4534161 0.042222656 -0.09571859 -0.34022307 -0.11038924 -0.06175357 -0.28621417 -0.10557318 -0.09227101
glpD 0.0032208373 0.2135109 -0.574038 -0.2971072 -0.069815524 -0.49309188 0.24012385 0.3431669 0.09362419 0.44511878 0.11926021 0.25848722 0.201928 0.047152363 0.09833891 0.33838552 -0.055245373 -0.17611125 -0.33936292 0.124254845 -0.25880352 -0.09454876 0.059673104 -0.1159563 0.15270326 0.5150756 0.03840767 0.14441374 0.18187359 -0.0455929 -0.09353422 0.13553144 0.51327693 -0.1428229 -0.03111326 0.26603365 0.19088374 0.033088688 0.16837914 -0.24544547 0.44094202 0.06117964 0.14038035 0.2642934 0.04283294 0.16440926 0.23399466 -0.2702693 -0.6428466 -0.15153907 -0.52607566 -0.19641374 0.022073653 -0.34196657 -0.24844588 0.2969441 0.055946082 0.021397049 0.07581996 0.14161587 -0.089467786 0.16504402 0.10907526 0.14612585 -0.2786347 0.43569922 -0.114591874 -0.19491076 -0.6388393 0.049023602 -0.09421964 -0.03788945 0.083650835 -0.06962252 -0.28031823 0.054028466 0.7175893 -0.23081891 -0.41784245 0.011632958 -0.47424576 -0.07366012 0.120089255 -0.039980724 0.27489844 0.015064481 -0.08602371 -0.36878142 0.099414855 0.090029925 -0.10543106 0.023935111 -0.22317366 -0.26736838 0.12403778 0.06606823 0.59706616 0.12380007 0.24037094 -0.5053674 0.008397457 0.05335155 0.017361928 -0.008275659 -0.01968556 0.28625742 -0.17527194 0.064164534 0.14966328 -0.15704371 -0.053737402 0.4311763 -0.75292844 0.14084978 0.28395543 0.17093438 0.49205303 -0.08581617 0.12801045 -0.41450906 0.08862406 -0.19828908 -0.2359506 -0.38823703 0.040061496 0.22010121 -0.38933557 -0.6481118
diaA -0.16338782 0.13157208 -0.45153567 0.064781904 0.21553765 -0.21148932 -0.0541285 0.0659385 0.4093821 -0.22030018 0.035230447 0.08351447 0.16059555 -0.115924336 -0.16644049 -0.023670174 -0.53436416 -0.18125872 -0.20198576 0.24680655 -0.19785298 0.35773978 -0.063762054 0.28070393 0.058240615 -0.073993124 -0.054403186 0.19633178 0.35691613 0.34033436 0.09831641 -0.07172675 0.2600936 0.30083504 -0.1748544 0.001853595 0.00928131 -0.24842015 -0.0012245375 -0.0040714126 -0.2508166 -0.26498666 -0.38835242 0.38034332 -0.0079257665 0.1267556 0.07961769 0.01641166 -0.14776632 0.05447712 -0.086452976 -0.3373094 -0.18018237 -0.31028283 -0.34599233 0.073442265 -0.3354814 0.49282813 0.39291924 -0.298032 0.14744642 0.51743317 -0.051427953 0.38626924 -0.4849016 0.2914802 0.3494996 -0.13636312 -0.28445184 -0.45392254 0.04891095 -0.027759826 -0.16001664 -0.011973935 0.41922385 0.21007708 0.23314936 -0.0068053794 -0.18591149 -0.043872725 -0.32351 0.086394444 0.14612433 -0.12652685 0.06544487 0.062393226 -0.11989959 -0.15269585 0.19719206 -0.23653696 0.07130619 -0.25924906 0.12494813 -0.27325824 -0.08694831 -0.060202543 0.34552935 -0.40655392 0.20918392 -0.49542245 0.28746244 -0.21359357 -0.18304205 -0.29574886 -0.420861 -0.21928652 -0.38280973 0.22838628 0.19249494 0.031886294 -0.052255727 0.33771357 -0.55278313 -0.1218219 0.055789255 0.007751453 0.016164614 0.3145454 0.40450716 -0.434482 0.04739919 -0.089979745 -0.33491856 -0.09837933 -0.05080682 -0.2837565 -0.098816775 -0.091799945
yfcD -0.16613589 0.11246652 -0.45650396 0.06848161 0.25842717 -0.19759525 -0.05747816 0.06800783 0.42681912 -0.24706551 0.03349407 0.09051937 0.17779656 -0.113575615 -0.1868244 -0.04580978 -0.5688838 -0.18682857 -0.20296673 0.25221592 -0.1969781 0.36596397 -0.062241692 0.29081744 0.06025131 -0.08715483 -0.048197284 0.19594936 0.37634858 0.3480607 0.10446744 -0.08540794 0.27263886 0.3343804 -0.19208935 -0.01675933 0.017333746 -0.26967692 -0.020968005 -0.0029851631 -0.27696297 -0.2669468 -0.40926886 0.40869704 0.00019548181 0.13085625 0.06881398 0.022238344 -0.1431235 0.04773915 -0.06895779 -0.33717245 -0.19197266 -0.31605056 -0.35158774 0.07311182 -0.34261674 0.52606 0.41061836 -0.3050258 0.16177188 0.5276349 -0.052095193 0.38323385 -0.48818076 0.2923224 0.36733156 -0.13416931 -0.2846518 -0.48178324 0.050048083 -0.034546223 -0.15475138 -0.009141322 0.4499526 0.22010499 0.2186657 -0.007893914 -0.16948608 -0.034918092 -0.32156602 0.08755244 0.14618132 -0.13384065 0.059283536 0.059705187 -0.12681651 -0.15512756 0.19571169 -0.24669652 0.084326714 -0.27157813 0.13307713 -0.28260985 -0.079018675 -0.075402796 0.35814464 -0.43348783 0.20073524 -0.50775653 0.30967927 -0.22684814 -0.19620553 -0.31261677 -0.44234794 -0.24680625 -0.4109151 0.23591153 0.19484611 0.038502023 -0.058537763 0.3247956 -0.5548272 -0.13699333 0.04473006 2.3518689e-05 0.007406992 0.32574636 0.4117637 -0.4624442 0.051865384 -0.083657905 -0.34702608 -0.083768256 -0.07441499 -0.29832375 -0.097341485 -0.06242371
