31 128
ascG 0.11421249 0.1112949 -0.5529024 0.102544814 -0.20681097 0.2821913 -0.1494765 0.24317747 0.31292683 0.21878654 0.35947016 -0.22439095 0.025101248 -0.6783568 -0.011576862 -0.07537611 -0.5935632 -0.21897298 -0.27326286 -0.07332541 0.16448534 -0.0144818425 0.16438225 -0.06844785 -0.1856544 0.07237596 -0.107059695 0.13577315 -0.09332975 -0.36214244 -0.37364525 -0.20176323 -0.008528154 0.040323652 -0.12042146 -0.4106106 0.2907512 -0.03327078 -0.5840495 0.32138243 0.45374903 -0.18823259 0.2548324 -0.34295267 -0.32486486 -0.11861151 0.25122717 -0.22751173 0.4305368 -0.4494313 -0.022276169 0.16816495 0.04924461 -0.26042458 0.24503288 -0.083218366 -0.7313339 0.5655181 -0.24053128 0.26237905 0.048515026 0.6147651 0.14319989 -0.21125348 0.13621633 0.5381596 0.35564584 -0.30504823 0.063667335 0.20537576 -0.5706709 0.32496682 0.22302459 0.19031464 -0.10994177 0.39265725 0.22622743 -0.28857568 -0.02850941 -0.40822217 -0.457681 -0.30773443 -0.103828624 0.33980122 -0.18063945 0.16632117 -0.07547305 0.03496999 -0.24716662 0.17457455 -0.19723096 0.12039105 0.062036164 0.13071753 0.06909892 0.4664601 -0.3073182 0.070393994 -0.71025467 0.19693649 0.25129017 0.34058794 0.035845082 -0.050039135 -0.2123294 -0.38480628 0.02386656 0.41309586 0.034037493 0.079147115 -0.08840809 -0.29177958 0.4516738 -0.16338733 0.28805804 0.04644461 -0.24112363 0.05075828 -0.25334054 0.5590153 0.10038593 0.12560645 -0.046723098 -0.287437 -0.015670791 0.36224803 -0.025082149 -0.5175174
mlrA 0.12669888 0.36562413 0.019773347 -0.056177996 0.032104522 0.44579834 0.18035288 0.1329481 0.62171984 -0.19826867 0.46497867 -0.29293984 0.4820684 -0.35344884 0.040103864 0.26024964 -0.37418142 -0.06225523 -0.19335839 0.0934642 0.18000892 0.33496138 0.09472846 0.37890157 0.17205599 -0.14989665 -0.21752158 -0.039267007 0.2347935 -0.20075445 -0.18337171 -0.23021275 0.41155767 0.2782368 0.12647578 -0.10339261 -0.29646906 -0.105898276 -0.20806792 0.1188901 -0.21439227 0.0020076227 -0.28423497 0.13738637 0.42810157 0.0014751734 0.13394533 0.08816562 -0.20347194 0.04425532 -0.24331923 0.4207612 0.04266196 -0.2139851 -0.3255053 0.35689586 -0.8798328 0.2748958 0.1353478 -0.21795748 -0.34082675 -0.30220345 -0.19774069 -0.28035083 0.2717186 0.19846126 0.18820828 0.0162038 -0.23244186 -0.29158172 -0.46113348 -0.30529732 -0.28435373 -0.17212903 -0.2316818 0.1535722 0.561853 -0.18802758 0.26519716 -0.04049248 -0.47910482 -0.76306903 0.1686961 0.100364044 -0.37241584 0.47921565 0.16454175 -0.19100243 -0.48894674 0.23739743 -0.21778567 -0.029320478 0.624685 0.22002555 0.4193535 -0.07666075 0.059813563 0.16680765 -0.5571144 0.13425763 0.12338858 0.008570523 -0.020302791 0.101912074 0.06648341 0.11945706 -0.1670587 0.2866893 0.17790642 0.2962177 -0.10541921 0.2693048 -0.33114326 -0.08217861 0.22018076 0.3717525 -0.04256813 0.12731764 -0.39085135 0.35916466 -0.24767101 0.2603997 0.19406866 -0.7035063 0.25900608 -0.059425104 -0.14562441 -0.5189391
fur 0.4530879 0.02410667 -0.02119943 -0.19668688 -0.16314508 0.6597067 0.2847825 -0.17671274 0.22675502 0.21737388 0.07981706 -0.25801334 0.47835657 -0.61850995 -0.26953644 0.34618762 -0.3915763 -0.05284999 0.2050867 0.25870734 0.20791791 0.041421257 0.28887028 0.17900608 -0.20855065 0.26587215 -0.52387 -0.13575688 -0.14997098 -0.50058377 0.32633242 0.041547004 0.02879386 0.45202035 -0.4160257 -0.27230084 0.030258048 -0.22162922 -0.61852795 -0.089606956 0.12174736 0.115967244 0.3644898 0.16616035 -0.1399711 -0.039539002 0.39235544 -0.023994345 -0.06637537 0.25522557 -0.33563334 0.30704018 0.20711607 -0.21442002 0.26932064 -0.08966791 -0.016001202 0.4514266 -0.016853806 -0.02953017 0.29871932 -0.19660531 0.14649296 0.06683669 0.034285378 0.5621685 0.31952167 -0.0146993045 -0.16553278 -0.03237962 -0.32969958 -0.12457346 0.55456454 0.34417617 -0.57987815 -0.27956405 0.3262184 -0.18339303 0.34425077 0.40242574 0.24072553 -0.7202864 -0.1735063 -0.3500755 0.023525273 0.37959492 -0.09279014 -0.32943925 -0.3051725 -0.22383621 -0.20916258 0.012962581 0.20579183 -0.015084275 0.24225456 -0.2846559 -0.38873294 -0.20380294 -0.4001455 -0.33894533 0.4523847 0.3851814 0.009532595 0.36157805 0.14047202 -0.503481 -0.08084854 -0.28685212 -0.038020264 -0.049980137 -0.61985457 0.092094675 -0.0072416444 -0.08510122 0.12533525 -0.21998821 -0.44120663 -0.31279334 -0.4599546 0.551496 -0.4030306 0.10405834 0.24902822 -0.50501 -0.13037865 -0.41357955 -0.0018035311 0.09347073
yhjB -0.12853196 0.2111327 -0.5229869 0.33295283 -0.21365501 0.067512944 0.02034131 0.1871574 -0.05115855 0.08348651 0.48725674 -0.22010005 0.17264707 -0.08760541 0.076245464 0.3320922 -0.38282502 0.37165374 0.14342535 0.26542345 0.40519446 0.25992173 0.09943454 0.6205153 0.07435282 0.0684553 -0.37878048 -0.030872174 -0.044424474 0.06852387 0.42799565 0.07549619 0.11539342 0.45468897 -0.18709728 -0.32035574 -0.10899164 -0.32094494 -0.12903641 -0.14006917 -0.044749647 0.2899276 0.4840529 0.018110273 -0.114048555 0.1714001 0.034590423 0.53801477 0.038328655 -0.23472059 -0.04219268 0.56189084 -0.45021462 -0.4777697 0.55380046 0.026454827 -0.3778255 0.46551675 -0.1074128 0.14534286 0.04315789 -0.4598655 -0.277429 0.030309362 -0.43975943 0.28400022 -0.23659639 0.075095534 0.26577407 -0.2853243 -0.22010873 0.36626753 -0.21241511 0.07824019 -0.13157389 -0.065377355 0.6162499 -0.46280673 0.5749016 0.40498307 -0.007885214 -0.2899973 -0.07452307 0.22768798 0.12756059 -0.1494404 -0.48236233 0.42489678 -0.09901304 -0.3963467 -0.12106848 0.30638537 0.46381816 0.11341184 0.011065449 0.35544124 -0.2585834 0.32883647 -0.75684375 -0.081870794 0.020955961 -0.039318442 0.120183595 -0.3356665 -0.13474561 -0.4807123 -0.36553213 -0.04798859 -0.33959648 0.58914185 -0.020807767 -0.06385311 -0.08892152 -0.2501983 -0.050961915 0.55266225 -0.049252782 -0.47643855 -0.30018663 0.5298296 -0.48427847 0.18145594 -0.012006741 -0.14010306 -0.14308141 0.13387148 -0.14582747 -0.56842977
yqhC -0.3957287 -0.4950979 -0.10327598 -0.0362514 0.12627578 -0.1691111 -0.13694967 -0.48375806 0.479981 0.1956775 0.4755839 -0.17384459 0.25774467 -0.095398 0.06250306 0.41090813 0.10353228 -0.20940757 -0.07244256 -0.1799131 0.31581733 0.41218936 0.5482456 -0.4050502 0.008136649 0.47455198 -0.10157943 -0.19078934 -0.28536624 0.08797477 0.036987778 -0.55068386 0.17592527 0.2621 0.050390754 -0.50673336 -0.41813496 0.014590212 -0.39230323 0.3077612 0.2820981 0.36601883 0.11883256 -0.21574487 0.11296991 -0.028596027 0.26901782 0.16817 0.4712841 -0.068485446 0.07442863 -0.06528139 0.39147383 -0.08389256 -0.13740775 0.08770275 -0.4093843 0.48885903 0.17740178 -0.11013032 0.28168166 0.019093908 0.23563498 0.34060875 -0.26659837 0.6351075 0.26331422 -0.54521775 -0.20147248 -0.09180948 -0.41349316 -0.1952147 0.11569175 0.322079 -0.20117277 -0.032066636 0.31142005 -0.35957763 0.2968096 0.12965533 0.072382495 -0.730218 -0.24132407 0.12857053 -0.11448183 -0.041302 0.026860002 0.20100956 -0.11598879 0.22067185 -0.5457686 0.039101087 0.37669924 0.4745427 0.006335994 0.13700233 -0.38387784 0.13962214 -0.27453083 -0.32701328 -0.35016182 0.07154646 0.48152912 -0.015819296 -0.35492373 0.20510831 0.07125018 0.035386395 -0.4315103 0.5800786 -0.018586276 0.37865394 0.23469853 0.12851268 -0.41296488 -0.17943683 0.04433873 -0.19858703 -0.16407982 0.37068045 -0.12674792 0.39723155 0.058089957 -0.4452158 -0.063037306 0.013737522 0.11373004 -0.31723672
mazE -0.052346535 0.067307755 -0.004943641 0.07702887 -0.5152879 0.29043296 0.26774132 -0.15743731 0.28577662 0.42428824 0.279327 -0.13435537 -0.0703633 -0.68766147 -0.300873 0.102968074 0.08907563 -0.035931423 0.18974863 -0.12359214 0.27459475 0.44573206 -0.50987834 -0.075276956 0.3129105 0.20668876 -0.13199891 0.6290791 -0.10173043 -0.263097 0.2679541 0.16204225 0.06474664 0.09812942 -0.07338901 -0.54827005 -0.18442626 0.20951046 -0.13200168 0.3637524 0.04951184 0.14346223 0.3266701 0.13251789 -0.03863343 0.44975019 0.29916897 0.73664194 -0.15618809 -0.24662 0.402901 -0.11928365 -0.18689662 -0.23615535 0.0042195613 -0.4283053 -0.7255616 0.18084556 0.3128001 -0.07276945 0.11123935 -0.08255278 0.046376053 0.26170367 -0.09212442 0.32029757 0.04984017 -0.547689 -0.29646933 -0.004435152 -0.9050268 0.14867392 -0.01970079 0.28401795 -0.05772874 -0.09998638 0.32227185 -0.2571086 0.37611976 0.050020568 0.26521975 -0.3192644 0.52625346 0.0795951 -0.120657705 0.31483477 -0.17182298 0.5350434 -0.19966996 0.1685244 0.098832995 0.17927012 0.39132956 0.39868498 0.19140562 0.24743836 -0.005448154 -0.21293898 -0.8335786 -0.21871191 0.1205311 0.2207883 -0.25931644 0.214835 0.35036582 0.44846332 0.3850413 0.12875727 0.2946619 0.18474923 -0.018034976 0.23658535 0.08926939 -0.5234549 -0.19322315 -0.23701085 -0.5392089 -0.27262288 0.23564157 0.6676628 -0.17102304 0.018982084 0.37226805 -0.5941449 -0.4543433 0.15352441 0.008684785 -0.40954754
lsrG 0.12964231 -0.33058077 -0.1617512 0.13519424 -0.236898 0.27422646 0.060375486 -0.2281058 0.044818107 0.11567703 0.2508638 0.04258273 0.13183647 -0.5955291 0.066280015 -0.14632209 -0.5504661 -0.07875449 0.2955641 -0.5028025 0.28537455 0.22295868 0.32377455 -0.051408574 0.43641156 0.40058646 -0.12148173 -0.015681576 -0.4991411 -0.80941176 -0.49804652 -0.0459744 0.07995092 0.3802587 0.34718817 -0.01991335 -0.32482812 0.33126843 0.17615618 -0.11530251 0.45610362 -0.06044972 0.32662186 -0.025529424 -0.14119588 -0.08094836 0.1738132 0.22243276 -0.15487546 -0.010163947 -0.030117711 0.4597157 0.47267824 -0.31549478 0.36786485 -0.270431 -0.58603054 0.4277679 -0.055100728 0.09798187 -0.23189811 -0.10742404 -0.124813154 0.3915344 -0.48276123 0.119045585 -0.20197299 -0.6773725 0.08232186 -0.37040105 -0.6176258 0.12083023 -0.14837033 -0.13885039 -0.26846883 -0.3170844 0.2736793 0.08746742 0.6417228 -0.17622633 -0.258791 -0.43644398 0.09791997 0.24565752 -0.35514715 0.17918038 -0.43300465 0.22709283 -0.45380262 0.1954727 -0.34417924 0.15409833 0.10457175 0.018672368 0.07230784 0.33773205 -0.45726272 0.52615196 -0.6693624 0.16552785 -0.3409296 0.26228988 0.35657427 0.11013988 0.12451315 -0.33598623 -0.26741457 0.049369164 0.03122514 -0.2121592 0.089761205 0.26725644 -0.24737918 -0.040447768 0.43201616 0.50733083 -0.5003031 -0.1557703 -0.15701355 0.18436587 0.07181844 0.39736384 -0.28901777 -0.17547137 0.23342809 -0.008422788 0.44536433 0.10097224
yhjC 0.05126131 -0.31785333 -0.07909837 0.62116194 -0.46829602 -0.0016116609 0.055637307 -0.12377677 0.34144437 0.35033804 0.2133378 0.10085074 0.52423733 -0.36935925 0.48837218 0.19993511 0.015981652 0.25028962 0.27226636 -0.014765036 0.039605696 0.06801406 0.0010694795 0.05129949 0.39984396 -0.056004364 -0.43242353 0.20642357 0.11722802 -0.13436666 0.07738067 -0.2748932 0.21469733 0.6492791 -0.19208977 0.19589359 -0.5170305 0.04529402 0.3367838 -0.35558626 0.17274398 0.5138528 -0.20500453 -0.50553405 -0.3030038 0.455142 0.0792908 -0.10968346 0.4841266 -0.2027053 -0.114616804 -0.12798151 -0.20072204 -0.4361082 0.63286465 -0.13692077 -0.87544644 0.5375797 0.70834696 -0.25134453 -0.37337163 -0.35568136 0.39967754 0.11798526 -0.41245502 0.4601725 0.16493736 -0.33534023 0.045890406 -0.36794946 -0.46782395 -0.2474019 -0.22323112 0.08827698 0.02809853 -0.4237856 0.7183713 -0.076924615 0.32412353 0.022874137 -0.42537442 -0.55950755 0.06551887 0.28853992 -0.5084206 0.33863565 -0.13147755 0.14286461 -0.45591855 0.10148645 -0.12756678 0.3061287 0.022218049 0.17782618 0.2777239 0.1613929 -0.11801396 0.013959979 -0.36537075 -0.15988255 -0.17716816 -0.16222444 0.20657939 -0.23976429 -0.1921628 -0.35611793 0.4809236 -0.19757009 0.28669623 0.24554147 -0.355005 0.08399353 -0.15884832 0.30911428 -0.065269746 0.5390211 -0.39166793 -0.46800068 -0.09382606 0.5292422 0.02826099 0.04444937 -0.10911671 -0.6871205 -0.24667023 0.28807577 -0.106970094 -0.29364023
pntA 0.056205165 -0.33869883 -0.06114944 0.65389365 -0.48423898 -0.019816339 0.041753497 -0.11563939 0.33937687 0.36072776 0.18513477 0.13434738 0.5264509 -0.3622055 0.52427167 0.1696557 0.04639547 0.25281426 0.27665678 -0.023451373 0.0074652447 0.03234113 -0.032329924 0.02355911 0.41878483 -0.08184641 -0.42655087 0.2343812 0.1414842 -0.12898727 0.049536992 -0.2861243 0.21647269 0.6432409 -0.19681115 0.24748927 -0.52263933 0.06476811 0.38294855 -0.37881398 0.17596489 0.52091855 -0.25442582 -0.54741484 -0.32776827 0.47243744 0.065538436 -0.15486862 0.51481444 -0.21359923 -0.1106061 -0.17546557 -0.21798943 -0.42818975 0.64927465 -0.14821553 -0.8939725 0.5268214 0.7492034 -0.26651615 -0.40385428 -0.34133306 0.43866917 0.11160901 -0.41062018 0.4490085 0.17651671 -0.3428088 0.04651144 -0.36396322 -0.45792073 -0.27030662 -0.23908933 0.07641757 0.058534946 -0.43274254 0.71368486 -0.051014714 0.2883174 -0.01634287 -0.46366212 -0.5354867 0.0727456 0.29987618 -0.53942645 0.35322547 -0.10636388 0.13808122 -0.4590973 0.1198524 -0.10579759 0.31268165 -0.016433556 0.17433944 0.28891847 0.16315252 -0.08845957 -0.005797471 -0.3321562 -0.14548272 -0.19079304 -0.17485568 0.19991055 -0.25222704 -0.19617599 -0.35996923 0.53402865 -0.19418189 0.32980502 0.22393009 -0.36682954 0.0630133 -0.15072322 0.34287664 -0.060175452 0.54553807 -0.39907366 -0.4622261 -0.07265041 0.5160131 0.077645645 0.024667203 -0.12729238 -0.69014883 -0.2558555 0.3142142 -0.11890363 -0.28353766
malY -0.055127647 0.05862652 -0.00991315 0.086571805 -0.48902765 0.26252535 0.24080439 -0.14333639 0.26853105 0.39820045 0.26316786 -0.11840721 -0.05056771 -0.6346948 -0.26359454 0.0974316 0.080172114 -0.027085023 0.18110536 -0.11767382 0.25106627 0.41642967 -0.4740663 -0.06490203 0.30037647 0.18720731 -0.12968796 0.5882082 -0.09085918 -0.23790656 0.2464689 0.1371383 0.07162104 0.106408626 -0.06332173 -0.5050841 -0.18118107 0.19742087 -0.10784541 0.33032322 0.050924856 0.14929798 0.2985173 0.10805033 -0.040250458 0.43228266 0.2755649 0.68517375 -0.12635832 -0.23525202 0.37122905 -0.10650823 -0.17935157 -0.22885777 0.020295886 -0.3975449 -0.6998618 0.17867851 0.30689254 -0.071187116 0.088364996 -0.09000416 0.05412114 0.24871105 -0.092755 0.306725 0.045987237 -0.5118244 -0.27498087 -0.016930612 -0.8509172 0.13222596 -0.03349853 0.26076347 -0.04684651 -0.097863466 0.3192144 -0.23594609 0.35641953 0.042621356 0.23092501 -0.31518376 0.49379894 0.089393534 -0.12600161 0.29410335 -0.16570202 0.50656414 -0.19126852 0.1579173 0.08193394 0.16938868 0.3653215 0.3731671 0.18262742 0.23332337 -0.0030719216 -0.19156611 -0.78029 -0.20238632 0.10484964 0.19996366 -0.23712052 0.18863149 0.3166428 0.41129407 0.3674702 0.12431197 0.27815223 0.18338011 -0.018921964 0.21652757 0.08145802 -0.47928128 -0.18418445 -0.20365809 -0.5071914 -0.26496646 0.21205342 0.6289295 -0.15383093 0.020371106 0.34158275 -0.56568015 -0.42478523 0.15193373 0.008822227 -0.39483726
relB 0.14342654 -0.32136235 -0.1273491 0.13052234 -0.22912362 0.2822287 0.07859579 -0.23804627 0.054095846 0.107082084 0.22298676 0.038567487 0.15591347 -0.5868318 0.06245373 -0.1300364 -0.53743863 -0.07306649 0.3047414 -0.48337927 0.26983774 0.20847654 0.3206368 -0.04392958 0.43160874 0.38990265 -0.12888202 -0.01469532 -0.48469698 -0.80658233 -0.47846636 -0.045527015 0.07222287 0.38201654 0.34639537 0.016919326 -0.3370881 0.330208 0.20280871 -0.14386061 0.45088622 -0.059212886 0.30995196 -0.016286861 -0.13045435 -0.08052974 0.1656261 0.21077038 -0.17458095 0.024995446 -0.045703273 0.45500678 0.4853491 -0.30727515 0.364014 -0.2770874 -0.56412756 0.41271356 -0.042220417 0.08391797 -0.23963818 -0.1253819 -0.12492676 0.38930628 -0.47544852 0.10476347 -0.19675192 -0.6625794 0.0709753 -0.3763531 -0.59466994 0.097313106 -0.14366022 -0.14174776 -0.27471718 -0.34161425 0.25811803 0.10812931 0.6369032 -0.15981296 -0.25458473 -0.44033563 0.096324354 0.22374661 -0.36317682 0.19211695 -0.42244726 0.19525671 -0.4564858 0.19220102 -0.32802424 0.14010748 0.08447562 0.0020948204 0.08076993 0.29979756 -0.44412303 0.50867915 -0.6337708 0.15851888 -0.33724344 0.25494573 0.34641585 0.13334154 0.14039452 -0.3333329 -0.26623356 0.02484664 0.045568395 -0.2419546 0.07404361 0.27631497 -0.27183995 -0.020175116 0.44333693 0.50097483 -0.50118786 -0.16003826 -0.15204918 0.16018109 0.07857213 0.3884476 -0.29039475 -0.17094804 0.24321617 -0.029793352 0.4505272 0.14065892
lsrR 0.13276537 -0.30804998 -0.15930682 0.14590335 -0.23777913 0.28415602 0.07891978 -0.22599453 0.07760965 0.1210026 0.2602884 0.017374376 0.16829914 -0.5976177 0.06457405 -0.10452536 -0.53882855 -0.0623077 0.29065922 -0.4520664 0.28367886 0.22212298 0.3214865 -0.023041923 0.41763872 0.3830596 -0.15096554 -0.009557344 -0.46198866 -0.7783699 -0.4443213 -0.055191435 0.0816119 0.40273508 0.31232935 -0.01932 -0.33045763 0.30565742 0.16474931 -0.12616195 0.44178745 -0.034621973 0.3132113 -0.030322643 -0.13800284 -0.066417985 0.17677045 0.21658707 -0.13976523 -0.0042773066 -0.048382215 0.4559038 0.4518776 -0.32361302 0.37454328 -0.2633242 -0.5977644 0.43860772 -0.03099578 0.07774088 -0.22410473 -0.1288971 -0.11239179 0.3758196 -0.4668459 0.15001084 -0.1773258 -0.6500258 0.07640536 -0.37351805 -0.61393857 0.099740334 -0.13837107 -0.11589346 -0.27743617 -0.32384104 0.2980561 0.06737627 0.6358707 -0.14921868 -0.25918913 -0.46679416 0.08817775 0.23125172 -0.3506479 0.19120374 -0.41634125 0.20837706 -0.45661688 0.1776329 -0.3356924 0.15720055 0.1151645 0.024907222 0.0837082 0.31431866 -0.44394806 0.49567285 -0.6641072 0.13947916 -0.31651032 0.2549992 0.34340888 0.11185985 0.1186449 -0.34209752 -0.25131047 0.031303294 0.031232823 -0.1865496 0.053490236 0.26377174 -0.2448947 -0.031891584 0.41442528 0.4975294 -0.49367002 -0.17709343 -0.1691813 0.20961006 0.05475543 0.38261163 -0.2666952 -0.20833851 0.2182492 -0.009818604 0.4175153 0.0799166
ycgV -0.034873825 0.042050082 -0.0071596247 0.078004055 -0.46686143 0.25343397 0.23387651 -0.14427747 0.25009903 0.37645754 0.24459305 -0.1111032 -0.052205224 -0.61390555 -0.25139087 0.082370505 0.07218432 -0.024882998 0.17107856 -0.109819956 0.2358453 0.37878737 -0.4464095 -0.06950464 0.27158836 0.1822403 -0.12591247 0.5555695 -0.095164396 -0.24717094 0.23021057 0.1397111 0.06303604 0.097405255 -0.064593196 -0.4770952 -0.16245249 0.18332839 -0.11216777 0.30787462 0.061505795 0.13271967 0.29157898 0.098534755 -0.053566445 0.40534303 0.2658792 0.6401101 -0.12108539 -0.21266171 0.35053968 -0.10763542 -0.1567617 -0.21445192 0.02725843 -0.3791009 -0.6495034 0.18049502 0.2873078 -0.063200176 0.09606958 -0.068625264 0.05842036 0.24056181 -0.08582776 0.29830435 0.05145801 -0.49189684 -0.2635608 -0.013617286 -0.80686754 0.12955871 -0.010801111 0.25196394 -0.050642107 -0.09314365 0.29395834 -0.22304313 0.33462667 0.03804473 0.22130835 -0.29558578 0.45893097 0.07254511 -0.12262288 0.27928203 -0.15967314 0.4704222 -0.18002449 0.14883684 0.0822649 0.16044031 0.33782464 0.34916338 0.17415002 0.22224307 -0.015506336 -0.19047378 -0.7426761 -0.1959267 0.10320976 0.20095642 -0.22433554 0.18977362 0.30446962 0.37680218 0.34363064 0.11303394 0.2622804 0.15108329 -0.03213632 0.20014246 0.08392948 -0.44941854 -0.16483453 -0.20464076 -0.4897062 -0.25474864 0.20394047 0.60083497 -0.14791682 0.021794407 0.31735277 -0.5345992 -0.40571374 0.14319511 0.015139118 -0.35269922
fieF -0.111340985 0.16887903 -0.46061718 0.3106746 -0.20029865 0.058623638 0.023182986 0.14544593 -0.029938422 0.09028427 0.43122402 -0.1977981 0.17380337 -0.09043944 0.08502023 0.3123795 -0.331987 0.33763707 0.13514213 0.23658302 0.36051643 0.23306209 0.08882615 0.5439849 0.07400681 0.07119397 -0.35560772 -0.016562425 -0.030962361 0.056793123 0.39717758 0.058605537 0.10174359 0.43242478 -0.1812422 -0.28804117 -0.121092685 -0.2830755 -0.10873972 -0.13721457 -0.03731037 0.29167786 0.42943063 -0.0059696645 -0.10950946 0.16925633 0.03837858 0.47593424 0.05102915 -0.20616709 -0.04523649 0.48431373 -0.40259767 -0.43661404 0.514968 0.020500857 -0.35054392 0.42625526 -0.060792487 0.11452674 0.044819202 -0.42510518 -0.22579244 0.043597694 -0.4070403 0.2806173 -0.19480066 0.05746417 0.22880541 -0.25936592 -0.20398046 0.31008172 -0.1794418 0.0840593 -0.12170186 -0.081657775 0.5699103 -0.42041707 0.5182576 0.374435 -0.011071779 -0.2869768 -0.069077715 0.19767076 0.100722015 -0.11637432 -0.42908314 0.3798359 -0.10186126 -0.34811264 -0.10920173 0.28241786 0.40940577 0.115385935 0.023172203 0.3085579 -0.24052435 0.28555897 -0.6782382 -0.09012428 0.013992692 -0.04011496 0.11305734 -0.30651617 -0.13121274 -0.43766513 -0.30041006 -0.06359051 -0.29693493 0.5395959 -0.04944711 -0.04443448 -0.077015445 -0.20873372 -0.06254171 0.49990225 -0.06274359 -0.4515164 -0.27685913 0.4953901 -0.4369829 0.1617446 -0.0040887073 -0.1550119 -0.14507711 0.12400966 -0.13742517 -0.5109064
yjjA 0.4161703 0.02841821 -0.029415773 -0.18348114 -0.149353 0.62011033 0.2591411 -0.16608049 0.23484288 0.20098746 0.097963884 -0.25023657 0.45899543 -0.59231484 -0.24232839 0.3357632 -0.39059913 -0.056111634 0.17387998 0.23220305 0.21084917 0.056683734 0.28996977 0.18034765 -0.1896501 0.25462523 -0.49580064 -0.12846772 -0.14012073 -0.470951 0.28446248 0.02565883 0.029884208 0.4352454 -0.38639975 -0.2711721 0.019944876 -0.21035415 -0.59429204 -0.06714383 0.11539603 0.105070956 0.34391075 0.14394955 -0.12151125 -0.04519701 0.37608048 -0.015882108 -0.057243012 0.22929822 -0.31514823 0.30662045 0.19473228 -0.21067902 0.24093866 -0.07271758 -0.0474385 0.4429549 -0.02514787 -0.028195342 0.2760978 -0.18465644 0.12724668 0.048780844 0.03167209 0.5404242 0.30258632 -0.018737111 -0.14986233 -0.03589219 -0.3246844 -0.11773416 0.50736284 0.31674686 -0.5458052 -0.24277751 0.32750577 -0.17937364 0.33203045 0.36781716 0.21012804 -0.69785833 -0.16593578 -0.31478816 0.01063951 0.361248 -0.09013885 -0.30276075 -0.2916928 -0.19824505 -0.21727356 0.018566735 0.20474242 0.003072415 0.22865583 -0.24682532 -0.36791718 -0.16859221 -0.39309162 -0.30869025 0.4127381 0.35754672 0.020135531 0.32884845 0.116199315 -0.47035104 -0.090918876 -0.24723525 -0.056164943 -0.03009561 -0.5668017 0.09372147 0.00062675704 -0.080481656 0.12525989 -0.19260074 -0.40057674 -0.281568 -0.4397301 0.5234481 -0.37267113 0.11221625 0.23029023 -0.4778417 -0.10626814 -0.37796196 -0.008690769 0.0601776
wecH -0.37819052 -0.49238855 -0.06952229 -0.026271915 0.1049298 -0.16246249 -0.11260607 -0.48784977 0.4514149 0.1865241 0.45105228 -0.14989674 0.26217553 -0.0866806 0.06978356 0.3973623 0.11833764 -0.18325864 -0.046443816 -0.18108834 0.3048031 0.39972487 0.52633387 -0.39291278 0.041101493 0.4536991 -0.10656064 -0.18572259 -0.2760528 0.07543749 0.04799925 -0.5248579 0.17638332 0.2785011 0.06063601 -0.4551321 -0.43292004 0.03019997 -0.34023762 0.2651229 0.25741866 0.375238 0.10759757 -0.20391735 0.10929144 -0.015051996 0.25577 0.17362306 0.43187892 -0.050510697 0.065037556 -0.068845265 0.38648003 -0.08613021 -0.12332991 0.0769986 -0.38068202 0.45508793 0.19459987 -0.11887354 0.2538526 -0.018425792 0.22889021 0.344952 -0.27754536 0.596854 0.22662528 -0.5281763 -0.19944714 -0.10596398 -0.39085388 -0.21258631 0.09065236 0.28634256 -0.18814519 -0.06510771 0.30722436 -0.31880522 0.30798855 0.14042872 0.079041496 -0.69777906 -0.21379447 0.10818445 -0.12170542 -0.030405704 0.015752986 0.19179796 -0.12374363 0.22340646 -0.5189024 0.03922117 0.35436916 0.44939837 0.013080757 0.11572145 -0.36338082 0.13845368 -0.24427725 -0.32196477 -0.35026324 0.049881883 0.46744156 -0.002675747 -0.3238607 0.20584087 0.077213444 0.017439744 -0.40232724 0.53980935 -0.022359777 0.3890189 0.2001166 0.13223763 -0.39709142 -0.15845685 0.03200007 -0.19566901 -0.14845665 0.33420333 -0.12310459 0.3802402 0.044762038 -0.43820897 -0.06570582 -0.004828492 0.10960781 -0.27717265
rhtB -0.35741085 -0.46466303 -0.088044874 -0.011404974 0.093662106 -0.14414783 -0.114016876 -0.4568066 0.44407982 0.18928866 0.44659853 -0.15649447 0.24988016 -0.11155161 0.064826414 0.3796268 0.09356277 -0.17902128 -0.04657945 -0.17424187 0.29680303 0.39318895 0.50159967 -0.3718642 0.040022522 0.4399214 -0.11105362 -0.16687201 -0.26923138 0.058730513 0.035077285 -0.5083483 0.16795146 0.26611188 0.055047303 -0.4585294 -0.40906888 0.0306904 -0.33758345 0.26960376 0.2551671 0.3547275 0.11151299 -0.20259105 0.097446084 -0.01225909 0.25064802 0.16840304 0.4258004 -0.06277929 0.064045385 -0.061154168 0.36350277 -0.089818366 -0.10736329 0.06973149 -0.40071124 0.45502895 0.18831252 -0.10865363 0.24204941 -0.004522006 0.21786363 0.3294216 -0.26404563 0.5931159 0.22658889 -0.5224704 -0.186306 -0.09852716 -0.40257925 -0.19057599 0.09290436 0.28161988 -0.18414932 -0.05078133 0.3102087 -0.31975424 0.30069384 0.12036827 0.05550366 -0.6853139 -0.20688687 0.119653136 -0.121974885 -0.01983612 0.0071404628 0.19438432 -0.13026491 0.21883492 -0.5058396 0.045769196 0.34752578 0.43352708 0.02371092 0.12742558 -0.35885224 0.14017648 -0.26915944 -0.3018295 -0.3285238 0.059700444 0.44248593 -0.004384187 -0.3150687 0.1859491 0.074213006 0.033989895 -0.3803837 0.52439606 -0.02091178 0.3632631 0.19851917 0.11718727 -0.3728437 -0.14468901 0.01418725 -0.18557101 -0.14506787 0.35015306 -0.11983452 0.36921766 0.04246345 -0.42966852 -0.060564164 0.012491312 0.10813375 -0.28486252
glpD 0.10839401 0.3364307 -0.002442806 -0.03197791 0.016779562 0.38711983 0.14993426 0.1297889 0.5634991 -0.16149609 0.4279819 -0.27074727 0.43347245 -0.31501964 0.049248766 0.23751359 -0.33520016 -0.04714776 -0.18031429 0.09945364 0.16725075 0.30173486 0.083705254 0.3482031 0.14632085 -0.14551447 -0.20667063 -0.03321498 0.2150784 -0.16556773 -0.1447929 -0.20917854 0.37000194 0.25483117 0.08954373 -0.107400715 -0.25542986 -0.11342559 -0.2029398 0.1101453 -0.1909249 0.0132699795 -0.24759011 0.099195324 0.37103176 0.014200984 0.12155888 0.080361746 -0.15770534 0.0153400805 -0.20777188 0.37220597 0.008636288 -0.20478912 -0.2791177 0.31678614 -0.80588436 0.26189688 0.120998055 -0.19114752 -0.30487695 -0.26096895 -0.17444044 -0.2584177 0.24286847 0.2014739 0.18329123 0.015922137 -0.19965461 -0.25813216 -0.41669452 -0.2582255 -0.25920478 -0.13727729 -0.19876122 0.14721602 0.51998764 -0.19125965 0.23654121 -0.03867413 -0.44051293 -0.68988657 0.15083554 0.102641195 -0.33071548 0.4259395 0.14077064 -0.16663076 -0.4313719 0.2102566 -0.19783284 -0.017708829 0.56625086 0.2012041 0.37366536 -0.05518843 0.04884107 0.1461013 -0.51324624 0.117959335 0.11779586 0.008471785 -0.01946231 0.07367394 0.042101644 0.09414223 -0.13668962 0.26472387 0.15253244 0.29619104 -0.09777081 0.22107318 -0.2765762 -0.076867275 0.18242337 0.3373475 -0.033734757 0.105587505 -0.3513039 0.34707692 -0.22870813 0.23417783 0.1775726 -0.64151853 0.2203198 -0.02970196 -0.1518653 -0.49816513
phoQ 0.39533222 0.036242764 -0.040619586 -0.16001233 -0.15613249 0.59988374 0.2491001 -0.14112024 0.243084 0.1978779 0.11736483 -0.24838226 0.44096103 -0.5863029 -0.22683468 0.3200142 -0.37976667 -0.054690287 0.15857269 0.2292862 0.21170624 0.061371643 0.26060712 0.18256548 -0.18024157 0.2320417 -0.4715971 -0.11250387 -0.13259402 -0.45133433 0.27431723 0.015774019 0.038301073 0.42293435 -0.3730542 -0.27361622 0.010784503 -0.20778583 -0.58098626 -0.055656157 0.11711065 0.10191046 0.32668522 0.13732898 -0.11510697 -0.036514647 0.36438364 -0.0098699005 -0.039385423 0.20215787 -0.29882666 0.30074492 0.1747043 -0.20882405 0.23488142 -0.0669985 -0.08966466 0.43383673 -0.013105159 -0.03038225 0.2537196 -0.17029066 0.11672135 0.03919464 0.029095428 0.5356779 0.2945827 -0.023877285 -0.15291804 -0.031277724 -0.33480617 -0.10690118 0.47807276 0.30381277 -0.52424496 -0.2160994 0.33463213 -0.19521956 0.32052633 0.3476615 0.18064953 -0.6816192 -0.14450064 -0.2866014 -0.0014964987 0.35751656 -0.08390068 -0.27764973 -0.29755276 -0.18506053 -0.211423 0.019637916 0.22180958 0.0102591785 0.23364292 -0.21777631 -0.3559141 -0.15881325 -0.41882634 -0.29618677 0.40028527 0.3482279 0.010639695 0.31543908 0.1145006 -0.44851997 -0.08212953 -0.2183888 -0.04432843 -0.005890195 -0.54146206 0.08969178 0.005311267 -0.08914157 0.11642163 -0.17592351 -0.39265373 -0.27642068 -0.42545992 0.53380203 -0.37015545 0.10665735 0.22947113 -0.47994936 -0.1054283 -0.34628212 -0.015561005 0.01753336
ydfG 0.41456014 0.029974012 -0.0434263 -0.17113656 -0.16138162 0.6224006 0.26040977 -0.1613097 0.24465203 0.2055985 0.1096076 -0.2524394 0.46156707 -0.6047099 -0.23878433 0.33047366 -0.3959938 -0.051729053 0.17708501 0.2384694 0.21913077 0.06271012 0.2849708 0.1842552 -0.18601187 0.24644375 -0.49759543 -0.12058298 -0.14547595 -0.47248602 0.29164383 0.018650645 0.036405593 0.44324556 -0.38959605 -0.27775732 0.014156407 -0.21586742 -0.5981427 -0.06566885 0.118258595 0.11434697 0.34470695 0.1369904 -0.12508836 -0.034903284 0.38010752 -0.0069761937 -0.04284785 0.21753749 -0.31126192 0.30887598 0.18925546 -0.21661632 0.2552205 -0.07574231 -0.07552161 0.45243463 -0.01842405 -0.024032235 0.27207768 -0.18347526 0.12510812 0.05296359 0.021334896 0.5506397 0.30567506 -0.029809508 -0.15704173 -0.036079675 -0.3414775 -0.11179064 0.50138587 0.3209918 -0.54849476 -0.24384949 0.3429637 -0.19299363 0.33652827 0.36558896 0.20068115 -0.70575196 -0.16258888 -0.2992578 0.0017671486 0.36667502 -0.090664364 -0.2907278 -0.30115622 -0.19248693 -0.22061191 0.021388952 0.21716285 0.003834244 0.23680937 -0.23844296 -0.37103063 -0.16470319 -0.42128348 -0.30964163 0.41214988 0.3612671 0.017410543 0.3242362 0.11503239 -0.47367093 -0.08395582 -0.24209271 -0.0495704 -0.014348374 -0.57192546 0.09101023 0.002006394 -0.087642245 0.122227676 -0.18425205 -0.41124025 -0.29335365 -0.44616106 0.5441736 -0.3855506 0.115392484 0.22708622 -0.49033982 -0.112138346 -0.364409 -0.012398603 0.03801672
yeeJ -0.104377404 0.17810753 -0.45046937 0.3021995 -0.19103965 0.06174461 0.022073459 0.15321581 -0.01840894 0.08157907 0.42338392 -0.19191131 0.170604 -0.09113551 0.085573144 0.30434513 -0.32511684 0.33280015 0.12594694 0.23731667 0.34734008 0.23257707 0.08864376 0.5351204 0.07054784 0.06325096 -0.3502788 -0.0146969585 -0.021737985 0.06591296 0.38584733 0.05626747 0.10220562 0.42307386 -0.17748356 -0.28266948 -0.117171146 -0.27666613 -0.113574244 -0.13456567 -0.044893373 0.28231552 0.41250768 -0.00095433433 -0.09945613 0.166191 0.035604775 0.46510717 0.041952476 -0.19629768 -0.04275574 0.4820465 -0.40153882 -0.43192157 0.49495748 0.027107289 -0.3453326 0.41267782 -0.065095924 0.10980595 0.036137726 -0.42337796 -0.22447373 0.035577845 -0.3880265 0.2707424 -0.19709127 0.06303892 0.2259813 -0.25691152 -0.19469212 0.30344507 -0.18505056 0.07886736 -0.12466402 -0.0738194 0.5540876 -0.41399544 0.5099808 0.36066476 -0.015602251 -0.2773309 -0.06575452 0.19576344 0.10572909 -0.1176837 -0.4126073 0.36515895 -0.096738845 -0.3409059 -0.10127342 0.2680624 0.407619 0.11391061 0.02343631 0.29222518 -0.2334923 0.2740653 -0.66206145 -0.07893684 0.025559213 -0.042449676 0.10154465 -0.29965866 -0.12637238 -0.43099868 -0.3013486 -0.054375943 -0.29256845 0.5298044 -0.046228494 -0.048484296 -0.07680419 -0.211609 -0.06403678 0.48721895 -0.0565095 -0.4404069 -0.27330658 0.4875311 -0.43238118 0.15411368 0.0015456234 -0.1580981 -0.13226655 0.12394286 -0.14065059 -0.50836325
clcA -0.12079315 0.18462092 -0.46274197 0.32164508 -0.20018235 0.056371596 0.021103151 0.16159019 -0.031224934 0.085036874 0.44498613 -0.19861656 0.16996932 -0.07256423 0.09642826 0.30844674 -0.33156797 0.3502346 0.13575786 0.24258533 0.35659263 0.23195775 0.07971484 0.5625268 0.08122289 0.05796532 -0.35783082 -0.01970297 -0.017803665 0.07594422 0.3997238 0.0631884 0.11274041 0.4311138 -0.1769192 -0.2834296 -0.12518103 -0.2879497 -0.09606894 -0.13999206 -0.04692641 0.2922432 0.42101118 -0.00087098364 -0.10113473 0.17916152 0.031196736 0.4865839 0.044603594 -0.21192005 -0.040349603 0.49950305 -0.42448378 -0.44838366 0.51668817 0.025316555 -0.36020526 0.42618507 -0.068838455 0.110510066 0.030831594 -0.44256693 -0.24266706 0.030594205 -0.41023874 0.27091315 -0.21373782 0.074014224 0.2420014 -0.26953945 -0.19635957 0.31976613 -0.20383689 0.07550492 -0.11507785 -0.07715618 0.58001536 -0.42380103 0.5258268 0.37778956 -0.018858874 -0.2780679 -0.064907126 0.21424995 0.10537377 -0.1288413 -0.43519685 0.38898844 -0.10370094 -0.36127043 -0.105347805 0.28242078 0.4169281 0.11021503 0.018413102 0.31565022 -0.23379064 0.29759648 -0.6814744 -0.0799611 0.010012733 -0.051362865 0.11036942 -0.3172328 -0.12661771 -0.43850505 -0.30876818 -0.055774596 -0.3002055 0.55317 -0.034656342 -0.049765874 -0.088448316 -0.21476625 -0.064192176 0.5222346 -0.047401108 -0.45232958 -0.2748333 0.48926866 -0.44359738 0.16011131 -0.0072652264 -0.14707892 -0.14079653 0.12855066 -0.14822228 -0.5293543
folX -0.35203043 -0.45298252 -0.09088399 -0.011894252 0.08523533 -0.13171418 -0.106231324 -0.45023748 0.4455532 0.18921676 0.4490597 -0.16043603 0.2466151 -0.11683717 0.06181893 0.37957573 0.088242196 -0.17370468 -0.04836363 -0.1655951 0.30165625 0.3906154 0.48987988 -0.35927504 0.03671132 0.43123394 -0.11761423 -0.16151378 -0.26519102 0.05752034 0.044666365 -0.49416956 0.16598743 0.2733338 0.042262673 -0.46581638 -0.40238097 0.017061964 -0.34966254 0.27161762 0.2503733 0.35283187 0.12266744 -0.20026381 0.08852354 -0.006988287 0.25488865 0.17100713 0.42274445 -0.061838605 0.06228938 -0.05073996 0.35212392 -0.09904848 -0.097951025 0.06800967 -0.40011045 0.45619422 0.18256442 -0.10273919 0.2476386 -0.013209449 0.21689409 0.3215037 -0.26115662 0.5967923 0.22984576 -0.51205415 -0.18573175 -0.099584095 -0.40318197 -0.18278284 0.09777602 0.28787172 -0.18837015 -0.048637096 0.31251636 -0.3295184 0.30445284 0.12760511 0.063236006 -0.684642 -0.20634457 0.112686664 -0.12026473 -0.019730614 0.0033163973 0.19785011 -0.13416183 0.20749393 -0.49686307 0.048213605 0.35423866 0.43805745 0.018371794 0.1302901 -0.35647747 0.13118526 -0.282848 -0.30693704 -0.3158123 0.062452827 0.43622005 -0.00533953 -0.30497092 0.17217045 0.06816576 0.031394113 -0.3796243 0.5297006 -0.030374568 0.35905322 0.2041208 0.10826981 -0.37083903 -0.14415355 0.006773092 -0.1943379 -0.15079997 0.35707352 -0.1315016 0.36137855 0.052060276 -0.43715245 -0.074452296 0.014849975 0.09794691 -0.29296654
lpxD 0.07391985 0.096341915 -0.48097137 0.09112685 -0.1666827 0.22320566 -0.1302061 0.21217978 0.25373113 0.18363778 0.322096 -0.19144899 0.014886946 -0.54921556 -0.0063194684 -0.056952372 -0.50041115 -0.17808475 -0.23383693 -0.048608415 0.14904608 0.0032981858 0.14495575 -0.04359948 -0.16936682 0.06371207 -0.09257788 0.095851086 -0.08473379 -0.28547484 -0.30282196 -0.17987533 -0.0067915805 0.042162456 -0.095370404 -0.36001262 0.2431366 -0.045067687 -0.4935771 0.27675545 0.38170764 -0.1480073 0.2281863 -0.28583038 -0.2666562 -0.09536137 0.20688389 -0.17776358 0.37497193 -0.389235 -0.014830822 0.14807975 0.03389297 -0.22334123 0.21191798 -0.058251973 -0.6051278 0.48276716 -0.20783609 0.2270326 0.04892112 0.5098851 0.115793265 -0.17894007 0.10225647 0.45448616 0.28814888 -0.24711773 0.06498471 0.16842747 -0.47261485 0.28368452 0.17589092 0.15847018 -0.086696036 0.32718298 0.19835547 -0.2599735 -0.017345464 -0.32877582 -0.37157416 -0.25201955 -0.09631037 0.2873868 -0.13289894 0.11307571 -0.06769358 0.047407966 -0.1941969 0.13575988 -0.16867998 0.109414615 0.06794045 0.11435578 0.04726914 0.39806408 -0.2616429 0.066232346 -0.59635824 0.15669358 0.19434579 0.2680163 0.042761378 -0.059095662 -0.18993251 -0.32746574 0.009378093 0.3427193 0.00085527217 0.09347803 -0.056272056 -0.24120563 0.37914267 -0.13973993 0.2156882 0.05119187 -0.18388297 0.031199152 -0.21302123 0.4647884 0.06680956 0.110237986 -0.0446517 -0.22981885 -0.023025332 0.31203693 -0.023703417 -0.4511337
psiF 0.11598326 0.31901303 0.003823286 -0.034557 0.025353273 0.38344824 0.15138611 0.116923235 0.5536788 -0.16688624 0.41125268 -0.2606838 0.43526724 -0.30769518 0.053549204 0.2339299 -0.33750638 -0.049684703 -0.1745147 0.09137722 0.16017057 0.28965548 0.095717676 0.3353061 0.13992396 -0.1352058 -0.20639646 -0.04406972 0.21065095 -0.17893212 -0.1638086 -0.21356216 0.35857022 0.2505138 0.096402235 -0.08331094 -0.2642243 -0.103179246 -0.191223 0.09580622 -0.17735966 0.0138190305 -0.2544295 0.09984884 0.36485967 -0.0053517753 0.11241727 0.05426788 -0.15912819 0.02928591 -0.2247378 0.36761358 0.034704573 -0.1939913 -0.2737686 0.3192778 -0.78700876 0.25348768 0.12252042 -0.19071591 -0.30602416 -0.2609866 -0.16456148 -0.256147 0.23108204 0.1916393 0.18310407 0.013388088 -0.19434763 -0.25762054 -0.40303242 -0.26625386 -0.25363877 -0.14749253 -0.20692883 0.13913283 0.5039782 -0.17405471 0.23454732 -0.0435363 -0.4353752 -0.6855882 0.14139396 0.093184374 -0.3374225 0.4251619 0.14571123 -0.18058258 -0.43929967 0.20642045 -0.2055824 -0.027674388 0.54256964 0.19390914 0.36595577 -0.060569428 0.042525258 0.14512585 -0.49204832 0.1123446 0.107522726 0.010910517 -0.011080902 0.0748405 0.04205663 0.08365433 -0.13929674 0.24638744 0.1548379 0.2696092 -0.11056392 0.22206496 -0.28509882 -0.06299358 0.19008178 0.3329508 -0.03022222 0.108298995 -0.35381728 0.325755 -0.2141575 0.23174864 0.15822707 -0.627495 0.23008627 -0.04225258 -0.14053342 -0.46851748
queG 0.10180079 0.3247773 0.006915614 -0.018343886 0.016306542 0.36854708 0.15052235 0.12681812 0.5610857 -0.16157551 0.4138255 -0.25632215 0.42906103 -0.3079792 0.066296026 0.2268282 -0.31607926 -0.040856846 -0.17993285 0.092358 0.1549979 0.2908948 0.06550517 0.32749888 0.1501101 -0.15662566 -0.19741018 -0.018937431 0.22864999 -0.15326405 -0.16068679 -0.22021186 0.36945248 0.2419407 0.09769069 -0.07882436 -0.2631285 -0.1035826 -0.17583428 0.09867206 -0.19039668 0.01180254 -0.27754948 0.087978356 0.36275426 0.018893043 0.108997524 0.06181465 -0.14318754 0.01749125 -0.21183746 0.34117144 0.008159003 -0.19553027 -0.27953914 0.32134667 -0.8120489 0.25091496 0.14460157 -0.19637083 -0.32135016 -0.25981084 -0.15879197 -0.265436 0.24257323 0.19368364 0.18366882 0.016842403 -0.1961192 -0.25166687 -0.40593007 -0.26914164 -0.27310592 -0.14574991 -0.18007162 0.14979558 0.51638895 -0.17808598 0.21688908 -0.051090565 -0.45633575 -0.68006593 0.15080184 0.10661946 -0.34084663 0.42913425 0.15557986 -0.16910115 -0.43356836 0.22004727 -0.19385496 -0.02089976 0.54648554 0.20289822 0.3747984 -0.055352833 0.068609774 0.13510852 -0.4927135 0.116502956 0.10328383 -0.0027877418 -0.015657263 0.06805987 0.036176875 0.10301419 -0.118473426 0.26350433 0.17145519 0.2855794 -0.10366616 0.21397609 -0.28009558 -0.057865333 0.1762481 0.3358086 -0.030201044 0.10923599 -0.34064248 0.33687365 -0.2091906 0.2208236 0.1656565 -0.6391385 0.21797495 -0.021310896 -0.1526377 -0.49463555
diaA 0.078158185 0.09632348 -0.49535394 0.09480481 -0.1783487 0.23147435 -0.1373067 0.21483792 0.2626208 0.19087785 0.33058417 -0.19569926 0.025469327 -0.5715163 -0.0035212312 -0.052905906 -0.51387733 -0.17838609 -0.23502505 -0.047556248 0.1524423 -0.0019459287 0.15117118 -0.04706996 -0.17067379 0.063995905 -0.10228311 0.10450853 -0.07895932 -0.29724762 -0.30661082 -0.18383071 -0.0006635858 0.054765936 -0.109848715 -0.36263335 0.23905435 -0.042380825 -0.50712407 0.27707282 0.3855638 -0.14007676 0.22836034 -0.2967546 -0.27867258 -0.09077201 0.21822436 -0.18116541 0.3811783 -0.39083773 -0.015216415 0.15516505 0.029030224 -0.23625876 0.22450781 -0.06779068 -0.63466984 0.49930346 -0.1986376 0.23051764 0.04118775 0.5087979 0.12341177 -0.17760366 0.09638427 0.4694297 0.29907638 -0.25874966 0.062002335 0.16121899 -0.4909227 0.2859397 0.18303052 0.1686234 -0.09690537 0.33282766 0.21652223 -0.26403135 -0.010083661 -0.33007532 -0.38751978 -0.27242824 -0.09485299 0.298197 -0.14308996 0.13043375 -0.0714269 0.049333382 -0.2069432 0.1337535 -0.1780916 0.11245648 0.07184986 0.121255554 0.057615485 0.40365052 -0.2704643 0.06628181 -0.6205785 0.15460004 0.20277686 0.27683908 0.038693804 -0.057125796 -0.1944346 -0.3381533 0.013880976 0.34360373 0.008693867 0.10352348 -0.07138758 -0.2457023 0.3862602 -0.13656814 0.22163635 0.059372008 -0.1968671 0.02523723 -0.22382897 0.49451935 0.06842683 0.113252595 -0.041177303 -0.24966185 -0.025815226 0.31388217 -0.025989428 -0.4645423
yfcD 0.07120361 0.11243921 -0.5040259 0.08390422 -0.16473332 0.22587375 -0.14324513 0.23002787 0.25036463 0.184103 0.32191423 -0.20002775 -0.0030123512 -0.5546246 -0.009493992 -0.07540685 -0.51717603 -0.18894404 -0.2524762 -0.054761656 0.14696492 -0.010093869 0.14481819 -0.05229003 -0.18771093 0.05643511 -0.078965545 0.10381948 -0.081284344 -0.2830612 -0.32378033 -0.1773366 -0.015556222 0.01752376 -0.09395824 -0.36740342 0.27409166 -0.046010204 -0.514507 0.29546994 0.3899695 -0.17376325 0.23605311 -0.29545343 -0.27940914 -0.11177411 0.2084514 -0.18604375 0.3796638 -0.400702 -0.002760352 0.152899 0.031025218 -0.22272694 0.21023065 -0.06554604 -0.6089813 0.4834841 -0.23819593 0.24902312 0.05546749 0.5471108 0.11039187 -0.19568112 0.117628105 0.44778427 0.29262814 -0.24768347 0.073605165 0.18927868 -0.47139004 0.3085279 0.18422534 0.16070607 -0.08878584 0.36205116 0.18247056 -0.25796953 -0.034330595 -0.3520325 -0.38696706 -0.23589745 -0.09892413 0.30009714 -0.12318925 0.10765634 -0.06372107 0.0519157 -0.18524565 0.13654527 -0.17101215 0.10330205 0.058991663 0.114165835 0.036366727 0.4181423 -0.26701242 0.07028121 -0.6073883 0.17610627 0.21513022 0.2849894 0.03388817 -0.061695788 -0.19712551 -0.33150616 -0.0014295108 0.36769462 -0.0013337777 0.08919662 -0.0492898 -0.2666627 0.40437874 -0.14771236 0.2329097 0.03982527 -0.17594431 0.047580462 -0.21607032 0.4712581 0.07926165 0.102696925 -0.048392285 -0.21585365 -0.013833583 0.326807 -0.027897948 -0.45912144
yggU 0.079694055 0.095995605 -0.49435773 0.09321028 -0.17903957 0.22351295 -0.14368719 0.22095536 0.2571406 0.19650158 0.31051093 -0.18275829 0.005599482 -0.5634722 -0.0066495966 -0.076263994 -0.5076132 -0.18449403 -0.2428424 -0.066023715 0.13942313 -0.016064672 0.1352554 -0.0670119 -0.1757805 0.053290654 -0.078822315 0.118873626 -0.08142545 -0.29393965 -0.3269874 -0.17569515 -0.018680798 0.023902368 -0.10195238 -0.36107564 0.2680685 -0.0316956 -0.5063348 0.290056 0.40261036 -0.16131307 0.22302347 -0.30800995 -0.29008016 -0.101104744 0.20592277 -0.19891062 0.39354512 -0.41044343 -0.0019550726 0.1368167 0.028953198 -0.21987517 0.21474996 -0.0735509 -0.62472016 0.48098105 -0.21749422 0.23803921 0.046195213 0.5535653 0.13123858 -0.1898229 0.11195694 0.46194842 0.3025067 -0.26339835 0.06786917 0.18722348 -0.48952988 0.30052346 0.19067231 0.16867214 -0.078542 0.35068995 0.18188767 -0.25574696 -0.03639107 -0.36243817 -0.3939255 -0.23917672 -0.09283068 0.30766505 -0.14458285 0.12444219 -0.0635782 0.051573854 -0.19675036 0.1506398 -0.16285223 0.112715684 0.041583356 0.11381829 0.04602492 0.41629836 -0.26677668 0.05584633 -0.6058777 0.17823242 0.21388179 0.28741264 0.02747947 -0.0546771 -0.1992534 -0.3299052 0.030591423 0.36486134 0.017705396 0.071960516 -0.05661984 -0.2668741 0.40872696 -0.14294522 0.2374347 0.041276105 -0.19196028 0.044773094 -0.20500213 0.47112378 0.096551165 0.101103455 -0.042898457 -0.22811715 -0.027806228 0.3340172 -0.022752473 -0.45853978
bioH 0.07339554 0.10032595 -0.5112042 0.10090514 -0.18059617 0.22649671 -0.14928822 0.23049508 0.26945338 0.20372023 0.33195058 -0.19875665 0.0098823495 -0.5771394 -0.00093861663 -0.06872718 -0.5185447 -0.18962458 -0.25557402 -0.051974084 0.14454558 -0.0093953395 0.14355786 -0.06376521 -0.18882428 0.054166466 -0.09057215 0.11071599 -0.07699362 -0.29409915 -0.32112885 -0.19250858 -0.015942857 0.02902149 -0.115164734 -0.37139836 0.26995322 -0.043842215 -0.5306302 0.29874596 0.40779456 -0.16057451 0.22795579 -0.32155016 -0.29788375 -0.09862368 0.21252826 -0.20336655 0.41592517 -0.42021322 -0.00737388 0.13629557 0.025864994 -0.2266079 0.22565733 -0.0681594 -0.643967 0.50242704 -0.21314712 0.24477534 0.04953516 0.5614151 0.1322861 -0.1965088 0.11643962 0.47874978 0.31337684 -0.26437235 0.06777263 0.1879881 -0.49244437 0.30134726 0.19110022 0.17849652 -0.087104104 0.3630371 0.19660078 -0.2723276 -0.03680077 -0.3565641 -0.40295008 -0.2515086 -0.10035952 0.3132296 -0.14323772 0.12111273 -0.059958886 0.0476511 -0.20193037 0.14531758 -0.17369619 0.11484658 0.05236105 0.12300984 0.048432633 0.4235748 -0.27406436 0.054585155 -0.6213379 0.17196837 0.21536842 0.2878763 0.03192545 -0.06536912 -0.20609988 -0.3418198 0.025101554 0.36815083 0.008954138 0.09825827 -0.066375054 -0.27154392 0.42113185 -0.13972376 0.22531126 0.03851244 -0.18802837 0.035595037 -0.2197872 0.49711308 0.08510194 0.10791022 -0.04209569 -0.24384359 -0.030612577 0.34124872 -0.034882702 -0.47580168
fhlA 0.105714835 0.35382003 0.013068333 -0.040294312 0.041578915 0.382026 0.15269981 0.13874814 0.5787851 -0.18962115 0.4227289 -0.2713344 0.43834898 -0.28854203 0.053538255 0.24157996 -0.32124004 -0.046784572 -0.20522311 0.109583266 0.15127659 0.29783782 0.07299154 0.35174385 0.14223523 -0.17205505 -0.19317171 -0.041920118 0.24215129 -0.14384899 -0.16392444 -0.22745991 0.38349348 0.24126163 0.10341134 -0.07864651 -0.26398137 -0.11334609 -0.19326538 0.11345985 -0.21775651 0.0015593421 -0.30027702 0.107413374 0.39560068 -0.0035500624 0.10848304 0.056011017 -0.16436198 0.031841025 -0.22292382 0.36081412 0.01258488 -0.18727338 -0.32013023 0.35221526 -0.8122732 0.23790304 0.13171428 -0.20696957 -0.32436925 -0.27081093 -0.1791382 -0.29006013 0.26902446 0.1804557 0.19198422 0.04400651 -0.20640996 -0.25466013 -0.39809036 -0.29288578 -0.28139004 -0.16434364 -0.18849824 0.16876653 0.51757634 -0.17957807 0.21374379 -0.047309496 -0.46179253 -0.6937934 0.1528169 0.10050324 -0.34215125 0.43519044 0.17445685 -0.19274819 -0.44007486 0.22454464 -0.1969642 -0.03263843 0.5695883 0.20033276 0.38194248 -0.072651364 0.082027316 0.13994244 -0.48663378 0.12735744 0.11959971 -0.013248005 -0.020799778 0.074051574 0.039699595 0.12177053 -0.13697763 0.27550316 0.17182653 0.29658642 -0.102678955 0.22958152 -0.29584336 -0.06597553 0.18285659 0.34135422 -0.0061438484 0.13135546 -0.35535806 0.32613778 -0.22109713 0.22726083 0.17877576 -0.6456886 0.23811744 -0.038135055 -0.16242269 -0.5041864
