34 128
34 -0.062388666 -0.052903064 0.046702977 0.014754874 -0.16257767 -0.20022205 -0.0052375807 0.01195281 -0.14604567 -0.045647796 0.19906725 0.08738269 -0.27686766 -0.009953055 0.11069652 -0.08102908 -0.060029835 -0.074694574 -0.06838036 -0.11590065 -0.10306361 -0.027504474 -0.0033738804 0.17726111 0.1973335 0.023059553 0.2021171 0.19179931 -0.024767367 -0.022940498 -0.16841443 0.14121923 -0.04186154 -0.058286756 -0.2386997 -0.03096497 -0.013093957 0.049625006 -0.031245928 0.15425672 -0.041445382 -0.10640371 0.16539899 -0.11741766 -0.017696695 -0.032509148 0.21675797 -0.229734 0.1222675 -0.079392515 0.00585068 -0.13050036 -0.05809777 -0.08500798 -0.029412575 0.06049229 -0.046386957 -0.15847111 0.07338027 0.028700616 0.043234453 0.049197484 0.019351183 0.036982574 -0.05821218 0.03645562 0.018920673 -0.018372418 0.16876623 0.12977679 0.11469371 -0.12623215 0.06326817 -0.0016717818 -0.03165983 0.07135213 0.15048534 -0.0890772 -0.02851305 -0.039514463 -0.035850666 0.1398533 -0.04495639 -0.11768803 0.060180206 -7.0815906e-05 -0.08564377 -0.14355811 -0.09415199 0.056407146 0.033449072 0.091322415 -0.058720797 -0.058992263 0.14339653 0.058093254 0.08938856 0.09674772 0.03533687 -0.06774795 0.023619223 -0.0036094724 -0.030375082 0.029331125 0.056584083 -0.004224968 0.042991426 0.07673636 -0.088229224 -0.1229445 -0.26315004 -0.03367202 0.19772708 0.038186364 -0.0117634395 -0.11544512 -0.29531816 -0.011253691 0.13838612 -0.12004507 0.071999006 0.07719243 0.27541336 -0.06671309 0.1755273 -0.06562158 0.026305152 -0.055833794
1 -0.047598604 0.0007848815 -0.023506854 -0.011057954 -0.0873553 -0.13090524 -0.047640756 0.032392327 -0.017171403 0.040485084 0.090635695 0.04131639 -0.12976536 0.12086827 0.09760317 -0.07636994 -0.0031591395 -0.09119641 0.036881153 -0.059937373 -0.13828199 -0.056022707 -0.065134004 0.12170668 0.28637093 -0.008621385 0.046387743 0.064657964 -0.062153503 0.005786572 -0.13697274 0.12954754 0.047173973 -0.15606776 -0.18680608 0.07919918 -0.043231312 0.01063346 -0.046027 0.17738092 0.034752194 -0.12977882 0.04281394 -0.12052481 0.0021928684 -0.11462112 0.2003043 -0.3212069 0.10597147 -0.13714886 0.027261846 -0.17384727 -0.11005451 -0.17069808 0.0051379474 0.15323383 0.064481094 -0.15501301 0.03828755 -0.090348884 0.029830014 0.14065821 -0.027797451 0.027468286 -0.092806436 0.073312216 -0.05027511 -0.024151435 0.085142635 0.13249536 0.086329535 -0.19813685 0.12714125 0.0056690956 -0.072391964 0.06890798 0.11953543 -0.02385235 -0.0566471 -0.04153292 -0.088403985 0.13162567 0.017077824 -0.14627479 0.11620262 0.07849529 -0.21546935 -0.16400011 0.028178275 -0.023513172 -0.005577731 0.09852631 0.018111348 0.0073080403 0.0940802 0.08333699 0.15779796 0.053529955 0.014944208 -0.05988952 -0.09100244 -0.053452436 -0.06360976 -0.11707876 0.09158545 -0.116165325 -0.06146383 0.11026517 -0.12945431 -0.061362557 -0.26408318 -0.0811196 0.12051357 0.03920019 0.014465238 -0.05096846 -0.2526877 -0.058297664 0.21283089 -0.21310171 0.17406736 0.004115481 0.31868342 -0.14862552 0.18882938 -0.104005955 0.14948012 -0.02312254
33 -0.062998764 -0.055142846 0.050966073 0.0158866 -0.16506606 -0.20269619 -0.0050222483 0.005268261 -0.15178898 -0.052591693 0.20373556 0.09101179 -0.27578864 -0.010253652 0.10668873 -0.077413306 -0.06100623 -0.07246917 -0.06818434 -0.11624071 -0.0998718 -0.020612324 0.0030695775 0.17913741 0.19248082 0.016839724 0.2055289 0.19539835 -0.01698749 -0.03017554 -0.16578607 0.12927014 -0.043078937 -0.052179795 -0.23586936 -0.03465523 -0.011326747 0.049140688 -0.03390023 0.14524533 -0.0488549 -0.10076408 0.16651352 -0.11289582 -0.020697545 -0.027194476 0.21133424 -0.21943146 0.12461161 -0.0754005 -0.00045217286 -0.12840635 -0.050933808 -0.07705694 -0.02849708 0.050133493 -0.054101188 -0.15434825 0.07280206 0.04003503 0.04392978 0.044320427 0.017300947 0.035161436 -0.0623103 0.03486785 0.022789985 -0.01481143 0.16798897 0.13196346 0.113149315 -0.12577096 0.054415304 -0.0022033711 -0.03000817 0.071824506 0.1412754 -0.09243586 -0.027487678 -0.042919632 -0.037143208 0.13345337 -0.04592447 -0.11367775 0.05537671 -0.004437425 -0.07407195 -0.13017301 -0.08972835 0.05999745 0.040126007 0.08302877 -0.059490077 -0.059686333 0.14544788 0.054693855 0.0883447 0.100987 0.039166808 -0.06634273 0.028058426 -0.005424216 -0.03448506 0.036477264 0.054013647 0.002469822 0.0425675 0.077821076 -0.0791204 -0.12560159 -0.2593196 -0.029725164 0.19363925 0.043337665 -0.015428205 -0.113626435 -0.29413086 -0.0061407303 0.13755777 -0.11783145 0.06751825 0.0842155 0.26880273 -0.06374782 0.1756384 -0.057166487 0.020154547 -0.05551804
3 -0.045050297 -0.011235083 -0.01592429 -0.0023681256 -0.09310403 -0.13273299 -0.04145829 0.025361355 -0.032384813 0.025116468 0.09976227 0.04560156 -0.14653929 0.09624419 0.09872685 -0.07514407 -0.010177092 -0.08301919 0.022281267 -0.06340718 -0.12528242 -0.051590025 -0.05015209 0.12831055 0.25577375 0.0012458167 0.06501969 0.08472551 -0.047689755 -0.005338023 -0.13653593 0.12511362 0.03285018 -0.13051549 -0.18845697 0.05616708 -0.03663881 0.01641772 -0.04345107 0.16815537 0.025733197 -0.12295464 0.06242212 -0.11597621 -0.0033007918 -0.10483815 0.19710252 -0.28948087 0.09902378 -0.12685028 0.026229529 -0.15446843 -0.098962784 -0.1550274 0.0035227379 0.13473597 0.049916703 -0.14830787 0.03997416 -0.065479055 0.032281626 0.12402421 -0.011298418 0.024515746 -0.08189864 0.062375065 -0.0327488 -0.022391155 0.09205215 0.12811892 0.093275316 -0.17949514 0.11181725 0.0048263976 -0.065369934 0.06538379 0.121059395 -0.03220687 -0.050121203 -0.034641966 -0.0779011 0.12502038 0.0043010875 -0.13872366 0.09850572 0.05903069 -0.18190888 -0.15731278 0.0035218606 -0.0048385537 0.0025499307 0.09484004 0.0029462108 -0.0035823698 0.09511376 0.07586216 0.14346457 0.05793834 0.018010315 -0.062370922 -0.07426286 -0.04703768 -0.054335184 -0.08976438 0.07650246 -0.091588974 -0.044492498 0.10707615 -0.11708307 -0.07245041 -0.26115328 -0.06772311 0.13437718 0.03937891 0.0028320146 -0.06692228 -0.25209072 -0.044557318 0.19372839 -0.19368614 0.15095936 0.017944373 0.29848164 -0.124635264 0.18411301 -0.08953711 0.12560844 -0.03060755
2 -0.049390003 -0.014252805 -0.0071693966 -0.0032844574 -0.09992268 -0.14495166 -0.0376483 0.025934765 -0.048028275 0.014738788 0.114983484 0.05291588 -0.16667852 0.08499128 0.10214286 -0.07407381 -0.017505178 -0.08862536 0.009666172 -0.07607863 -0.1254723 -0.05202091 -0.045791604 0.13451985 0.25533116 0.0049671168 0.08554922 0.09807082 -0.046311364 -0.0068486617 -0.1474331 0.13017094 0.019920941 -0.12713048 -0.19753185 0.050259523 -0.039627455 0.020676957 -0.03833768 0.1721836 0.013434561 -0.11583807 0.08009473 -0.12009222 -0.004021725 -0.0993876 0.20661841 -0.29136786 0.10809508 -0.12544025 0.020158965 -0.1579463 -0.10030005 -0.15090744 -0.0068496754 0.122248076 0.036107957 -0.15907985 0.05186713 -0.05477373 0.038473707 0.119221225 -0.014074258 0.025000658 -0.084398754 0.05802337 -0.031446956 -0.016213648 0.10926387 0.12989652 0.096333414 -0.18056898 0.11242585 0.004719311 -0.056983583 0.06529654 0.124698766 -0.03966095 -0.044069275 -0.035611615 -0.07862189 0.13266215 -0.00021871756 -0.14407536 0.10111977 0.051937364 -0.17512771 -0.15472339 -0.010016153 -0.00037289693 0.002620487 0.095609955 -0.005982708 -0.012441326 0.10955327 0.0742551 0.13873762 0.060651626 0.02230142 -0.06755664 -0.06294344 -0.040280838 -0.053360865 -0.08019808 0.07493292 -0.08501195 -0.031924617 0.1074584 -0.12071099 -0.08650856 -0.26957917 -0.065256685 0.14263564 0.03920387 0.0037791678 -0.073884346 -0.26913196 -0.044195157 0.195574 -0.18753105 0.15044802 0.024720827 0.30877176 -0.12215795 0.18882182 -0.0870805 0.11462238 -0.032957148
32 -0.06108755 -0.03711044 0.03041187 0.001415399 -0.1448077 -0.17688416 -0.010531406 0.011821571 -0.1058456 -0.029297482 0.17051958 0.07507062 -0.23612736 0.029112209 0.09924012 -0.077849455 -0.039850283 -0.07278215 -0.04090132 -0.09539221 -0.10776761 -0.02621244 -0.011361298 0.16341001 0.2152214 0.01440484 0.15677619 0.15167616 -0.034582943 -0.017348511 -0.15591623 0.12780109 -0.018510053 -0.07875892 -0.21845295 -0.004123901 -0.025477257 0.037022226 -0.029717771 0.15657671 -0.028790662 -0.109566644 0.1350526 -0.115946725 -0.005064996 -0.04836707 0.214533 -0.25030264 0.12205894 -0.09905054 0.0077750795 -0.14050423 -0.063206844 -0.10475365 -0.018357292 0.079539016 -0.024179174 -0.14736088 0.06941161 -0.0002796203 0.03726061 0.06911133 0.0044880463 0.03147711 -0.062341943 0.046048045 0.0013210686 -0.009830727 0.14999342 0.13431305 0.10204302 -0.1391492 0.071725704 0.0022666487 -0.044335946 0.06779209 0.13955921 -0.072830275 -0.037452348 -0.033217307 -0.053189214 0.13242863 -0.025021058 -0.12325963 0.07612851 0.018561173 -0.11140391 -0.14367227 -0.05813604 0.03258559 0.030190585 0.08347436 -0.030679695 -0.045472335 0.12754132 0.056850266 0.10596729 0.08531108 0.044431575 -0.0632605 -0.0037043737 -0.017567366 -0.044389527 -0.0075934622 0.060401693 -0.034480494 0.020220706 0.079670444 -0.09588398 -0.101962894 -0.26302907 -0.03524644 0.17899884 0.047787935 -0.0020620353 -0.09076115 -0.28289273 -0.019945754 0.15908417 -0.13996783 0.09247176 0.0718726 0.27867815 -0.0857857 0.17923295 -0.07578705 0.055479202 -0.044640694
4 -0.053336404 -0.030171817 0.0053112227 0.00085121905 -0.11726925 -0.15965925 -0.022775667 0.022155955 -0.0758249 0.0010958099 0.14138147 0.061733454 -0.19433373 0.060299195 0.10021842 -0.07949362 -0.025242522 -0.08892266 -0.012264108 -0.09192475 -0.123012304 -0.039376993 -0.03619162 0.14358583 0.23449543 0.016230373 0.114677936 0.12232938 -0.0362254 -0.009960507 -0.14688838 0.1378781 0.007867202 -0.10852072 -0.2096884 0.024221519 -0.030330226 0.025916662 -0.03597341 0.16820554 -0.0032489663 -0.11861373 0.10367983 -0.1223646 -0.010916074 -0.07854849 0.20580113 -0.27185395 0.11239222 -0.11270738 0.01908864 -0.15698735 -0.087631166 -0.13281892 -0.013357621 0.10843921 0.011935806 -0.15266685 0.05732759 -0.03526609 0.040590137 0.101732455 -0.004097955 0.030427936 -0.076644324 0.050827287 -0.020259906 -0.013446939 0.124788344 0.13211547 0.09717889 -0.16792631 0.09386814 0.008352752 -0.05048207 0.0641945 0.13449305 -0.060016353 -0.044664107 -0.042867605 -0.0643557 0.13330656 -0.0064420486 -0.13844293 0.09109915 0.033041645 -0.1540999 -0.16049284 -0.035713643 0.014066641 0.015790464 0.09841256 -0.023166908 -0.02165181 0.12104039 0.0677538 0.12607448 0.0700265 0.029467456 -0.0724096 -0.035541397 -0.033116333 -0.043518662 -0.05389102 0.06639482 -0.06419373 -0.011446908 0.09727763 -0.11091285 -0.09309663 -0.27543396 -0.061251875 0.16312896 0.04165821 -0.0017029747 -0.089416936 -0.2748751 -0.038313325 0.1855104 -0.17690614 0.13317977 0.044774365 0.30681598 -0.11081576 0.18420945 -0.08726956 0.094291925 -0.043455634
24 -0.06816172 -0.05858268 0.05008782 0.015007393 -0.17540221 -0.2035088 -0.011380163 0.009860474 -0.14568305 -0.052435555 0.20470943 0.086250864 -0.28222105 -0.008171719 0.10223849 -0.08037163 -0.061564263 -0.07267695 -0.06707376 -0.111512244 -0.101443715 -0.019485936 -0.0012592559 0.18192233 0.19096223 0.02115667 0.20446382 0.18903601 -0.019566715 -0.026821535 -0.16503015 0.13154486 -0.040645156 -0.055066206 -0.23002215 -0.03498482 -0.01634371 0.046316553 -0.03051452 0.15058784 -0.04419916 -0.10265623 0.16786076 -0.11026272 -0.013968912 -0.023708077 0.21622477 -0.22521362 0.12193344 -0.077624984 -0.0009860194 -0.12974711 -0.053413823 -0.08155762 -0.029809756 0.04970488 -0.056684494 -0.14759313 0.07955322 0.033871017 0.04166624 0.04296446 0.0072030644 0.040483486 -0.06399557 0.03666333 0.01952393 -0.017754596 0.16595288 0.13301896 0.113376744 -0.121742696 0.053868663 0.0007347521 -0.028110655 0.07663888 0.14469217 -0.09111918 -0.026405925 -0.035085127 -0.0398556 0.13897957 -0.041190874 -0.117134206 0.05322729 0.00011150038 -0.07775672 -0.13461365 -0.092713185 0.050400294 0.038442217 0.0806622 -0.056293502 -0.066952765 0.14031649 0.05748541 0.08412502 0.09592179 0.03739458 -0.06280675 0.024509607 0.0010443965 -0.028512143 0.037917595 0.057289544 0.0032293708 0.049735047 0.07352906 -0.086893246 -0.12360709 -0.26327688 -0.026338262 0.19707304 0.048558895 -0.008617096 -0.11181613 -0.29417086 -0.0109828655 0.13021183 -0.110443965 0.06457068 0.08668495 0.27016646 -0.062033694 0.17786661 -0.063786134 0.01812723 -0.05069397
14 -0.05289756 -0.021343427 -0.00130529 0.0016412778 -0.11593311 -0.15470007 -0.034612715 0.026108755 -0.061481435 0.009339841 0.1266106 0.05427564 -0.17882453 0.069791555 0.103311785 -0.07307596 -0.024370596 -0.08675107 -0.0036781887 -0.07633671 -0.124328196 -0.045373652 -0.03718002 0.14470118 0.2519915 0.008048781 0.10477578 0.10939825 -0.04690447 -0.008078284 -0.14394765 0.132481 0.015088147 -0.118934385 -0.20847368 0.034518313 -0.03668768 0.026053295 -0.040684897 0.16804554 0.0095185675 -0.117438056 0.09069006 -0.11684149 -0.0072276657 -0.0880613 0.20465156 -0.28624728 0.11297688 -0.118918054 0.022026986 -0.15522468 -0.094556935 -0.14275508 -0.007812463 0.12129596 0.026324598 -0.15758726 0.053898036 -0.04516332 0.03683108 0.11004962 -0.007959502 0.03349242 -0.078070275 0.061829887 -0.024121493 -0.022455504 0.11451529 0.13409497 0.098325126 -0.17429079 0.10554482 0.00030974307 -0.0585341 0.069499455 0.1281559 -0.04746813 -0.047871064 -0.03560361 -0.07025873 0.1325891 -0.0054786364 -0.14268182 0.09149128 0.048386086 -0.1652067 -0.1591448 -0.016924303 0.011336117 0.010593683 0.091903456 -0.013230729 -0.024035124 0.11405548 0.07227702 0.13404106 0.07050928 0.027105562 -0.067410596 -0.05352356 -0.037222013 -0.055173445 -0.0665271 0.07214039 -0.077471256 -0.018856566 0.09716687 -0.11656993 -0.08943075 -0.26916432 -0.06441385 0.15336062 0.04112494 -0.0013116735 -0.077278934 -0.27113983 -0.03824354 0.18771671 -0.18101561 0.14050339 0.0316383 0.30601147 -0.11669921 0.18948534 -0.08454831 0.102157526 -0.037923243
28 -0.064510286 -0.048855525 0.038482163 0.009354697 -0.15195411 -0.19276735 -0.008571338 0.010938193 -0.13148847 -0.03280797 0.18273535 0.08646184 -0.25476995 0.002986589 0.1057423 -0.07371775 -0.049326904 -0.071482636 -0.052580953 -0.10616113 -0.10256294 -0.029121889 -0.008912569 0.16357721 0.19995205 0.01725183 0.1789788 0.1669285 -0.029987201 -0.024044894 -0.1556986 0.13359375 -0.025417088 -0.06313555 -0.22516367 -0.020907596 -0.01865955 0.043317433 -0.030948892 0.15723786 -0.031770006 -0.10344973 0.15253972 -0.111998424 -0.014647521 -0.039714668 0.21163392 -0.2362346 0.12062293 -0.08288643 0.010349151 -0.13778795 -0.061923683 -0.092515826 -0.024336407 0.062353857 -0.036927134 -0.14969599 0.0705473 0.018417383 0.04233247 0.062361002 0.012481789 0.035361942 -0.061188772 0.04153683 0.010281695 -0.009057129 0.15729246 0.1261823 0.11014676 -0.13954295 0.0638823 0.0002471199 -0.037877075 0.06497854 0.13935897 -0.085082196 -0.027522156 -0.03761943 -0.041524805 0.13526735 -0.033749893 -0.11962709 0.070005454 0.0012040247 -0.09903839 -0.1385253 -0.07559005 0.043804687 0.03173534 0.08166755 -0.049836542 -0.053920604 0.13803452 0.05549042 0.094722316 0.08861438 0.03427014 -0.068400845 0.0085071605 -0.0062065786 -0.03638663 0.007614979 0.057553433 -0.015280539 0.02875536 0.075282425 -0.090160176 -0.1188829 -0.25635526 -0.03326027 0.18014587 0.0388882 -0.0065425145 -0.10927603 -0.28197086 -0.01243823 0.14993629 -0.12714104 0.08253251 0.072278716 0.27604076 -0.07112189 0.17162442 -0.06355426 0.03478085 -0.04878537
6 -0.042201757 0.020652795 -0.037477773 -0.022738911 -0.06506161 -0.10104271 -0.058952726 0.044502314 0.032808736 0.0720104 0.06272289 0.020419275 -0.077595435 0.1633418 0.08741705 -0.07634914 0.016891522 -0.084730536 0.07974911 -0.025558058 -0.14586271 -0.060462743 -0.08173151 0.111283585 0.30353156 -0.029440446 -0.011661879 0.016157713 -0.07039868 0.017756416 -0.1130187 0.10673873 0.07642618 -0.19145106 -0.16286592 0.113757454 -0.05208106 -0.0064134025 -0.045595013 0.16571014 0.07138245 -0.13937746 -0.009194292 -0.105034456 0.020330789 -0.1398042 0.20180824 -0.34165514 0.08930101 -0.14628582 0.035827264 -0.18436801 -0.13633819 -0.19489534 0.02761225 0.18469113 0.107121274 -0.1422609 0.024381809 -0.13945071 0.017083839 0.16250025 -0.040752538 0.023536686 -0.10079852 0.08889523 -0.0692314 -0.037830867 0.056830373 0.14249669 0.076771945 -0.20792875 0.15500903 0.0023645025 -0.09003769 0.07519719 0.09693886 -0.0023677498 -0.07669928 -0.03940429 -0.1054416 0.12684195 0.037370518 -0.15535928 0.12566413 0.108516894 -0.25629538 -0.16600709 0.08275811 -0.05578176 -0.00611433 0.10211968 0.05136045 0.029518928 0.065802075 0.08889241 0.18116422 0.04070646 0.0041231574 -0.044587824 -0.13594872 -0.05981719 -0.069985576 -0.16492733 0.110368654 -0.1510082 -0.091809176 0.11786769 -0.15105672 -0.028904608 -0.27003473 -0.10253233 0.098962866 0.04831802 0.020709088 -0.025715325 -0.23071301 -0.07531847 0.22758672 -0.24971831 0.19944963 -0.017489458 0.321598 -0.17187524 0.19420284 -0.121295415 0.18323341 -0.021773983
9 -0.06120876 -0.027839584 0.007357923 -0.0015544068 -0.12987463 -0.16373247 -0.030304827 0.02472924 -0.07548375 0.00013781647 0.1452603 0.061650928 -0.20317042 0.0627703 0.106273465 -0.083134964 -0.025660181 -0.08031963 -0.013680555 -0.08698074 -0.1243847 -0.044342197 -0.038400427 0.15592237 0.2466115 0.0068384362 0.120457895 0.12526354 -0.04459523 -0.0107332 -0.15403862 0.13406573 0.0032532588 -0.11591677 -0.21668205 0.0324451 -0.03063181 0.023602905 -0.035542764 0.16521478 -0.0018698323 -0.119334005 0.09902475 -0.12188953 -0.0022689991 -0.07920062 0.21270539 -0.28523192 0.12025539 -0.11285226 0.013948855 -0.15365775 -0.08939865 -0.13767569 -0.007302352 0.11339837 0.012184451 -0.16172941 0.057814296 -0.037193872 0.03474451 0.09971379 -0.0064462735 0.03138452 -0.077705815 0.06257772 -0.015508563 -0.026066069 0.1294804 0.13794482 0.099894084 -0.16549571 0.10073556 0.0018544194 -0.052170597 0.072280765 0.13341254 -0.056387413 -0.04700711 -0.035898227 -0.06939379 0.13719906 -0.007872425 -0.13600928 0.0911707 0.040068455 -0.15893637 -0.15804324 -0.025984883 0.015897792 0.021056626 0.094987944 -0.012614055 -0.026345303 0.11546604 0.07032074 0.12359171 0.07199152 0.02833334 -0.06174486 -0.037506584 -0.029291363 -0.04780532 -0.051670212 0.075337425 -0.06135089 -0.008723857 0.09519794 -0.117709115 -0.09344858 -0.27231407 -0.057737097 0.15802905 0.046560775 0.0017521846 -0.08486149 -0.27715644 -0.035893623 0.17742862 -0.17683312 0.13229255 0.04482815 0.30199617 -0.11129629 0.18577482 -0.08325457 0.093399025 -0.045419194
7 -0.04142067 0.026550403 -0.05123482 -0.02910281 -0.05552785 -0.08669301 -0.06397229 0.04945798 0.04630943 0.08114007 0.05377122 0.016186276 -0.05272142 0.18102022 0.081930876 -0.073103204 0.0257327 -0.08682817 0.09619365 -0.011491112 -0.157188 -0.06258874 -0.0907037 0.09978809 0.32482034 -0.035464864 -0.031843033 -0.000115893316 -0.08010112 0.019217962 -0.10916663 0.10062293 0.087996066 -0.2052113 -0.15796965 0.13539334 -0.059333682 -0.015496787 -0.051025074 0.16696945 0.084965706 -0.1509472 -0.02655172 -0.104395196 0.027252302 -0.15069683 0.20330027 -0.3590434 0.082137205 -0.155168 0.037787504 -0.18325822 -0.13797906 -0.20789167 0.040046066 0.19822763 0.12516607 -0.14051062 0.019059332 -0.15339568 0.014006668 0.17685732 -0.050858863 0.02725377 -0.11112728 0.0939834 -0.078045025 -0.040521078 0.044561945 0.14168192 0.07121309 -0.21983108 0.16430111 0.0027078982 -0.09488573 0.07604843 0.09038605 0.0041045 -0.08507856 -0.041934453 -0.10952802 0.123634055 0.04484777 -0.16156639 0.13326134 0.127814 -0.2743145 -0.16907379 0.10352724 -0.06801515 -0.006980071 0.09770818 0.06967575 0.0362317 0.05909856 0.09171542 0.19261476 0.031711098 0.005357577 -0.045373835 -0.14956284 -0.07139228 -0.0738419 -0.18660827 0.119491026 -0.16777867 -0.10174713 0.12500478 -0.15586033 -0.021197995 -0.27567184 -0.10807257 0.09075132 0.054986246 0.022475988 -0.016998066 -0.22588474 -0.078042015 0.23987544 -0.2660797 0.21742384 -0.02920437 0.32775322 -0.19126743 0.19311248 -0.12787563 0.20516188 -0.012244266
30 -0.06509693 -0.055953167 0.046342954 0.019799294 -0.16923894 -0.2060559 -0.0041757426 0.011341479 -0.15407176 -0.05457123 0.20717311 0.08613302 -0.28639594 -0.007585228 0.10512856 -0.08251879 -0.059487317 -0.07534682 -0.071422115 -0.11379447 -0.10517595 -0.019744247 0.000771419 0.18546121 0.1888426 0.017033128 0.20898876 0.19442609 -0.0174472 -0.02828825 -0.16841674 0.1337538 -0.03987826 -0.05541719 -0.23276499 -0.035127807 -0.010329438 0.046177562 -0.03459112 0.1544852 -0.0426437 -0.1059745 0.16555235 -0.10690833 -0.016685143 -0.027466675 0.21258616 -0.22831129 0.12582316 -0.07463777 0.0008540489 -0.13398808 -0.05916879 -0.078061916 -0.03156882 0.048922457 -0.051347084 -0.15437716 0.08181658 0.03951745 0.03860702 0.04223001 0.016685836 0.03918811 -0.06014158 0.032458313 0.020850362 -0.015917879 0.17102006 0.13385093 0.11358755 -0.12537554 0.05262775 0.001964982 -0.03268382 0.07882912 0.14323261 -0.09241558 -0.025331954 -0.039790545 -0.034123536 0.13484669 -0.04482983 -0.12292527 0.052383553 -0.0025954463 -0.0718567 -0.14163403 -0.09717224 0.05525441 0.037721675 0.08905802 -0.06308191 -0.064251 0.14941071 0.06035288 0.09002875 0.100491464 0.032850243 -0.06383751 0.023248352 0.0014436351 -0.029252252 0.038539805 0.05658482 0.0047940956 0.049903095 0.07899779 -0.08298825 -0.12434317 -0.26557335 -0.030815642 0.20284559 0.03930981 -0.011136347 -0.11393161 -0.2945607 -0.011717333 0.13412808 -0.11870495 0.066230044 0.081804045 0.27875453 -0.066647425 0.18031542 -0.06412461 0.017867532 -0.052629925
8 -0.05163672 -0.010416763 -0.015371601 -0.004564902 -0.09217915 -0.13143003 -0.03744171 0.033876322 -0.035355616 0.027956923 0.10803155 0.04415011 -0.1476231 0.09857507 0.095591344 -0.06819293 -0.013871059 -0.08699352 0.02407695 -0.06593213 -0.12816101 -0.051795818 -0.051626004 0.12680608 0.2683619 0.0011215971 0.06335088 0.08279035 -0.049557455 -0.0015682954 -0.13629314 0.12649354 0.03704901 -0.13850586 -0.197086 0.062744804 -0.037564073 0.015040069 -0.04685546 0.16377598 0.026071612 -0.12246978 0.065188184 -0.1205015 0.0015869864 -0.10650338 0.19899443 -0.30118895 0.10505846 -0.1251377 0.022968663 -0.15980114 -0.10586654 -0.16007608 0.0034712658 0.13895527 0.048259538 -0.15723146 0.040277272 -0.073289745 0.028390108 0.13066667 -0.019384846 0.028543938 -0.08605682 0.0656459 -0.03471259 -0.023541369 0.09305491 0.13078478 0.0930451 -0.18861035 0.12127991 0.0029694282 -0.063518085 0.068684794 0.11606037 -0.032229703 -0.056497473 -0.043108884 -0.08255321 0.128942 0.01277548 -0.14431725 0.105432086 0.066294804 -0.19527496 -0.15513808 0.009463406 -0.005476708 0.005397072 0.089991406 0.006747237 -0.0007472905 0.09850936 0.0761147 0.14373262 0.05562332 0.019472485 -0.062152267 -0.07887112 -0.044278424 -0.05891319 -0.09309232 0.082236566 -0.099472195 -0.045723338 0.107177414 -0.12515867 -0.06909072 -0.2695778 -0.07678609 0.12956943 0.04225481 0.0076635685 -0.06317131 -0.25595334 -0.047407307 0.20175095 -0.20053947 0.1602162 0.0150055485 0.31199703 -0.13216624 0.18350625 -0.09275095 0.12973851 -0.03402739
26 -0.06581938 -0.040277336 0.0334248 0.0026052226 -0.14652121 -0.17872241 -0.012194817 0.014131183 -0.11238603 -0.029638924 0.16533801 0.078562506 -0.23624308 0.016982261 0.10548006 -0.070617355 -0.0492659 -0.06695961 -0.04628912 -0.10085719 -0.109781794 -0.030291405 -0.010529073 0.16042891 0.2053248 0.016231546 0.16399279 0.15885009 -0.03037487 -0.014707922 -0.15606067 0.13004681 -0.026055157 -0.07102568 -0.22019307 -0.0027527746 -0.029144043 0.03830076 -0.030744003 0.16008957 -0.026543926 -0.10985705 0.13680807 -0.11563392 -0.0071577914 -0.049711775 0.21245492 -0.24539407 0.121040225 -0.09109195 0.009426672 -0.14105667 -0.06242356 -0.10591139 -0.024631778 0.079304844 -0.027111415 -0.15138756 0.064983614 0.0069737313 0.044070695 0.068448275 0.0037291509 0.034036364 -0.06481267 0.04715491 -0.0035130102 -0.0117668975 0.1520461 0.13239074 0.10855652 -0.13721322 0.078857966 -0.003308866 -0.03676188 0.0684663 0.14289613 -0.078260906 -0.034816418 -0.037074387 -0.048508827 0.13335316 -0.03498837 -0.12119371 0.07342302 0.014252464 -0.11456656 -0.14320965 -0.061931908 0.0386697 0.03419165 0.0877954 -0.036649052 -0.04883465 0.12981641 0.0556821 0.09747376 0.0857771 0.04120234 -0.061783906 -0.0018158349 -0.016164716 -0.044031028 -0.0046058497 0.06559204 -0.03283749 0.018931458 0.080808125 -0.09816331 -0.10902538 -0.26288876 -0.033438925 0.17918962 0.04152216 -0.00228301 -0.10058772 -0.28350565 -0.02242747 0.15866573 -0.13682151 0.09372879 0.07326324 0.2758783 -0.076856844 0.17705734 -0.076107584 0.05148448 -0.043886133
11 -0.044923525 0.019223047 -0.040321168 -0.021396428 -0.058169454 -0.09691028 -0.056953568 0.044608276 0.031382114 0.0692397 0.05968384 0.018143035 -0.069954656 0.15889381 0.08348217 -0.07045306 0.016228192 -0.088142864 0.07308255 -0.023720361 -0.13974105 -0.05405838 -0.08146589 0.10775188 0.3021124 -0.021904696 -0.007356733 0.020058338 -0.070106514 0.014106431 -0.1136463 0.10060406 0.07208505 -0.18276846 -0.16369472 0.11079002 -0.05184678 -0.011350079 -0.049288 0.15509115 0.06765029 -0.14056662 -0.0069151213 -0.10789219 0.013692552 -0.13605745 0.19320904 -0.33024812 0.0895947 -0.14154923 0.036555544 -0.1749418 -0.13143052 -0.18900804 0.030418396 0.18041708 0.10463826 -0.14120723 0.020396436 -0.12894325 0.01922371 0.16277067 -0.042006508 0.027445102 -0.09920062 0.08470756 -0.05954189 -0.038275395 0.05300271 0.13360865 0.07570237 -0.20315506 0.14661673 -9.48468e-05 -0.08649795 0.07608487 0.097274624 -0.00095774035 -0.071872056 -0.038337126 -0.10446881 0.12239092 0.037005246 -0.15376087 0.12549663 0.10907252 -0.24827527 -0.15748243 0.076065324 -0.049468942 -0.0072695045 0.095096044 0.049417846 0.024424214 0.06489229 0.08441169 0.17748319 0.037461556 0.006693025 -0.050264556 -0.12897064 -0.061709426 -0.06621484 -0.15910012 0.10726511 -0.14704609 -0.087945476 0.116879456 -0.14513011 -0.034527674 -0.26525757 -0.104475506 0.09396665 0.0506941 0.020203186 -0.024709797 -0.22299379 -0.07163823 0.2199682 -0.24246539 0.19455677 -0.016334735 0.31779456 -0.17088279 0.18619956 -0.11327819 0.18130745 -0.021734064
25 -0.061658464 -0.043633115 0.036190826 0.0047434103 -0.15794243 -0.18616922 -0.0161514 0.010802327 -0.12247527 -0.036835097 0.18346709 0.08738247 -0.25637683 0.019469397 0.10417978 -0.07900191 -0.05082337 -0.07257656 -0.04833431 -0.09891763 -0.11161902 -0.0314084 -0.0092672985 0.1743748 0.21331558 0.010324989 0.1777548 0.16585231 -0.031516284 -0.017368304 -0.16622266 0.13368943 -0.024097495 -0.073696665 -0.23196718 -0.007191166 -0.022462767 0.04631846 -0.03508547 0.16745698 -0.028929878 -0.11055926 0.14764777 -0.116758525 -0.0055320654 -0.05268102 0.21873175 -0.25335336 0.12201481 -0.09214017 0.010695881 -0.14271289 -0.06881173 -0.107731484 -0.021581016 0.078077376 -0.0328669 -0.15755635 0.07354114 0.0149509 0.039107773 0.06353616 0.0032842837 0.031523716 -0.071280695 0.042583562 0.0043702917 -0.008864546 0.16237386 0.14235942 0.11266629 -0.14626135 0.0768428 0.00039734997 -0.04266072 0.071113296 0.14331824 -0.07682617 -0.039613318 -0.039767563 -0.046863124 0.14302187 -0.037418105 -0.12858783 0.07371522 0.017724605 -0.11183088 -0.14693718 -0.06361728 0.04080922 0.03434044 0.0915178 -0.046007212 -0.052538086 0.13858561 0.058366716 0.10945399 0.08880213 0.0427239 -0.0631795 -3.790119e-05 -0.015175356 -0.04520849 -0.0019124218 0.06616139 -0.024394864 0.023509534 0.08603677 -0.10052645 -0.11789668 -0.28016174 -0.03331312 0.19078921 0.050041724 -0.0063237245 -0.10758603 -0.30360985 -0.020835727 0.16599897 -0.14616495 0.09026659 0.07450332 0.29028276 -0.0826626 0.1920889 -0.075637415 0.051790934 -0.044365432
5 -0.043512285 0.017403891 -0.034043733 -0.01721804 -0.07216521 -0.113783784 -0.050444078 0.042653896 0.01579324 0.064373426 0.07221018 0.026640568 -0.09522019 0.14924543 0.090363696 -0.072457105 0.009542617 -0.089081444 0.06802077 -0.03290871 -0.15109317 -0.056724727 -0.075275004 0.11488383 0.31194508 -0.020922909 0.007843777 0.04085639 -0.071756564 0.011365312 -0.1248726 0.116444394 0.070697926 -0.18618932 -0.18445499 0.10759062 -0.04992292 -0.005205964 -0.046639457 0.17032278 0.05929257 -0.14643745 0.009285641 -0.11071464 0.013475454 -0.13419862 0.20770292 -0.3502074 0.096334144 -0.15216137 0.033207305 -0.18135078 -0.12976825 -0.1884574 0.025578419 0.18400095 0.09454957 -0.15481728 0.02819419 -0.12561235 0.021655263 0.16041027 -0.034811612 0.023869844 -0.103756666 0.088660344 -0.06083581 -0.035963986 0.06721764 0.14623769 0.07986534 -0.21697839 0.15340786 0.0065110778 -0.08878113 0.07901147 0.10571737 -0.013054112 -0.07634412 -0.043207966 -0.09908132 0.13141395 0.029179694 -0.15987806 0.12620685 0.10839133 -0.25365618 -0.16804399 0.067563824 -0.044127084 -0.009259587 0.10305906 0.04505776 0.021559503 0.07753461 0.08825668 0.18270266 0.04268888 0.01746783 -0.05368431 -0.12470087 -0.063129626 -0.0733005 -0.14928924 0.11109155 -0.13799801 -0.08587573 0.12417777 -0.14731774 -0.045239452 -0.28090632 -0.10533507 0.11624942 0.051402677 0.016669748 -0.035558436 -0.24573009 -0.069261275 0.22969596 -0.2490346 0.19356214 -0.007481742 0.34030527 -0.17622508 0.20026857 -0.11430789 0.17965591 -0.022349415
29 -0.061531734 -0.035737496 0.024068523 0.0072288676 -0.13877106 -0.17748183 -0.020720696 0.019800205 -0.10440667 -0.022123693 0.16443442 0.078240074 -0.2308671 0.036582623 0.10588995 -0.07943245 -0.03964009 -0.08020336 -0.034228526 -0.092067875 -0.11848962 -0.035110306 -0.02411205 0.16213548 0.22795562 0.010981068 0.15011446 0.14912944 -0.039263006 -0.01454452 -0.15931271 0.13551903 -0.010264102 -0.09155787 -0.22375838 0.004856785 -0.022450736 0.036399275 -0.03901382 0.16498251 -0.017622286 -0.11526255 0.12562042 -0.12011364 -0.007409657 -0.059315965 0.21545203 -0.2632179 0.121957645 -0.09857757 0.011391316 -0.14360456 -0.07805994 -0.11716012 -0.015993657 0.08957438 -0.01143637 -0.15638617 0.060200233 -0.007585559 0.04028026 0.08186382 -0.00026127862 0.030537995 -0.07189884 0.04938293 -0.0066442857 -0.017927207 0.14267388 0.13434593 0.10766845 -0.15423743 0.08696349 0.0038917423 -0.04845453 0.07053338 0.14035447 -0.06786256 -0.04070868 -0.039643012 -0.058262967 0.1365073 -0.021305604 -0.13130103 0.07973895 0.023738107 -0.1254414 -0.14857031 -0.04989614 0.033080976 0.023580158 0.086415716 -0.03439092 -0.040364902 0.13194056 0.061636955 0.11017855 0.08316809 0.034908608 -0.062870175 -0.017604945 -0.024152474 -0.046605747 -0.022508396 0.07032835 -0.04079226 0.006682947 0.09158694 -0.10255552 -0.10823519 -0.27189192 -0.04551517 0.17649901 0.046716027 -0.00096918584 -0.09536027 -0.288006 -0.02389369 0.17168485 -0.1514925 0.10632341 0.061586887 0.28928167 -0.091591924 0.18160456 -0.08081063 0.06733722 -0.047050152
20 -0.059189107 -0.022846736 0.011898348 0.0011352296 -0.12295131 -0.15663084 -0.027982442 0.023431603 -0.0780856 -0.0050117075 0.14137165 0.06468744 -0.18989594 0.05701168 0.0982413 -0.06793267 -0.030968722 -0.07921072 -0.010951491 -0.0852221 -0.113407984 -0.03779779 -0.02965378 0.14442591 0.23053423 0.008182978 0.11491228 0.12001935 -0.034731112 -0.0114108855 -0.1386555 0.124254294 0.006942749 -0.09518095 -0.20044279 0.026602445 -0.03209787 0.025666723 -0.03804077 0.15334903 -0.0063966643 -0.10781039 0.09994391 -0.11389314 -0.0023996034 -0.073779434 0.19464587 -0.2594464 0.10764621 -0.10376579 0.015088059 -0.14630343 -0.076770835 -0.124428056 -0.01097283 0.10098994 0.0077986186 -0.14697325 0.058145285 -0.024529612 0.03535916 0.08497918 -0.00821353 0.031310033 -0.0721972 0.054977994 -0.017014071 -0.011490594 0.119042285 0.124548465 0.09396629 -0.15221833 0.08883464 0.0015619865 -0.045853745 0.0619803 0.12309645 -0.056332957 -0.03920715 -0.036577113 -0.057407882 0.12336263 -0.012201455 -0.12183935 0.08430608 0.03627812 -0.1374561 -0.13452218 -0.029204382 0.010358612 0.017340511 0.08216394 -0.01940201 -0.028698212 0.112445794 0.06585487 0.10966375 0.064001225 0.032804083 -0.061174054 -0.034345534 -0.029419405 -0.043479286 -0.04201318 0.06487426 -0.05306832 -0.009659074 0.089812204 -0.10044212 -0.088627346 -0.24316779 -0.05166312 0.14267515 0.042958498 0.005971669 -0.0752749 -0.25295666 -0.032005496 0.16440573 -0.1537422 0.1166148 0.047448806 0.27349088 -0.09510219 0.16844268 -0.07397649 0.081483535 -0.033956412
31 -0.060099885 -0.03411296 0.016963514 0.00832487 -0.1308913 -0.16756888 -0.024457874 0.014167656 -0.08856436 -0.009757603 0.1512101 0.06897406 -0.2037565 0.037199195 0.095117085 -0.07547287 -0.035930056 -0.074801974 -0.024535041 -0.09020392 -0.1060509 -0.03624833 -0.026573272 0.14735855 0.21575323 0.008654193 0.13575198 0.13140471 -0.030514365 -0.012892247 -0.14544088 0.122589394 -0.004235589 -0.08645741 -0.19938844 0.009030606 -0.023994837 0.034112424 -0.032497197 0.15196763 -0.014395743 -0.108977415 0.11146422 -0.11003022 -0.006505854 -0.056010805 0.19480446 -0.24684304 0.10660486 -0.09303636 0.014156905 -0.13263214 -0.07191306 -0.11037558 -0.013079745 0.08218941 -0.00859461 -0.14664368 0.06111627 -0.009678597 0.034910772 0.076931454 -0.0034180072 0.032523226 -0.070447326 0.04541762 -0.0088146785 -0.015260833 0.1270033 0.11989385 0.098160364 -0.14555092 0.081521265 -0.0010493953 -0.04127531 0.06283349 0.12383427 -0.057426497 -0.039355397 -0.035272762 -0.053468633 0.1251184 -0.02027174 -0.123222396 0.076181635 0.022730641 -0.12027759 -0.13951366 -0.046388857 0.022462927 0.018225761 0.081139706 -0.02451839 -0.03527892 0.11482491 0.062271893 0.10162441 0.07335641 0.02444765 -0.05830847 -0.01862106 -0.018312974 -0.039440848 -0.025620926 0.062444676 -0.044875488 0.0010833271 0.080411255 -0.09710102 -0.095236205 -0.2454988 -0.044983316 0.15475631 0.042514004 -0.0023898857 -0.08323336 -0.25674477 -0.028451152 0.15531696 -0.14351293 0.105798684 0.049956184 0.27137497 -0.085096955 0.17140186 -0.07001079 0.06398468 -0.04453225
17 -0.04422863 0.017540082 -0.03664837 -0.02351044 -0.06745937 -0.107523665 -0.058023654 0.042227484 0.025967047 0.06807481 0.06867508 0.019683374 -0.08116799 0.14733408 0.087613314 -0.07372032 0.0104515 -0.085183434 0.071697 -0.027745226 -0.14459246 -0.05339259 -0.078480296 0.11014296 0.30149078 -0.023894377 0.00081272563 0.025447922 -0.07172334 0.01662166 -0.11541553 0.10602263 0.068214245 -0.18541911 -0.17460915 0.10497807 -0.052936878 -0.008157018 -0.050724678 0.15923746 0.06472265 -0.143311 0.0014196103 -0.107160054 0.01849885 -0.13265261 0.20244853 -0.33930054 0.09132796 -0.14556408 0.033655945 -0.18022685 -0.1279629 -0.18332501 0.028598705 0.17523335 0.09771313 -0.15050557 0.028364476 -0.12845328 0.019800898 0.15925123 -0.04189493 0.03047446 -0.102042094 0.080578364 -0.057663914 -0.03591538 0.06196078 0.14103287 0.07967175 -0.2040884 0.14900456 -0.000994034 -0.08735396 0.07939938 0.10341089 -0.0118949665 -0.07603348 -0.03974716 -0.098893866 0.12802365 0.037516534 -0.15218203 0.124726646 0.1073034 -0.24900422 -0.16680454 0.06997032 -0.046208408 -0.0032895932 0.094799876 0.04875341 0.022344513 0.07022691 0.090621844 0.17987315 0.039664 0.009867016 -0.04825843 -0.12696697 -0.06315158 -0.066406496 -0.15294722 0.10816632 -0.13966882 -0.08478466 0.11796669 -0.14456707 -0.041987974 -0.2702483 -0.10324831 0.10148346 0.051338635 0.018927203 -0.029365368 -0.23444247 -0.07345483 0.2231224 -0.23962311 0.19564934 -0.017185934 0.3251409 -0.16950263 0.18956402 -0.11383373 0.18085687 -0.022721974
27 -0.059824318 -0.05181235 0.03873223 0.009157361 -0.15856001 -0.18933217 -0.011737863 0.010015545 -0.13046573 -0.033707272 0.18873139 0.07832035 -0.25569043 0.0051691453 0.107550904 -0.077896185 -0.0520728 -0.07344557 -0.05791115 -0.10697597 -0.10616579 -0.027614785 -0.009423808 0.17107843 0.20371436 0.018638652 0.1772787 0.17405225 -0.029547386 -0.021703346 -0.16033 0.13021895 -0.030296268 -0.0662852 -0.22881685 -0.020066189 -0.015868671 0.038762003 -0.033176064 0.15438074 -0.03620497 -0.11012718 0.15118812 -0.108015515 -0.018316478 -0.03599334 0.21446703 -0.23618588 0.11985419 -0.08226847 0.008388824 -0.1316787 -0.06697224 -0.0945335 -0.029076913 0.06340588 -0.036247928 -0.15539731 0.07388529 0.020321367 0.037973292 0.054916054 0.013264604 0.038897872 -0.06663007 0.039084002 0.012791106 -0.017865747 0.15931498 0.13271058 0.113226615 -0.13543983 0.063242115 0.0029681853 -0.03919718 0.074485086 0.14104451 -0.082585216 -0.024559205 -0.039514896 -0.044590116 0.13580056 -0.039406136 -0.12629054 0.06140959 0.008795673 -0.09194043 -0.14216438 -0.07713649 0.045838233 0.031902842 0.08875635 -0.050796453 -0.05403483 0.13713335 0.05852967 0.09486014 0.09548779 0.029284041 -0.066616304 0.009129136 -0.008637769 -0.031188108 0.012789711 0.060117066 -0.014186666 0.035005733 0.076224 -0.08818737 -0.11369598 -0.2601277 -0.03813757 0.18399374 0.045009334 -0.009718738 -0.107317835 -0.2844164 -0.016581135 0.14812303 -0.12916042 0.08446534 0.07217888 0.27540705 -0.07218006 0.17893039 -0.06982973 0.034404516 -0.052269038
18 -0.05760675 -0.019679356 -0.00012296415 -0.0048154294 -0.11141446 -0.14999291 -0.032641437 0.023815926 -0.059178352 0.011656272 0.1283769 0.058135267 -0.17978807 0.07420482 0.10588257 -0.073043264 -0.018517373 -0.083193496 0.004526177 -0.07596216 -0.124676004 -0.04615137 -0.04357374 0.13660872 0.2550469 0.009125658 0.09892957 0.1046467 -0.047462568 -0.009081523 -0.149354 0.1314401 0.01829229 -0.118981004 -0.2072719 0.041459646 -0.038518734 0.022446346 -0.037771758 0.1706158 0.0059373984 -0.119173035 0.088695675 -0.12423881 -6.020855e-05 -0.08684212 0.20767711 -0.29104012 0.11111131 -0.122754626 0.01830823 -0.16059242 -0.090194225 -0.1427337 -0.007327418 0.120277464 0.027308729 -0.15877908 0.047449253 -0.051942505 0.035065085 0.11348025 -0.009998802 0.03034241 -0.08032257 0.06217287 -0.026322635 -0.01519804 0.11724222 0.13483544 0.09731787 -0.17739952 0.10766012 0.0011939781 -0.060120303 0.0668154 0.13213584 -0.04372841 -0.047351 -0.036722127 -0.07195435 0.13284522 -0.00029892704 -0.13718253 0.101895116 0.04517999 -0.17390986 -0.16053845 -0.016523935 0.00686484 0.010200478 0.091021225 -0.0037994594 -0.015202916 0.10704604 0.07029867 0.13082218 0.063173436 0.025686659 -0.06857927 -0.05113607 -0.037513375 -0.055879094 -0.070963584 0.072337754 -0.08217646 -0.027227707 0.09706733 -0.11354893 -0.08890423 -0.2645152 -0.06516033 0.14614807 0.044953045 0.0062950104 -0.07319146 -0.26757497 -0.037090182 0.18775591 -0.18316482 0.14186832 0.03715948 0.30254808 -0.11741058 0.18252417 -0.09035414 0.10894346 -0.035968386
23 -0.06458166 -0.048699453 0.038326293 0.010875263 -0.16369645 -0.20482974 -0.017174372 0.009303978 -0.13436349 -0.039756913 0.19312407 0.08761871 -0.2661497 0.003188601 0.10511933 -0.08299234 -0.05641745 -0.07685023 -0.05900368 -0.11318576 -0.10359778 -0.02990033 -0.010252939 0.17896232 0.20203997 0.01683465 0.18662587 0.17949376 -0.019747585 -0.021673681 -0.1668653 0.13556367 -0.031414714 -0.06304954 -0.23290336 -0.024815375 -0.019916436 0.04365071 -0.031398512 0.1585177 -0.041517384 -0.10445797 0.15579042 -0.11398951 -0.017300313 -0.037168987 0.21124455 -0.2306323 0.12278162 -0.08399241 0.0042586573 -0.13728105 -0.055239093 -0.092375204 -0.029781515 0.06231153 -0.046249162 -0.1518776 0.07609281 0.021458834 0.045490764 0.053669564 0.0129031185 0.033378843 -0.06624269 0.04295315 0.013811374 -0.020041006 0.16240692 0.13257293 0.10869843 -0.13046813 0.06607191 -0.005052043 -0.027719472 0.07401654 0.13587964 -0.081981555 -0.026493281 -0.03971076 -0.03967765 0.13674398 -0.04092708 -0.12242389 0.062507056 0.0069344854 -0.08539935 -0.13404004 -0.08359573 0.04628686 0.030122077 0.089382894 -0.050247736 -0.058676522 0.14249092 0.05784308 0.08817614 0.09681031 0.032481506 -0.06263955 0.01676351 -0.0031467427 -0.035921987 0.024028972 0.05730469 -0.0076694153 0.03677026 0.079152524 -0.085543215 -0.12178917 -0.25664744 -0.031131411 0.18607536 0.039471835 -0.008251994 -0.10454538 -0.2828534 -0.015500788 0.13855411 -0.11844868 0.07311985 0.075138345 0.2719599 -0.0713737 0.1739851 -0.060899198 0.03132642 -0.05116363
19 -0.058679033 -0.050499693 0.039478555 0.01322853 -0.15679371 -0.19082777 -0.010881186 0.01006954 -0.13083859 -0.03997624 0.18652341 0.07793027 -0.25327575 0.0031589426 0.103522874 -0.07692552 -0.05277251 -0.07022484 -0.054569922 -0.10750242 -0.10188258 -0.024818685 -0.008861003 0.16711412 0.19045696 0.015146769 0.17522156 0.17257765 -0.02321249 -0.022653507 -0.15341201 0.12615316 -0.03383608 -0.062424738 -0.22290836 -0.025565987 -0.014416421 0.040224716 -0.03346778 0.14750685 -0.032816086 -0.10230758 0.14936303 -0.107178755 -0.018636707 -0.036057852 0.20653969 -0.22082873 0.12021543 -0.07846695 0.0033698473 -0.12973556 -0.06129094 -0.08601603 -0.024498137 0.063163705 -0.0430972 -0.14675504 0.06959582 0.019438904 0.038681723 0.04899587 0.009340354 0.032498512 -0.057252143 0.03969154 0.01468204 -0.017211508 0.154791 0.12651648 0.10759616 -0.12654851 0.059202068 -0.00013549792 -0.028744247 0.07215157 0.13861662 -0.083951324 -0.028279372 -0.036453683 -0.037484467 0.1295796 -0.036609724 -0.11916734 0.057474576 0.003462122 -0.084531106 -0.13559264 -0.08224891 0.04379645 0.029201653 0.085792325 -0.050324045 -0.05108091 0.13506322 0.058811396 0.08776769 0.089217566 0.03145159 -0.058943138 0.014546475 -0.0051635136 -0.03348732 0.02315286 0.052923173 -0.005205277 0.03196145 0.07447926 -0.084688924 -0.11439997 -0.2525783 -0.033397667 0.18128473 0.038319856 -0.006011718 -0.10432897 -0.27375048 -0.013251131 0.13415459 -0.11686154 0.072338305 0.07298327 0.26493925 -0.06827237 0.16773196 -0.06334097 0.031712513 -0.04746777
16 -0.06436901 -0.055785183 0.040983193 0.014760868 -0.16094081 -0.19549769 -0.011676061 0.010712228 -0.13685787 -0.042932015 0.1913905 0.08228487 -0.26216003 -0.0035371955 0.107152574 -0.08029255 -0.058877487 -0.07121202 -0.06277648 -0.11121367 -0.10276779 -0.023115402 -0.007985214 0.16709556 0.18562809 0.022718355 0.18537746 0.17876619 -0.022268998 -0.026711669 -0.15794429 0.12754615 -0.03228639 -0.058121856 -0.2221744 -0.024742335 -0.009398036 0.046672788 -0.029729757 0.15248041 -0.03767384 -0.099819735 0.15729117 -0.11026817 -0.01868392 -0.03308378 0.202018 -0.22377986 0.11616974 -0.07607719 0.0026304666 -0.12858221 -0.056416657 -0.08650695 -0.025550043 0.05150407 -0.046742085 -0.14867567 0.07611172 0.028649792 0.04026355 0.04537563 0.0086497655 0.036472507 -0.06453087 0.038384628 0.018169364 -0.018176647 0.1559785 0.12615985 0.10844941 -0.1301967 0.056656566 -0.0025892789 -0.03146878 0.06885137 0.13702646 -0.08812844 -0.023772322 -0.039664235 -0.035286546 0.13244532 -0.039402205 -0.11572724 0.061624367 -0.0040513566 -0.07992284 -0.13322496 -0.08583433 0.05071091 0.035997566 0.08500067 -0.053254545 -0.053005025 0.13474423 0.059944227 0.086983964 0.0958172 0.029839149 -0.06489229 0.023195073 -0.0017348186 -0.029634684 0.023178823 0.051064417 -0.005802368 0.03903797 0.071889475 -0.08726726 -0.11890721 -0.25117427 -0.030960493 0.18397593 0.039484188 -0.010241489 -0.111011446 -0.28206348 -0.015791485 0.13359496 -0.12042261 0.07380908 0.074643075 0.26943234 -0.068232246 0.16951317 -0.059215773 0.027184086 -0.05390135
15 -0.06723634 -0.052752666 0.051536523 0.017530521 -0.17323603 -0.2093775 -0.009890276 0.006595952 -0.15014248 -0.04886528 0.20300408 0.08833241 -0.28247744 -0.0028949033 0.11121227 -0.08447115 -0.062318046 -0.06989432 -0.06620364 -0.11327894 -0.10383047 -0.024409985 -0.0056759627 0.18392444 0.19861174 0.017398756 0.20259972 0.19368583 -0.018435117 -0.023994163 -0.17080055 0.13459298 -0.041658793 -0.058683574 -0.23446187 -0.03051508 -0.01699458 0.048912447 -0.030015022 0.1560376 -0.04643275 -0.10691841 0.16657653 -0.1133901 -0.014703936 -0.028781705 0.21933576 -0.22628872 0.12569886 -0.07955903 -0.0001877548 -0.13185637 -0.057870362 -0.084834814 -0.031684212 0.05359466 -0.052760627 -0.15673983 0.080296405 0.030688876 0.041887343 0.04646824 0.011194089 0.034674738 -0.06450893 0.04116801 0.013288377 -0.018421786 0.16481666 0.1352185 0.111334704 -0.1296992 0.056709692 0.00012035381 -0.02719365 0.07425412 0.14222416 -0.09153495 -0.025157357 -0.0416024 -0.038863722 0.13877115 -0.04178037 -0.11766845 0.060449783 -0.002491732 -0.08343399 -0.13967754 -0.091125295 0.049184103 0.03964524 0.0884406 -0.053825915 -0.06147746 0.14727326 0.05779537 0.083549164 0.09541314 0.040550657 -0.059646294 0.028126104 -0.0027110518 -0.033243436 0.02903156 0.05574211 0.0015169005 0.045062296 0.075916745 -0.08672659 -0.12104872 -0.26394284 -0.028232623 0.19737135 0.042166922 -0.006786286 -0.114959896 -0.29368737 -0.008284925 0.13666946 -0.115858816 0.07373762 0.08706475 0.27106225 -0.0614611 0.17447345 -0.06591509 0.023086414 -0.056925002
10 -0.049979232 -0.023719303 0.007078061 0.005113225 -0.11717696 -0.1541657 -0.026781308 0.018094156 -0.06893261 0.0012456398 0.13693203 0.059751153 -0.18353514 0.05424904 0.0982466 -0.070130646 -0.030040776 -0.080735706 -0.011297476 -0.0731159 -0.11504304 -0.04156009 -0.032766897 0.13800316 0.22745377 0.0061277216 0.10947796 0.11210277 -0.040821757 -0.0127893565 -0.14072172 0.12542787 0.011700766 -0.106120616 -0.20535056 0.02484648 -0.024211382 0.02548923 -0.038895354 0.15533064 -0.00016316153 -0.10964756 0.09258224 -0.10816069 -0.004915371 -0.07372537 0.19763544 -0.2638328 0.10971292 -0.103471264 0.013366305 -0.14854126 -0.08400688 -0.12683848 -0.011339263 0.10056533 0.013533814 -0.15113299 0.05287345 -0.029432286 0.029970743 0.096007064 -0.0021249878 0.031934444 -0.07869681 0.049657516 -0.01723532 -0.017228916 0.116371155 0.12654331 0.095090136 -0.16290581 0.09587611 0.004621483 -0.05537018 0.0683466 0.12132862 -0.05243523 -0.039232053 -0.04063163 -0.063847944 0.12915133 -0.0058439733 -0.1329153 0.08678179 0.037773304 -0.14579928 -0.14555457 -0.02201135 0.013110365 0.014470805 0.08545383 -0.012930579 -0.02252396 0.11201424 0.0672853 0.12282361 0.07305028 0.027386615 -0.063593805 -0.036740564 -0.031430267 -0.04401908 -0.051298015 0.07403676 -0.060088024 -0.0092649 0.09478206 -0.10629673 -0.086032726 -0.26027638 -0.062364858 0.15411521 0.04642856 -0.001051853 -0.07868163 -0.2674506 -0.031387363 0.1728561 -0.17081356 0.12408604 0.034481667 0.2921025 -0.10416261 0.1823626 -0.079541914 0.09210894 -0.041345302
22 -0.05233648 -0.01593921 -0.0008627816 -0.0042903707 -0.11277336 -0.14965811 -0.03232633 0.021684734 -0.057152633 0.007206749 0.13003615 0.05276979 -0.17444967 0.07019416 0.10016486 -0.07199072 -0.024620073 -0.08263809 -0.0017729475 -0.07759935 -0.12258162 -0.044285964 -0.040964037 0.14232853 0.23718604 0.0066138585 0.09919733 0.10945264 -0.04396561 -0.007159386 -0.13956766 0.12708077 0.0094900355 -0.1122484 -0.1960351 0.040516842 -0.032872416 0.021705933 -0.037037697 0.1608145 0.006997995 -0.11782343 0.08451518 -0.11692069 0.0022390904 -0.08392705 0.20035972 -0.27825087 0.11037307 -0.116597496 0.019292409 -0.15330073 -0.0885099 -0.13760489 -0.005590083 0.114006415 0.02156856 -0.14851785 0.05285753 -0.040366344 0.032609772 0.09957339 -0.009205288 0.030045733 -0.073633455 0.05937546 -0.023655389 -0.02322816 0.11235255 0.13195716 0.09549518 -0.1658564 0.099358596 0.00397019 -0.04985345 0.06450664 0.1236921 -0.04412091 -0.050167266 -0.039468 -0.06594577 0.13087183 -0.001702128 -0.13127865 0.08881697 0.042065978 -0.16042684 -0.14901628 -0.01795438 0.006483506 0.015954034 0.09003394 -0.009259468 -0.020036213 0.11014427 0.06909398 0.12523572 0.06670587 0.02366847 -0.060100883 -0.051030107 -0.029982852 -0.04919564 -0.064330846 0.0766133 -0.07307468 -0.023101233 0.095894516 -0.113663726 -0.08533071 -0.25771034 -0.059421882 0.14732583 0.041798417 0.0023406108 -0.069131 -0.26180825 -0.040428426 0.18012208 -0.17320898 0.13377847 0.035036843 0.28844514 -0.10790354 0.17960718 -0.085698895 0.09750817 -0.036439884
13 -0.05785972 -0.026901858 0.0125449365 0.0033942778 -0.12342234 -0.15973239 -0.02109803 0.018158205 -0.086244546 -0.010915933 0.14444381 0.0634032 -0.2058997 0.048213903 0.10211586 -0.076028064 -0.030486858 -0.07929126 -0.023919549 -0.08889191 -0.11518577 -0.035752423 -0.032288287 0.15231681 0.23121162 0.0065468345 0.124588214 0.12760928 -0.03438969 -0.0113327 -0.15368202 0.13477631 0.0022177692 -0.099219814 -0.20795026 0.013800479 -0.032353558 0.030616937 -0.03588946 0.1653987 -0.005255273 -0.11680324 0.113053255 -0.120928235 -0.0042896564 -0.07415014 0.2109834 -0.26503408 0.11716347 -0.1090216 0.018819107 -0.14852703 -0.082812175 -0.12678331 -0.014460729 0.10186531 0.0012242709 -0.1592702 0.060370777 -0.018908134 0.035555746 0.09032738 6.5442786e-05 0.027987435 -0.071267694 0.051606152 -0.014984121 -0.021387197 0.12864019 0.13376196 0.10382554 -0.155335 0.09129134 0.0038475203 -0.04703257 0.06419611 0.13149714 -0.055979237 -0.0433565 -0.037390664 -0.06194581 0.1345304 -0.016134856 -0.12836464 0.084649205 0.029583165 -0.13731568 -0.151316 -0.042106047 0.019018596 0.013646415 0.09177208 -0.028554695 -0.030068407 0.12227034 0.06815173 0.11749964 0.07167922 0.028662253 -0.061250646 -0.031929564 -0.029817378 -0.04885227 -0.034944993 0.06770324 -0.056427035 -0.004960394 0.09499197 -0.10167003 -0.09582544 -0.25991097 -0.049494512 0.16473258 0.036967214 -0.005682176 -0.083421886 -0.27211854 -0.03132346 0.1685605 -0.16106352 0.12221478 0.049587354 0.29481298 -0.09748012 0.18491502 -0.080337346 0.08143177 -0.04278143
21 -0.06351573 -0.04661069 0.032661162 0.0149249965 -0.15437351 -0.18486434 -0.012607734 0.011479492 -0.12561335 -0.036395214 0.18007462 0.07661386 -0.25072768 0.00637201 0.10078786 -0.07908635 -0.047969844 -0.07143754 -0.05632859 -0.103480555 -0.10678345 -0.02635983 -0.010671475 0.17056455 0.19488649 0.0152774025 0.17736965 0.16985816 -0.022226097 -0.025590172 -0.15921178 0.1302309 -0.030982632 -0.061544348 -0.21481495 -0.018946523 -0.018092223 0.037954 -0.02869078 0.150811 -0.032772236 -0.09997123 0.1388598 -0.10613362 -0.015287653 -0.03819402 0.20357397 -0.23020877 0.116047375 -0.07999078 0.0050776964 -0.12912777 -0.062269263 -0.08767674 -0.020386307 0.066213705 -0.038080577 -0.14996725 0.06841506 0.016561558 0.036353663 0.05626292 0.0064059542 0.030731818 -0.06440826 0.038863864 0.010216556 -0.017361064 0.14945088 0.12880538 0.10823406 -0.1301247 0.06508278 -0.001267993 -0.029637007 0.06975251 0.13203417 -0.07934159 -0.02909698 -0.037086684 -0.03928989 0.13060088 -0.039434817 -0.11902174 0.064594686 0.0060445783 -0.08918924 -0.13781461 -0.075671434 0.041713607 0.033340212 0.08238497 -0.044461824 -0.054313857 0.13350423 0.06031165 0.08932253 0.08931377 0.030385291 -0.060495824 0.009029218 -0.008074109 -0.03275751 0.015629005 0.05689236 -0.016234098 0.027561463 0.07802362 -0.08486947 -0.11299942 -0.25342426 -0.030635025 0.181241 0.037071504 -0.011596378 -0.10252649 -0.27651903 -0.017094832 0.13884212 -0.12564231 0.07771209 0.06762941 0.26786554 -0.06844665 0.1683847 -0.06843329 0.034065157 -0.04893211
12 -0.05906972 -0.020807998 0.005701347 0.004184705 -0.12447544 -0.16346651 -0.029791845 0.026756955 -0.07175113 0.0039601573 0.14297315 0.05977435 -0.19252208 0.070620954 0.10298138 -0.07586971 -0.028291589 -0.08012689 -0.010066329 -0.07836137 -0.12664884 -0.04724281 -0.039616454 0.1491865 0.25384095 0.0015197791 0.108891405 0.11809898 -0.039147962 -0.012864422 -0.1534465 0.13482744 0.013865802 -0.11752515 -0.2084423 0.031839203 -0.028220473 0.028712433 -0.03766427 0.17287076 0.007953824 -0.12085102 0.0990271 -0.115014456 -0.0052019744 -0.08464629 0.21167567 -0.28959647 0.11466309 -0.115145 0.015628297 -0.15896347 -0.09278458 -0.13912329 -0.005739833 0.11728262 0.022566492 -0.1593071 0.056106765 -0.037604988 0.034000717 0.10732715 -0.011090776 0.03316839 -0.08561778 0.060718294 -0.018127045 -0.01935843 0.1266378 0.13998303 0.100970834 -0.1735175 0.098343164 0.005703107 -0.055882853 0.07137417 0.12920772 -0.05402808 -0.043494746 -0.041320704 -0.07210142 0.13772139 -0.009899018 -0.1425363 0.09061783 0.04990892 -0.15805866 -0.16097459 -0.019207358 0.014947259 0.015752273 0.09494773 -0.015976954 -0.027531693 0.11801048 0.07356917 0.13361882 0.076941706 0.023203282 -0.06292774 -0.04757581 -0.030900588 -0.050084807 -0.05713352 0.0821929 -0.07233744 -0.015807014 0.09815658 -0.1148205 -0.08865238 -0.2772932 -0.06567561 0.1642897 0.04432429 0.00020280985 -0.079284154 -0.27732965 -0.041521862 0.18514144 -0.18542452 0.13409469 0.03436642 0.31554458 -0.12023193 0.18934241 -0.08906559 0.10023093 -0.039274298
